/*
 * Copyright (c) 2026 EdgeImpulse Inc.
 *
 * Generated by Edge Impulse and licensed under the applicable Edge Impulse
 * Terms of Service. Community and Professional Terms of Service
 * (https://edgeimpulse.com/legal/terms-of-service) or Enterprise Terms of
 * Service (https://edgeimpulse.com/legal/enterprise-terms-of-service),
 * according to your product plan subscription (the “License”).
 *
 * This software, documentation and other associated files (collectively referred
 * to as the “Software”) is a single SDK variation generated by the Edge Impulse
 * platform and requires an active paid Edge Impulse subscription to use this
 * Software for any purpose.
 *
 * You may NOT use this Software unless you have an active Edge Impulse subscription
 * that meets the eligibility requirements for the applicable License, subject to
 * your full and continued compliance with the terms and conditions of the License,
 * including without limitation any usage restrictions under the applicable License.
 *
 * If you do not have an active Edge Impulse product plan subscription, or if use
 * of this Software exceeds the usage limitations of your Edge Impulse product plan
 * subscription, you are not permitted to use this Software and must immediately
 * delete and erase all copies of this Software within your control or possession.
 * Edge Impulse reserves all rights and remedies available to enforce its rights.
 *
 * Unless required by applicable law or agreed to in writing, the Software is
 * distributed on an "AS IS" BASIS, WITHOUT WARRANTIES OR CONDITIONS OF ANY KIND,
 * either express or implied. See the License for the specific language governing
 * permissions, disclaimers and limitations under the License.
 */
// Generated on: 14.05.2026 20:22:33

#include <stdio.h>
#include <stdlib.h>
#include "edge-impulse-sdk/tensorflow/lite/c/builtin_op_data.h"
#include "edge-impulse-sdk/tensorflow/lite/c/common.h"
#include "edge-impulse-sdk/tensorflow/lite/micro/micro_mutable_op_resolver.h"
#include "edge-impulse-sdk/porting/ei_classifier_porting.h"

#if EI_CLASSIFIER_PRINT_STATE
#if defined(__cplusplus) && EI_C_LINKAGE == 1
extern "C" {
    extern void ei_printf(const char *format, ...);
}
#else
extern void ei_printf(const char *format, ...);
#endif
#endif

#define STRINGIZE(x) #x
#define STRINGIZE_VALUE_OF(x) STRINGIZE(x)

#if defined (__GNUC__)  /* GNU compiler */
#define ALIGN(X) __attribute__((aligned(X)))
#define DEFINE_SECTION(x) __attribute__((section(x)))
#elif defined (_MSC_VER)
#define ALIGN(X) __declspec(align(X))
#elif defined (__TASKING__) /* TASKING Compiler */
#define ALIGN(X) __align(X)
#define DEFINE_SECTION(x) __attribute__((section(x)))
#elif defined (__ARMCC_VERSION) /* Arm Compiler */
#define ALIGN(X) __ALIGNED(x)
#define DEFINE_SECTION(x) __attribute__((section(x)))
#elif defined (__ICCARM__) /* IAR Compiler */
#define ALIGN(x) __attribute__((aligned(x)))
#define DEFINE_SECTION(x) __attribute__((section(x)))
#elif defined (__clang__) /* LLVM/Clang Compiler */
#define ALIGN(X) __ALIGNED(x)
#define DEFINE_SECTION(x) __attribute__((section(x)))
#endif

#if defined(EI_MODEL_SECTION) && (defined(__GNUC__) || defined(__clang__))
#define MODEL_SECTION(X) __attribute__((section(STRINGIZE_VALUE_OF(X))))
#else
#define MODEL_SECTION(X)
#endif

#ifndef EI_MAX_SCRATCH_BUFFER_COUNT
#ifndef CONFIG_IDF_TARGET_ESP32S3
#define EI_MAX_SCRATCH_BUFFER_COUNT 14
#else
#define EI_MAX_SCRATCH_BUFFER_COUNT 28
#endif // CONFIG_IDF_TARGET_ESP32S3
#endif // EI_MAX_SCRATCH_BUFFER_COUNT

#ifndef EI_MAX_OVERFLOW_BUFFER_COUNT
#define EI_MAX_OVERFLOW_BUFFER_COUNT 10
#endif // EI_MAX_OVERFLOW_BUFFER_COUNT

using namespace tflite;
using namespace tflite::ops;
using namespace tflite::ops::micro;

namespace {

#if defined(EI_CLASSIFIER_ALLOCATION_STATIC_HIMAX) || defined(EI_CLASSIFIER_ALLOCATION_STATIC_HIMAX_GNU)
constexpr int kTensorArenaSize = 154944;
#else
constexpr int kTensorArenaSize = 153920;
#endif

#if defined(EI_CLASSIFIER_ALLOCATION_STATIC)
#if defined (EI_TENSOR_ARENA_LOCATION)
uint8_t tensor_arena[kTensorArenaSize] ALIGN(16) DEFINE_SECTION(STRINGIZE_VALUE_OF(EI_TENSOR_ARENA_LOCATION));
#else
uint8_t tensor_arena[kTensorArenaSize] ALIGN(16);
#endif
#elif defined(EI_CLASSIFIER_ALLOCATION_STATIC_HIMAX)
#pragma Bss(".tensor_arena")
uint8_t tensor_arena[kTensorArenaSize] ALIGN(16);
#pragma Bss()
#elif defined(EI_CLASSIFIER_ALLOCATION_STATIC_HIMAX_GNU)
uint8_t tensor_arena[kTensorArenaSize] ALIGN(16) __attribute__((section(".tensor_arena")));
#else
#define EI_CLASSIFIER_ALLOCATION_HEAP 1
uint8_t* tensor_arena = NULL;
#endif

static uint8_t* tensor_boundary;
static uint8_t* current_location;

template <int SZ, class T> struct TfArray {
  int sz; T elem[SZ];
};

enum used_operators_e {
  OP_CONV_2D, OP_DEPTHWISE_CONV_2D, OP_ADD, OP_SOFTMAX,  OP_LAST
};

struct TensorInfo_t { // subset of TfLiteTensor used for initialization from constant memory
  TfLiteAllocationType allocation_type;
  TfLiteType type;
  void* data;
  TfLiteIntArray* dims;
  size_t bytes;
  TfLiteQuantization quantization;
};

typedef struct {
  TfLiteTensor tensor;
  int16_t index;
} TfLiteTensorWithIndex;

typedef struct {
  TfLiteEvalTensor tensor;
  int16_t index;
} TfLiteEvalTensorWithIndex;

TfLiteContext ctx{};
static const int MAX_TFL_TENSOR_COUNT = 4;
static TfLiteTensorWithIndex tflTensors[MAX_TFL_TENSOR_COUNT];
static const int MAX_TFL_EVAL_COUNT = 4;
static TfLiteEvalTensorWithIndex tflEvalTensors[MAX_TFL_EVAL_COUNT];
TfLiteRegistration registrations[OP_LAST];

namespace g0 {
const TfArray<4, int> tensor_dimension0 = { 4, { 1,96,96,3 } };
const TfArray<1, float> quant0_scale = { 1, { 0.0039215688593685627, } };
const TfArray<1, int> quant0_zero = { 1, { -128 } };
const TfLiteAffineQuantization quant0 = { (TfLiteFloatArray*)&quant0_scale, (TfLiteIntArray*)&quant0_zero, 0 };
const MODEL_SECTION(EI_MODEL_SECTION) ALIGN(16) int32_t tensor_data1[4] = { 23140, -35290, -35172, -32717, };
const TfArray<1, int> tensor_dimension1 = { 1, { 4 } };
const TfArray<4, float> quant1_scale = { 4, { 0.00021564526832662523, 0.00017224827024620026, 0.00017334826407022774, 0.00018221508071292192, } };
const TfArray<4, int> quant1_zero = { 4, { 0,0,0,0 } };
const TfLiteAffineQuantization quant1 = { (TfLiteFloatArray*)&quant1_scale, (TfLiteIntArray*)&quant1_zero, 0 };
const MODEL_SECTION(EI_MODEL_SECTION) ALIGN(16) int8_t tensor_data2[4*1*1*32] = { 
  /* [0][0][][] */ 41,-26,-70,-53,127,-42,-10,-42,85,-15,63,89,-64,-33,43,-8,14,-34,-92,11,-9,33,-14,72,17,-9,-11,32,110,-55,44,12, 
  /* [1][0][][] */ 67,81,-86,-20,-41,44,127,46,-46,-70,-87,36,94,-62,79,-116,121,-101,17,-62,10,-81,-101,-10,-8,-101,70,-60,-57,-108,-30,-26, 
  /* [2][0][][] */ -49,109,26,90,-37,-12,92,35,-87,-107,91,-53,-99,91,-127,75,50,61,86,-74,-12,22,-42,-26,33,-39,85,-94,-43,18,79,71, 
  /* [3][0][][] */ 77,-72,76,-12,-14,111,42,-6,1,-98,39,118,78,-11,-127,-18,108,-91,107,-3,-120,6,-25,-19,88,-10,-93,83,-91,116,32,47, 
};
const TfArray<4, int> tensor_dimension2 = { 4, { 4,1,1,32 } };
const TfArray<4, float> quant2_scale = { 4, { 0.0038881893269717693, 0.0031057202722877264, 0.0031255537178367376, 0.0032854266464710236, } };
const TfLiteAffineQuantization quant2 = { (TfLiteFloatArray*)&quant2_scale, (TfLiteIntArray*)&g0::quant1_zero, 0 };
const MODEL_SECTION(EI_MODEL_SECTION) ALIGN(16) int32_t tensor_data3[32] = { 311, -60, -342, -254, -38, 34, -25, -104, 299, -153, -230, -2, 238, -90, 591, -439, -37, -307, -581, -130, 55, 175, 1031, -310, -339, -265, -24, -371, 1034, -312, 32, -174, };
const TfArray<1, int> tensor_dimension3 = { 1, { 32 } };
const TfArray<32, float> quant3_scale = { 32, { 4.3471485696500167e-05, 4.4608008465729654e-05, 4.4325166527414694e-05, 4.481133510125801e-05, 4.2529773054411635e-05, 4.5698616304434836e-05, 3.9447899325750768e-05, 4.5628239604411647e-05, 4.4055792386643589e-05, 4.1084389522438869e-05, 4.4941512896912172e-05, 4.0771490603219718e-05, 4.3915781134273857e-05, 4.3663731048582122e-05, 5.031133332522586e-05, 4.3153526348760352e-05, 4.2551389924483374e-05, 4.2452174966456369e-05, 4.3604424718068913e-05, 3.8814185245428234e-05, 4.5769567805109546e-05, 4.53114953415934e-05, 5.1063139835605398e-05, 4.2445521103218198e-05, 4.1995743231382221e-05, 4.1549457819201052e-05, 4.359567174105905e-05, 4.0092738345265388e-05, 4.7543671826133505e-05, 4.2706091335276142e-05, 4.7365625505335629e-05, 4.2946030589519069e-05, } };
const TfArray<32, int> quant3_zero = { 32, { 0,0,0,0,0,0,0,0,0,0,0,0,0,0,0,0,0,0,0,0,0,0,0,0,0,0,0,0,0,0,0,0 } };
const TfLiteAffineQuantization quant3 = { (TfLiteFloatArray*)&quant3_scale, (TfLiteIntArray*)&quant3_zero, 0 };
const MODEL_SECTION(EI_MODEL_SECTION) ALIGN(16) int8_t tensor_data4[32*1*1*96] = { 
  /* [0][0][][] */ -30,-40,106,13,87,6,-79,-97,67,-114,-98,5,45,11,-31,61,-49,-25,-79,-44,-63,-96,9,116,-114,0,80,-50,112,1,-21,-80,84,-59,-87,63,-111,-73,-94,42,84,-81,-91,105,50,-102,114,-12,20,-65,-56,99,-72,-48,-87,104,42,71,127,-102,-85,69,-31,47,2,24,77,106,37,99,96,-117,110,-113,44,90,-99,18,-52,41,62,20,92,-1,-55,-28,-80,113,35,124,8,-122,6,52,31,21, 
  /* [1][0][][] */ -79,26,-70,4,-29,90,37,21,85,-109,-99,81,41,-29,23,62,100,-38,39,127,-44,-6,31,25,32,9,-50,94,9,23,92,-55,58,112,-7,29,40,64,12,-60,-59,9,-16,-99,-34,44,-33,-49,-24,-83,86,67,21,95,-63,-63,34,91,67,74,-62,102,-77,-72,-50,39,72,42,100,33,12,11,-110,76,-56,43,98,-50,-39,72,-77,81,-51,-101,25,97,-71,-55,80,86,94,36,68,80,48,5, 
  /* [2][0][][] */ 58,52,-72,84,-13,-66,73,101,-96,61,-43,127,99,-17,62,-111,-57,-39,52,42,-81,-25,106,9,-29,73,89,5,-64,64,83,86,-82,-32,-109,-92,-89,84,108,-29,-117,-65,14,0,-92,117,-24,-73,87,33,62,-101,-32,53,9,11,-72,115,-65,3,-29,60,-29,50,82,41,38,84,-96,63,19,-56,33,-79,30,25,-67,-28,-3,14,39,-106,9,-33,-3,-95,-8,-33,100,96,-34,3,-46,-64,-59,-76, 
  /* [3][0][][] */ 62,1,31,-2,-66,45,-106,67,77,1,65,-7,103,92,64,15,94,83,-28,23,127,-86,-68,-114,-26,-106,-102,102,47,-86,90,18,-75,-23,-23,-8,-111,-15,75,63,-21,-75,-69,-4,68,47,-47,-64,57,-88,4,7,122,39,101,-113,-104,-85,-116,-63,-100,23,-54,49,55,-16,-60,-13,-22,-45,12,117,19,-109,32,-47,48,80,99,-59,-70,-113,54,112,34,21,-31,-95,-60,57,0,-98,79,-74,-67,44, 
  /* [4][0][][] */ 57,107,-1,51,-28,-6,30,16,59,124,-9,49,36,-33,-8,-68,-22,-5,-58,36,106,-92,87,25,-16,26,63,-55,-45,37,-58,-45,70,119,16,-90,-42,0,-115,44,-47,-64,-73,-85,43,111,43,58,24,-28,6,-63,-93,53,-78,47,31,-99,25,14,33,-49,-36,-62,-41,55,0,-42,60,-102,-104,-86,-60,53,127,52,61,-22,-10,-58,5,-38,-96,-19,4,69,90,-1,-121,-74,38,56,49,109,-85,-14, 
  /* [5][0][][] */ 90,-80,71,75,17,-97,26,51,99,-127,-2,-57,13,88,30,36,60,57,-72,88,32,49,17,-25,-104,-74,-15,-88,48,27,10,-104,-36,-6,-74,17,-109,-40,35,26,-83,-49,37,91,-40,18,28,-49,-103,90,-1,19,39,4,26,-29,108,52,-43,-37,12,-73,47,-73,-31,95,-24,32,56,0,105,-67,-40,51,-26,-66,6,-44,12,81,103,29,28,98,-78,81,-4,37,67,-95,119,67,-30,23,54,-82, 
  /* [6][0][][] */ 10,-45,124,88,-81,-50,3,81,-9,-103,12,-94,75,59,127,-123,48,6,3,124,-77,-125,121,68,-67,-100,-10,-65,-25,-106,49,-79,-95,-125,-48,-110,-12,46,-97,97,98,66,31,-15,-123,119,-96,-44,-89,18,-52,-64,76,-53,112,-39,22,-2,-62,126,-113,-9,82,-74,-43,79,113,-45,82,0,-105,-1,67,-92,-102,-41,-72,-108,-56,-25,43,-34,52,-24,-75,-91,-40,-92,99,110,115,24,-65,-72,96,-24, 
  /* [7][0][][] */ 94,62,-40,-39,-62,123,-19,6,113,-14,-92,6,39,-88,40,69,47,15,1,119,54,31,-8,80,-73,79,32,45,-73,117,-26,34,21,25,61,95,-108,80,12,-22,89,-73,83,60,42,-1,91,-104,46,-55,-127,-60,-14,85,23,11,120,-83,12,-57,-5,-18,75,-106,-59,-49,63,26,-108,24,67,79,83,1,48,54,-47,48,-94,45,87,-41,-17,-68,78,27,-105,95,80,9,89,64,-66,-47,11,-57, 
  /* [8][0][][] */ 29,35,-32,-83,53,14,-67,-20,10,57,49,106,10,-34,-73,-66,-60,96,-58,14,30,-18,86,114,-105,114,56,89,-61,9,-78,118,98,-29,54,-3,125,8,-25,70,82,103,-105,-107,0,-23,-17,110,26,-87,-34,0,-64,-9,-26,-78,42,97,-97,107,127,57,45,111,-30,-42,-15,99,-75,52,29,0,76,97,22,29,-48,111,86,71,38,94,-110,-79,33,49,75,-42,35,-34,-83,100,-61,-93,-55,60, 
  /* [9][0][][] */ 0,3,118,50,95,-109,-54,-125,43,57,-13,50,-21,-84,-110,-29,3,-3,-95,-70,-1,103,-116,-113,117,-10,-17,24,-18,-37,-97,105,60,1,28,-29,-84,12,-39,-50,45,-74,56,-104,80,18,-114,52,47,-17,-57,-54,76,-74,-80,104,86,-60,7,-7,-81,109,74,-72,-83,1,108,47,-38,106,112,-98,11,85,-106,-102,-89,-127,-44,112,30,31,98,27,-50,-107,37,-22,99,30,-34,123,114,-5,57,-38, 
  /* [10][0][][] */ -62,86,85,-60,-10,79,94,40,49,18,16,-60,83,81,-39,5,-41,59,-79,-64,-10,20,49,-75,30,61,-127,-105,-46,64,-82,-69,66,93,96,75,-46,10,-15,24,-37,119,-99,-38,-82,-48,-4,-51,-6,-4,14,-3,69,15,-62,-31,-109,-3,15,-53,-6,75,88,25,95,-73,-102,-32,23,-14,-98,-51,67,76,-97,100,-27,53,59,23,77,-6,70,107,-94,51,99,-26,43,-2,-24,-54,-45,-34,-51,-62, 
  /* [11][0][][] */ 120,17,-15,110,114,27,58,33,123,87,-83,125,-19,-103,31,-69,-60,-104,71,39,33,80,23,-119,-114,-92,-17,81,83,-18,37,-26,-88,-82,52,49,-76,82,-34,-57,-26,108,-73,-5,-37,-66,-92,-88,85,101,110,46,-96,-100,22,36,-80,-59,-33,-100,-92,93,68,-20,23,88,-59,38,84,67,-92,-83,43,115,-127,53,-80,28,-45,95,-105,-34,-84,-44,54,-83,17,-39,-96,-2,17,-113,-100,-34,-71,-33, 
  /* [12][0][][] */ 15,69,-49,1,74,29,-27,27,-74,44,-8,25,-43,12,51,-68,-89,-23,-55,-68,31,-3,22,104,-75,-63,106,-95,98,24,-43,102,-79,-73,-37,8,0,-79,-33,54,118,39,-106,-36,-32,-86,-44,118,-42,-112,-90,105,42,-7,-77,77,-2,-55,67,73,46,99,17,59,118,38,-36,127,48,103,56,66,96,92,-8,3,-27,41,-106,-86,-49,97,46,12,-34,45,56,120,-85,-98,110,26,88,-23,28,77, 
  /* [13][0][][] */ 101,-47,96,99,102,112,67,86,85,-108,10,-30,95,77,58,-48,-116,-87,-45,29,83,-35,118,-53,-62,49,-15,18,-79,-83,98,50,22,115,-38,49,-84,-16,50,57,-58,92,-37,21,-36,49,5,-16,33,106,-63,-96,-72,39,109,-89,-54,52,-23,-77,-28,120,-91,-3,-55,-52,-101,75,-24,-6,96,21,-99,38,-83,-42,-98,63,74,-56,58,-94,116,41,-73,-121,103,127,8,-54,-95,66,116,-32,75,-8, 
  /* [14][0][][] */ -11,-62,84,62,67,-20,-4,-97,-62,-9,68,82,-38,-56,-59,-66,-29,-25,5,21,-29,40,13,62,-94,-18,1,34,-82,-97,-27,41,118,-9,-24,27,99,126,26,-92,24,-86,37,90,79,-87,100,-62,127,15,74,52,81,-2,-7,41,-39,7,32,95,12,-38,-20,101,-73,-4,77,-90,-66,-72,-71,87,11,89,55,-54,49,-78,56,41,62,-20,-94,-29,-78,-46,-79,95,102,31,73,-29,109,95,0,57, 
  /* [15][0][][] */ 10,-15,-34,66,104,-92,53,-90,52,-1,-79,4,108,-2,-96,-121,82,2,-93,22,42,11,64,101,82,76,32,88,15,52,58,-104,-2,-2,-70,9,-72,106,118,-75,8,105,-53,-27,24,-80,-48,-86,-16,-84,-1,22,-105,-110,-54,-8,57,51,-54,101,-42,-65,-7,96,-44,90,-79,-4,-61,1,53,-72,9,-4,53,-114,-10,47,97,73,-88,59,-109,-70,-127,-44,-98,31,78,61,-119,-39,61,110,-112,108, 
  /* [16][0][][] */ -75,2,102,-59,44,127,-52,44,52,30,-106,77,-31,-52,-54,-58,110,81,70,73,116,82,-39,55,-39,40,-68,61,-98,25,35,9,-107,75,55,57,-38,51,-42,-62,23,-45,75,90,57,102,98,-11,-60,-115,-17,110,-35,112,70,35,37,95,78,15,103,97,44,61,60,18,-34,100,36,103,-23,-9,35,70,57,90,-4,100,-107,-11,18,-91,61,11,11,105,104,16,83,15,-4,106,60,-33,-82,27, 
  /* [17][0][][] */ 37,-108,25,75,-30,-116,-74,-99,40,-81,80,48,113,59,-123,43,28,51,112,115,-95,-20,8,-60,17,65,-82,26,108,-54,-33,78,-37,-29,24,18,-52,98,-85,-36,-100,-46,-15,-13,8,14,83,-117,82,108,8,24,-9,75,101,-74,-127,84,-92,-121,51,-94,75,97,-95,-78,37,-110,-112,-3,104,29,9,-104,-71,62,114,-56,37,-64,11,-20,-68,-92,-116,70,76,-33,22,75,-106,-118,-3,99,18,16, 
  /* [18][0][][] */ -100,86,92,-81,-16,-114,-114,-8,-16,58,-116,-59,-39,22,46,-65,8,-34,41,-27,88,-58,8,-90,19,-106,-30,94,17,34,-13,37,30,-39,-118,-116,-45,25,-43,53,-48,-12,-57,-21,-124,6,18,-15,4,-32,63,24,-121,-16,-7,73,-50,27,-22,-127,72,94,6,21,-69,-124,-44,80,63,-83,-81,96,-103,-48,-99,-115,47,41,-14,-85,-65,-17,-39,-74,87,-45,58,61,-117,-83,-69,103,75,-61,42,-23, 
  /* [19][0][][] */ 39,34,87,46,65,-108,108,100,105,-55,36,-19,-79,39,-62,72,77,-112,118,50,-24,90,-61,17,93,-69,40,-72,-110,-127,-74,51,89,-92,34,-2,11,-78,-68,-106,50,-127,-86,13,-95,39,88,-106,-30,33,-11,43,-38,12,-4,-1,24,111,-7,-27,75,-57,119,63,-77,1,-26,9,-6,69,86,-58,-60,-102,-60,-83,-25,-124,19,119,66,-114,-34,99,-94,0,13,3,97,33,-1,71,-31,120,76,-39, 
  /* [20][0][][] */ -9,63,70,91,-69,100,21,54,16,36,-77,0,6,88,47,-66,-45,-26,-57,12,21,-38,-68,-63,79,-46,-91,50,25,48,-28,114,103,51,17,54,44,-21,-13,-102,-74,-32,-80,-93,-12,-54,-57,102,66,-92,-66,65,44,116,70,15,86,63,107,85,127,-35,-65,1,-15,-60,-44,12,-54,-68,-67,74,-58,-61,39,19,121,75,105,99,81,21,79,-19,61,107,-14,70,18,98,24,81,37,22,25,27, 
  /* [21][0][][] */ 127,92,71,-90,94,-84,68,33,16,-52,-68,49,17,49,-43,-87,-100,-23,44,-10,117,-46,69,-82,57,-59,-26,76,12,-6,25,6,2,29,-97,-94,104,118,-97,-32,10,27,38,-7,-66,-57,-49,97,-6,-67,8,78,35,75,-87,44,-59,73,-60,108,64,-65,3,-8,63,40,-36,-64,-92,0,49,95,21,16,61,66,-115,-30,61,111,27,99,48,-42,44,-93,76,-71,-88,77,90,-81,-26,-41,77,-28, 
  /* [22][0][][] */ 60,-21,-30,-51,80,-59,110,64,-61,107,-40,-75,127,-68,-71,-49,49,92,-83,-47,88,-41,52,43,112,38,-70,117,-44,-62,-24,-64,76,81,33,36,28,13,-49,-83,23,16,16,103,78,-74,103,-2,-14,-61,26,-1,-49,-47,-29,52,-9,-5,-16,-4,115,-44,-59,-77,-43,35,-77,-24,105,98,-15,17,-44,44,67,-54,51,-21,75,104,107,-50,-50,-73,94,88,108,-10,-35,49,-54,70,48,36,-18,93, 
  /* [23][0][][] */ 55,-99,-2,49,90,-125,-5,-111,48,-87,77,66,17,-118,11,-50,80,-43,-112,95,83,-91,96,-44,-22,-16,74,15,62,38,64,-47,-46,36,12,25,90,-16,-121,-4,-116,-10,0,-120,-78,-101,105,18,71,-119,-85,-62,72,-66,-62,85,-95,-32,90,37,-121,-99,-64,-16,26,27,-127,-121,61,-25,103,-84,-17,-34,-46,-105,35,-31,86,111,-64,-60,11,-115,86,-2,105,-32,-102,34,97,-13,97,-63,-38,77, 
  /* [24][0][][] */ -86,-58,-115,-79,-92,-120,-79,-101,61,114,77,40,110,55,-48,-127,-91,36,21,-58,91,-90,-65,-46,49,-36,68,51,102,51,-4,-71,-3,2,44,22,-62,-95,59,-29,-83,-110,98,-3,15,-45,38,67,-94,-54,-28,9,65,53,64,-83,-12,72,23,-7,85,-12,31,90,-103,92,-56,-99,-110,46,-66,-35,-47,35,90,96,57,-85,-115,-92,-89,-104,-72,-126,-5,57,-21,-110,20,-118,1,-82,-26,23,-103,25, 
  /* [25][0][][] */ -67,-62,-88,-17,89,-63,-114,48,41,-118,-47,24,100,-5,-122,-30,-82,71,33,-98,78,80,-19,-68,8,-60,-84,35,75,-65,36,113,93,-120,40,78,95,-70,-31,-25,-94,94,-117,-4,96,38,75,29,-112,109,-50,-1,40,6,-73,19,-20,68,-104,70,127,40,65,78,8,71,-26,-9,-84,-12,-20,-123,31,-121,87,17,70,68,9,28,45,47,-23,80,-84,-52,-113,-100,-19,-33,102,21,-122,-5,17,-82, 
  /* [26][0][][] */ 31,-122,-17,-1,-82,11,-6,2,-96,-117,111,70,-96,-45,18,-14,109,35,-72,-46,14,73,97,17,54,66,2,40,14,31,-90,14,-26,-40,-87,-98,-69,97,-22,105,-93,106,64,30,-64,85,-40,109,-17,37,-20,119,22,-26,17,-113,100,55,62,22,9,-95,49,-8,126,-10,-54,51,-78,86,79,97,77,-98,-90,7,71,-108,-92,12,-27,82,80,-62,81,-13,-48,25,-79,127,11,36,-59,106,80,99, 
  /* [27][0][][] */ 14,4,-73,-113,-113,-72,-80,-19,39,127,36,-116,-22,56,82,-37,64,-24,71,-74,-105,5,-37,-29,-112,45,-120,-7,67,30,-41,-5,60,70,-99,-96,-99,-75,-121,91,-107,11,28,15,99,22,67,104,90,78,63,-76,-97,-92,-11,-44,110,-31,-125,-88,-66,-70,-31,69,43,-55,-126,110,60,16,-126,2,58,-38,-13,-100,51,-77,88,103,85,-35,121,-59,-85,-88,-43,31,-57,-10,-42,-54,59,21,94,67, 
  /* [28][0][][] */ 94,23,94,37,-57,-36,-75,-70,-40,-24,69,67,-95,-60,35,107,119,127,-74,103,-21,36,-74,-51,-57,95,-49,-20,-31,-57,39,26,-47,37,83,96,66,-65,-39,22,122,52,-81,76,-47,13,39,59,58,-29,-45,-6,-73,37,84,68,53,-14,75,72,46,21,-49,48,59,86,-7,58,-26,23,-99,-25,64,95,29,-78,-86,-32,-67,40,-38,-66,112,-5,98,-68,70,-49,-86,-40,-46,-10,19,96,-57,-48, 
  /* [29][0][][] */ 68,67,50,-53,-92,-2,-124,18,106,-32,-94,-78,119,-102,-60,-47,-100,92,47,-75,-62,-38,53,0,-38,8,-46,-23,-97,-22,110,-6,39,-9,-94,-44,-16,96,-6,99,47,116,-39,84,-7,109,-51,-22,11,-13,40,-111,81,-108,100,47,-96,79,-54,107,-127,92,-87,-65,-73,-64,49,97,89,-81,42,-57,112,76,52,27,99,-65,-31,39,0,-93,14,-69,64,119,54,78,-25,87,66,83,-101,37,-16,55, 
  /* [30][0][][] */ 26,-57,-55,33,-90,20,-57,-13,104,-19,0,-37,-94,17,55,11,-2,34,70,-90,38,-89,-101,13,-99,23,-61,106,-24,-98,-82,7,-79,-62,-127,-47,3,-13,-27,23,82,-68,-9,85,96,-38,95,56,-77,66,12,-98,69,-45,-8,95,-85,-50,-74,-62,-108,-1,-74,-30,-98,-77,-84,83,-52,102,38,-31,-85,98,29,-78,-59,-83,-67,-53,28,10,-105,-19,-95,28,-111,99,-32,-103,68,51,-29,0,7,-61, 
  /* [31][0][][] */ 75,-97,41,108,60,49,-58,-95,-23,-23,-77,-93,96,-120,-48,113,-67,-94,32,44,62,37,-33,107,50,-119,29,41,-75,-71,41,111,8,19,-94,-11,96,-35,-60,-109,57,-62,-23,30,6,-52,-46,27,67,18,83,-34,-112,-67,-80,12,-121,63,3,112,-46,-9,75,-92,52,117,-44,-77,56,-112,-127,18,-106,-43,-14,9,-54,-49,53,95,-76,-34,55,73,55,87,-96,23,14,-61,-87,-60,11,99,-13,-28, 
};
const TfArray<4, int> tensor_dimension4 = { 4, { 32,1,1,96 } };
const TfArray<32, float> quant4_scale = { 32, { 0.0018475380493327975, 0.0018958403961732984, 0.0018838195828720927, 0.0019044816726818681, 0.001807515393011272, 0.0019421911565586925, 0.0016765356995165348, 0.0019392002141103148, 0.0018723711837083101, 0.0017460865201428533, 0.0019100141944363713, 0.0017327882815152407, 0.0018664206145331264, 0.0018557085422798991, 0.002138231648132205, 0.0018340247916057706, 0.0018084340263158083, 0.0018042174633592367, 0.0018531880341470242, 0.0016496028983965516, 0.0019452066626399755, 0.0019257385283708572, 0.0021701834630221128, 0.0018039345741271973, 0.0017848190618678927, 0.0017658518627285957, 0.0018528160871937871, 0.001703941379673779, 0.0020206060726195574, 0.0018150088144466281, 0.0020130390767008066, 0.0018252062145620584, } };
const TfLiteAffineQuantization quant4 = { (TfLiteFloatArray*)&quant4_scale, (TfLiteIntArray*)&g0::quant3_zero, 0 };
const MODEL_SECTION(EI_MODEL_SECTION) ALIGN(16) int32_t tensor_data5[96] = { -2200, 3959, 9798, 2766, -3785, -4124, 21246, 2800, 2823, -1823, 14384, -411, -13347, 2594, 14992, 8626, 14672, 5770, -4180, -5578, 6772, 26348, 21946, 14925, 1115, 1297, 5050, 3838, 2697, -5749, 6592, -3035, -353, 4956, 190, 997, 9130, 4908, -2275, 5920, 8984, 5278, 6380, 11218, 5105, 4799, 2090, 10378, 6331, -6472, -7798, 657, -282, -1492, 2155, 21, 328, -1097, -5536, 11334, -1018, 1815, -1416, -2047, -4691, 7254, 19741, 2277, -2812, 1133, 2148, 2454, 2646, -1636, 781, 11240, -510, 18302, 22870, -1009, 10909, 2850, -454, 1553, 14052, 9778, 4730, 1663, 6490, 5172, -321, -8146, 791, -2816, -1925, -2675, };
const TfArray<1, int> tensor_dimension5 = { 1, { 96 } };
const TfArray<96, float> quant5_scale = { 96, { 0.00028164396644569933, 0.00039883994031697512, 0.00024461827706545591, 0.000307760841678828, 0.00028437050059437752, 0.00035998859675601125, 0.00015585328219458461, 0.00025454565184190869, 0.00021291610028129071, 0.00034457948640920222, 0.00013849121751263738, 0.00020407482224982232, 0.0001881648349808529, 0.0010939601343125105, 0.00020623585442081094, 0.00013356782437767833, 0.00012731511378660798, 0.00025161117082461715, 0.00047033187001943588, 0.00030284043168649077, 9.2794180091004819e-05, 0.00010222100536338985, 0.0001394967403030023, 0.00011304971849313006, 0.00017074297647923231, 0.0003962398914154619, 0.00059334520483389497, 0.00028148276032879949, 0.00019150477601215243, 0.0003473276156000793, 0.00022126981639303267, 0.00025445310166105628, 0.00014774026931263506, 0.00023077147488947958, 0.00031806001788936555, 0.00022693567734677345, 0.00020976962696295232, 0.00021663524967152625, 0.00027968973154202104, 0.00030148663790896535, 0.00014412631571758538, 0.00048800816875882447, 0.00023545087606180459, 0.00020712833793368191, 0.00037446676287800074, 0.00020937643421348184, 0.00024795488570816815, 0.00021001171262469143, 0.00021381386613938957, 0.00020340806804597378, 0.00020557580864988267, 0.00017463772383052856, 0.00051792251178994775, 0.00019711692584678531, 0.00035521763493306935, 0.0002892455377150327, 0.00035245943581685424, 0.00024279550416395068, 0.0002738756884355098, 0.00016356080595869571, 0.00071227533044293523, 0.00035550913889892399, 0.00019516488828230649, 0.00038181652780622244, 0.00039765553083270788, 0.00026458670618012547, 0.00010992972966050729, 0.00018226313113700598, 0.00041738038999028504, 0.00029648037161678076, 0.00018540948804002255, 0.00021253584418445826, 0.00051212141988798976, 0.00026576191885396838, 0.00025159853976219893, 0.00019211530161555856, 0.00026628025807440281, 0.00010259511327603832, 7.9697631008457392e-05, 0.0001865147496573627, 0.00013507757103070617, 0.00012342302943579853, 0.00016759526624809951, 0.000157288828631863, 0.00013015940203331411, 0.00024407141609117389, 0.00049747904995456338, 0.00017987252795137465, 0.00010782178287627175, 0.00038868788396939635, 0.00025092350551858544, 0.00024420415866188705, 0.00026838039048016071, 0.00037369265919551253, 0.00031551936990581453, 0.00014697093865834177, } };
const TfArray<96, int> quant5_zero = { 96, { 0,0,0,0,0,0,0,0,0,0,0,0,0,0,0,0,0,0,0,0,0,0,0,0,0,0,0,0,0,0,0,0,0,0,0,0,0,0,0,0,0,0,0,0,0,0,0,0,0,0,0,0,0,0,0,0,0,0,0,0,0,0,0,0,0,0,0,0,0,0,0,0,0,0,0,0,0,0,0,0,0,0,0,0,0,0,0,0,0,0,0,0,0,0,0,0 } };
const TfLiteAffineQuantization quant5 = { (TfLiteFloatArray*)&quant5_scale, (TfLiteIntArray*)&quant5_zero, 0 };
const MODEL_SECTION(EI_MODEL_SECTION) ALIGN(16) int8_t tensor_data6[96*1*1*16] = { 
  /* [0][0][][] */ -16,101,-7,-127,-44,-40,-19,-68,-24,23,-16,84,18,-48,11,39, 
  /* [1][0][][] */ -28,34,-62,-8,-35,-46,29,-85,51,46,-71,31,7,20,40,-127, 
  /* [2][0][][] */ 17,2,-37,23,49,24,-43,-51,127,-20,-22,10,-23,103,-48,10, 
  /* [3][0][][] */ 64,-62,-2,-105,16,-26,0,2,127,0,71,37,-17,44,39,112, 
  /* [4][0][][] */ -98,62,23,50,-1,-26,-14,44,-3,7,18,-17,-127,-17,-22,26, 
  /* [5][0][][] */ -1,63,108,-9,13,86,-98,82,-74,91,-11,-56,39,-49,-127,34, 
  /* [6][0][][] */ 51,-68,127,-116,53,-12,-34,80,-67,-109,65,-44,-10,75,3,102, 
  /* [7][0][][] */ 55,122,-36,-74,96,14,10,-50,127,110,-56,20,22,-12,84,36, 
  /* [8][0][][] */ 20,-76,9,-86,28,-48,28,-74,26,67,59,-8,12,127,95,50, 
  /* [9][0][][] */ 13,-39,-6,127,38,-17,49,-59,-59,101,29,-16,-3,-64,-12,-10, 
  /* [10][0][][] */ -22,21,-47,-127,16,-5,-14,31,44,-46,42,-40,-15,-64,-13,52, 
  /* [11][0][][] */ -5,16,37,-15,96,-24,80,-61,-87,40,9,18,2,127,-85,-31, 
  /* [12][0][][] */ 87,-9,-127,-24,29,-60,60,20,29,81,-103,-27,-27,110,46,18, 
  /* [13][0][][] */ -14,6,-25,6,9,-127,-6,16,2,-8,5,-7,12,-10,14,14, 
  /* [14][0][][] */ 29,-32,92,-36,59,17,-127,-68,-16,-22,23,0,8,-50,-5,-28, 
  /* [15][0][][] */ -120,12,-19,-48,-7,15,127,74,-44,44,119,-55,19,79,63,26, 
  /* [16][0][][] */ 14,41,127,86,12,32,68,81,-76,25,-50,-27,8,4,10,-72, 
  /* [17][0][][] */ -35,-103,-12,24,-73,-25,-55,15,-127,-29,7,-37,-6,46,63,-42, 
  /* [18][0][][] */ 5,40,8,60,29,8,28,-5,61,40,-34,-16,9,127,41,6, 
  /* [19][0][][] */ 20,-2,18,-6,91,18,-95,-37,-93,-47,-29,-127,-26,-19,12,-27, 
  /* [20][0][][] */ 127,-72,-65,-43,24,-122,-3,43,-54,43,-108,-46,55,4,34,21, 
  /* [21][0][][] */ 45,-42,82,-1,-17,25,-20,115,5,-82,75,31,-14,127,-6,64, 
  /* [22][0][][] */ 2,43,-49,127,-41,-4,111,59,2,50,-36,41,-15,14,58,-8, 
  /* [23][0][][] */ 46,-12,88,-106,35,5,-31,76,15,25,-5,-10,6,1,-127,0, 
  /* [24][0][][] */ -127,40,12,-10,9,100,26,-25,2,15,102,-14,-76,12,54,-28, 
  /* [25][0][][] */ 28,26,14,25,20,7,73,-50,2,-127,-6,-27,-20,-36,20,27, 
  /* [26][0][][] */ -36,-2,-11,-2,-49,-7,-39,-21,-90,-37,1,-24,11,127,-44,40, 
  /* [27][0][][] */ -5,25,6,74,47,-29,-19,-36,65,6,-19,-9,2,127,-2,21, 
  /* [28][0][][] */ 10,69,66,61,127,2,18,46,-91,-23,-40,-40,25,88,30,-43, 
  /* [29][0][][] */ 0,3,21,24,33,-9,8,39,-33,-16,-22,-127,1,-13,-29,-7, 
  /* [30][0][][] */ -10,91,-56,71,-38,-20,57,-127,-47,66,-30,1,55,48,93,83, 
  /* [31][0][][] */ -44,-24,-17,-69,-17,-11,-43,-108,12,68,-16,-127,-27,-53,-9,21, 
  /* [32][0][][] */ -127,-72,-5,68,62,30,-7,1,1,-45,-101,44,71,-4,60,64, 
  /* [33][0][][] */ 0,-32,-32,4,-69,-18,-64,-10,61,21,12,-47,16,-109,127,28, 
  /* [34][0][][] */ 51,-7,57,18,43,11,-47,74,-72,-47,71,25,14,-2,-13,127, 
  /* [35][0][][] */ -57,43,-65,32,-10,-6,32,-119,83,86,-79,6,14,-20,63,-127, 
  /* [36][0][][] */ -56,10,8,127,17,9,85,1,-14,22,10,-12,1,0,-64,-24, 
  /* [37][0][][] */ 32,-14,4,-72,15,-15,-27,-59,-66,2,-10,-10,-10,-127,86,-34, 
  /* [38][0][][] */ 49,111,-12,-54,127,-6,43,-43,116,91,-29,4,17,-34,58,16, 
  /* [39][0][][] */ -14,63,-3,-127,-11,9,-33,37,49,-60,-36,-16,8,72,42,23, 
  /* [40][0][][] */ -13,-24,19,-103,-17,-4,-20,-20,-127,-6,-17,-15,7,-97,50,-77, 
  /* [41][0][][] */ -1,-15,-34,-5,13,-34,22,-22,-20,19,-42,-8,-127,1,42,33, 
  /* [42][0][][] */ 127,74,-25,-24,-72,-37,-23,-38,11,32,83,-54,-63,49,97,-103, 
  /* [43][0][][] */ -2,105,-79,-19,48,-12,127,-23,49,92,-77,20,21,-101,-68,-83, 
  /* [44][0][][] */ -43,-13,20,-34,45,10,-98,-127,-27,-23,25,15,6,-38,50,-61, 
  /* [45][0][][] */ 12,42,-127,-50,34,-63,37,-65,13,45,-24,-81,16,-12,78,-24, 
  /* [46][0][][] */ 3,2,-20,-101,-19,19,18,-22,-127,-28,4,21,-5,-127,56,-40, 
  /* [47][0][][] */ 14,50,29,-13,127,-10,-33,17,-57,36,8,17,9,-2,104,-23, 
  /* [48][0][][] */ -127,-69,-18,44,76,9,14,-28,-3,-21,-100,32,56,0,78,49, 
  /* [49][0][][] */ 19,7,98,89,111,-7,69,21,-124,-46,-48,-56,13,127,34,-55, 
  /* [50][0][][] */ 22,-8,-97,-14,29,-127,-48,-13,-21,-38,4,-32,26,-10,-18,16, 
  /* [51][0][][] */ 6,32,37,3,19,14,-9,36,-127,59,13,-122,17,-103,-33,82, 
  /* [52][0][][] */ 13,46,-1,39,33,-2,13,38,54,91,-41,-56,40,127,76,14, 
  /* [53][0][][] */ 5,-49,-21,-18,-84,-5,-84,5,46,24,5,-60,32,-110,127,23, 
  /* [54][0][][] */ 63,-16,-52,1,127,86,-96,-35,-62,11,-41,-78,-6,-40,7,-36, 
  /* [55][0][][] */ 41,1,10,-5,38,-40,-77,-127,-45,-91,-62,24,-1,-16,4,-5, 
  /* [56][0][][] */ -21,10,28,-23,-5,-19,-104,76,-10,127,5,-22,31,8,-11,8, 
  /* [57][0][][] */ 14,21,-42,-23,-46,-56,116,73,-35,28,-30,3,27,34,127,-15, 
  /* [58][0][][] */ 52,18,-127,26,100,107,-63,73,-110,-34,6,-18,-29,17,-10,-27, 
  /* [59][0][][] */ -100,61,103,19,-67,-59,119,127,25,10,32,-20,11,14,71,-2, 
  /* [60][0][][] */ -10,-15,-50,2,19,-127,-31,-6,-10,-27,8,-24,30,-17,-18,16, 
  /* [61][0][][] */ 34,-6,30,127,85,23,38,10,-111,3,8,51,-17,32,45,-62, 
  /* [62][0][][] */ -49,127,25,-57,-32,-4,-88,75,-22,-61,-90,-72,-7,-92,-69,-47, 
  /* [63][0][][] */ -41,30,-19,127,-70,7,-63,-39,-54,-33,-27,-32,21,66,32,34, 
  /* [64][0][][] */ 22,1,9,49,11,16,-25,89,38,8,-23,-50,-22,-127,48,-4, 
  /* [65][0][][] */ -18,-37,13,-127,30,-22,50,-21,-11,48,-2,-96,-12,10,8,-60, 
  /* [66][0][][] */ 21,-28,51,-35,-12,17,-18,127,-1,-54,25,25,13,120,6,53, 
  /* [67][0][][] */ -1,56,-19,-127,-16,4,-49,41,72,-85,-41,-2,29,84,64,20, 
  /* [68][0][][] */ -31,30,127,11,12,6,-8,2,-41,-17,-19,-33,10,-14,65,-27, 
  /* [69][0][][] */ 127,76,-9,-15,-80,-23,-32,-22,10,28,83,-61,-68,69,51,-111, 
  /* [70][0][][] */ 37,13,-61,-18,-28,29,55,127,-31,92,-49,11,14,67,-28,5, 
  /* [71][0][][] */ 9,-12,-5,15,6,-78,-5,21,-34,17,-68,-5,-127,-11,44,58, 
  /* [72][0][][] */ 14,25,-127,6,8,12,29,102,-44,-24,-1,1,20,28,-3,-4, 
  /* [73][0][][] */ -39,13,47,3,52,-27,-78,-127,19,-73,42,-11,8,-38,34,-12, 
  /* [74][0][][] */ 4,45,43,127,25,-16,-79,87,-66,8,-61,50,21,-111,30,-102, 
  /* [75][0][][] */ 4,22,-52,0,16,-6,8,-12,101,33,-23,-7,4,127,-21,8, 
  /* [76][0][][] */ 4,-15,-7,19,3,-20,-8,52,11,-32,-14,-127,-3,-5,16,17, 
  /* [77][0][][] */ -16,45,-4,127,-40,12,82,92,0,28,-16,46,-5,3,-26,-18, 
  /* [78][0][][] */ 12,10,38,-112,66,-54,-23,24,36,-70,24,-34,19,127,36,75, 
  /* [79][0][][] */ -13,-94,-83,-52,-79,-11,25,-87,127,19,33,46,14,35,56,-56, 
  /* [80][0][][] */ -46,6,120,-116,4,-40,42,-106,-71,67,-84,-96,28,127,103,-67, 
  /* [81][0][][] */ -48,40,-127,29,71,-120,-26,61,-4,-46,75,-10,34,2,2,0, 
  /* [82][0][][] */ 127,-9,-9,8,11,-100,-23,22,-21,-1,-98,-9,105,9,9,20, 
  /* [83][0][][] */ -43,91,-127,-103,-49,-17,53,-126,68,56,-59,-115,17,71,46,101, 
  /* [84][0][][] */ -39,18,64,-23,1,-21,48,-127,-39,39,9,-77,37,32,65,16, 
  /* [85][0][][] */ -78,117,30,-127,-74,-24,-37,3,-50,-3,-66,26,6,-1,-91,-27, 
  /* [86][0][][] */ -4,11,-28,-4,-35,-40,127,21,-4,-25,-9,20,8,36,84,-19, 
  /* [87][0][][] */ -23,-28,3,-127,1,-32,53,-3,-12,20,-21,-111,-15,14,1,-52, 
  /* [88][0][][] */ 84,-27,28,-23,20,-89,17,46,-39,50,-127,-42,27,43,86,-23, 
  /* [89][0][][] */ 37,-32,-52,-50,40,-17,-23,-20,-45,11,40,-80,127,-15,51,-46, 
  /* [90][0][][] */ -3,-52,28,-69,53,1,-65,92,48,-71,-46,-32,-4,109,25,-127, 
  /* [91][0][][] */ -40,-4,-13,-32,22,-11,-34,-85,8,56,-6,-127,-35,-3,-6,11, 
  /* [92][0][][] */ -22,16,42,16,4,-127,10,4,4,-25,5,-20,3,-25,19,9, 
  /* [93][0][][] */ 35,-26,127,-6,-48,56,24,-35,-19,19,-61,-22,-21,-10,33,6, 
  /* [94][0][][] */ 34,5,-17,-29,27,1,-25,7,-34,-13,20,-70,127,-9,32,-23, 
  /* [95][0][][] */ 127,101,3,43,-96,-10,-86,1,-22,-26,122,-56,-48,24,61,-84, 
};
const TfArray<4, int> tensor_dimension6 = { 4, { 96,1,1,16 } };
const TfArray<96, float> quant6_scale = { 96, { 0.00091257737949490547, 0.0012923135655000806, 0.00079260749043896794, 0.00099720084108412266, 0.0009214119054377079, 0.0011664282064884901, 0.00050499284407123923, 0.00082477391697466373, 0.00068988668499514461, 0.0011164998868480325, 0.00044873659498989582, 0.00066123931901529431, 0.0006096881115809083, 0.0035446288529783487, 0.00066824146779254079, 0.00043278391240164638, 0.00041252397932112217, 0.00081526569556444883, 0.0015239603817462921, 0.00098125776275992393, 0.00030066992621868849, 0.00033121454180218279, 0.00045199465239420533, 0.00036630153772421181, 0.00055323814740404487, 0.0012838889379054308, 0.0019225457217544317, 0.00091205508215352893, 0.00062051013810560107, 0.0011254042619839311, 0.00071695423685014248, 0.00082447408931329846, 0.00047870518756099045, 0.00074774131644517183, 0.0010305719915777445, 0.00073531264206394553, 0.00067969155497848988, 0.00070193741703405976, 0.00090624531731009483, 0.00097687123343348503, 0.00046699534868821502, 0.001581234741024673, 0.00076290342258289456, 0.00067113328259438276, 0.00121334008872509, 0.0006784175056964159, 0.00080341869033873081, 0.00068047596141695976, 0.00069279561284929514, 0.00065907894168049097, 0.00066610280191525817, 0.00056585780112072825, 0.0016781626036390662, 0.00063869450241327286, 0.0011509694159030914, 0.00093720783479511738, 0.0011420323280617595, 0.00078670133370906115, 0.0008874068153090775, 0.00052996660815551877, 0.0023079009260982275, 0.0011519138934090734, 0.00063236954156309366, 0.0012371545890346169, 0.0012884758180007339, 0.00085730879800394177, 0.00035619220579974353, 0.00059056549798697233, 0.0013523879460990429, 0.00096065003890544176, 0.00060076027875766158, 0.00068865460343658924, 0.0016593659529462457, 0.0008611166849732399, 0.00081522477557882667, 0.00062248832546174526, 0.00086279620882123709, 0.00033242671634070575, 0.00025823473697528243, 0.00060434150509536266, 0.00043767574243247509, 0.00039991294033825397, 0.00054303900105878711, 0.00050964427646249533, 0.00042173999827355146, 0.00079083553282544017, 0.0016119220526888967, 0.00058281951351091266, 0.00034936208976432681, 0.0012594190193340182, 0.0008130375063046813, 0.00079126568743959069, 0.00086960103362798691, 0.0012108318042010069, 0.0010223397985100746, 0.00047621241537854075, } };
const TfLiteAffineQuantization quant6 = { (TfLiteFloatArray*)&quant6_scale, (TfLiteIntArray*)&g0::quant5_zero, 0 };
const MODEL_SECTION(EI_MODEL_SECTION) ALIGN(16) int32_t tensor_data7[16] = { -6818, 26084, -26811, -12093, -10221, 8851, 28885, -41315, 245, 27281, 16131, 10558, -2527, 22908, -4107, 6303, };
const TfArray<1, int> tensor_dimension7 = { 1, { 16 } };
const TfArray<16, float> quant7_scale = { 16, { 0.00070527091156691313, 0.00047563432599417865, 0.00021103795734234154, 0.00024820541148073971, 0.00048215119750238955, 0.00037674594204872847, 0.0003863800666294992, 0.00037675694329664111, 0.00031987958936952055, 0.00024577975273132324, 0.00068399624433368444, 0.00065059575717896223, 0.000419041229179129, 0.00021278558415360749, 0.00056917092297226191, 0.00043917083530686796, } };
const TfArray<16, int> quant7_zero = { 16, { 0,0,0,0,0,0,0,0,0,0,0,0,0,0,0,0 } };
const TfLiteAffineQuantization quant7 = { (TfLiteFloatArray*)&quant7_scale, (TfLiteIntArray*)&quant7_zero, 0 };
const MODEL_SECTION(EI_MODEL_SECTION) ALIGN(16) int8_t tensor_data8[16*1*1*96] = { 
  /* [0][0][][] */ -16,-8,-1,-41,20,-5,-47,12,15,3,-18,1,-5,-16,-30,-2,0,15,-11,5,13,-29,-2,-2,0,4,-5,127,29,-40,34,-11,7,0,0,-7,-18,9,-54,-1,-20,-5,-5,42,6,4,17,-4,20,2,-4,26,19,-14,-19,79,-5,16,-37,-37,-7,31,-5,-28,-38,-64,-10,34,0,8,27,-15,-9,-38,-11,-20,-30,21,3,8,-13,-26,27,14,-10,-3,-8,-103,1,-25,0,-8,39,-45,-41,-6, 
  /* [1][0][][] */ 30,-61,-75,-63,121,-10,57,41,-21,-93,-63,-19,13,-20,-70,32,-71,13,44,53,24,45,-15,-72,9,-15,-26,-89,29,-28,-67,35,-17,21,1,-13,-4,-11,-22,32,-37,22,-54,-24,-53,81,16,-9,18,-66,23,-31,-14,29,36,12,-68,-5,-47,-49,14,-25,-10,-45,-106,107,-16,-25,-17,-30,-16,23,47,-116,-36,9,21,-47,43,2,18,-33,37,-8,-66,54,-30,14,20,-49,-14,1,16,-5,30,127, 
  /* [2][0][][] */ -1,78,-101,4,94,80,35,56,14,-127,16,-25,-8,3,45,36,7,-9,-34,56,23,15,94,39,54,22,-14,-47,36,-6,62,-52,25,54,-29,46,-118,-82,55,28,14,-41,24,-36,31,-19,10,63,-20,24,-39,-33,82,3,-15,45,49,11,49,12,33,11,20,-32,15,11,-34,-11,-48,12,-21,-48,-24,-78,5,57,87,42,42,-6,13,-41,-5,14,-53,27,12,55,-8,39,10,-14,-11,-19,-59,-20, 
  /* [3][0][][] */ 53,-4,95,12,56,-36,37,-33,-8,-64,25,-39,-13,50,47,117,31,-10,44,-10,127,-18,52,30,49,-5,14,35,43,26,0,67,-113,39,27,12,-4,-5,24,21,-59,-7,89,17,21,69,-40,-61,-53,-41,-65,15,-8,-112,24,36,-94,55,71,44,21,91,1,-38,50,51,-28,-56,45,-16,-11,-61,57,-23,57,-14,41,-11,58,54,-46,-72,9,4,-7,-14,19,57,30,19,28,47,51,127,60,-60, 
  /* [4][0][][] */ 23,2,9,-9,127,39,-8,-22,-25,-61,-37,-39,-53,12,0,38,26,-65,-34,78,-18,17,34,-6,-2,-21,0,-46,10,-9,46,-38,81,16,-27,-2,30,12,9,11,-31,-17,-23,-30,2,-46,-8,6,29,7,-32,20,-10,-16,3,-33,32,-5,-31,35,-5,59,47,20,49,55,-9,-11,-52,6,43,62,24,-57,-53,-27,30,26,79,-31,-17,-31,-3,-4,-77,13,29,41,-39,24,-3,-38,3,10,22,-36, 
  /* [5][0][][] */ 11,-18,-5,8,18,-18,43,-21,-22,-42,-7,14,-1,27,-5,21,-11,-7,17,-12,23,6,-36,68,14,5,12,-92,2,31,18,38,-4,11,7,-53,27,25,4,15,-4,-1,30,-17,2,8,0,-26,-14,-23,8,-22,-7,-23,-4,-51,-9,10,-17,14,70,7,-3,42,-15,57,8,79,7,92,10,33,18,16,-4,64,-30,-14,14,8,-13,-14,-1,26,-4,11,-9,127,1,26,4,-7,6,21,-55,19, 
  /* [6][0][][] */ 22,-99,28,-43,-28,15,55,38,-11,11,-25,-63,-38,7,-40,35,5,-15,-13,-6,-52,19,1,0,-14,11,2,7,-15,13,38,-10,59,11,63,6,-5,-11,19,-95,-20,94,13,-15,13,-13,-34,41,-10,28,-22,66,-13,-62,-5,4,-10,-69,-9,2,-10,65,47,-75,35,-43,-4,-10,9,-4,127,1,-50,0,-15,35,-83,-5,13,-1,46,38,33,-14,-9,-18,49,28,13,12,53,-44,5,-1,-31,-6, 
  /* [7][0][][] */ 6,127,21,9,86,39,36,-36,-3,-38,32,-8,-20,16,27,13,9,-18,5,27,30,-11,40,10,-9,-3,3,-14,16,-10,17,14,38,-1,-50,-4,10,0,-21,84,-43,4,0,7,-19,-30,23,-42,-38,-25,17,25,10,-29,-41,23,51,16,-18,-6,-19,-41,-19,-5,-54,72,-17,-72,-22,-32,-1,47,-6,-24,-8,-2,40,49,31,-23,-45,-35,-9,-4,-23,64,-17,-23,-24,20,-42,-30,-60,-19,18,2, 
  /* [8][0][][] */ -10,-21,56,5,-110,-19,58,4,9,92,43,3,-20,10,19,11,-49,16,-5,10,-49,-20,-127,55,14,-27,65,4,-1,14,-14,50,79,-13,6,-1,-27,-17,-10,33,0,-27,36,28,-30,-4,25,23,-106,4,20,45,-53,-30,-37,57,0,-59,-88,-7,17,-15,-24,-9,22,65,4,-43,27,-18,-36,-16,28,43,59,-6,-18,-34,-21,16,-80,13,-8,-18,29,0,76,42,34,-48,45,42,13,-17,34,18, 
  /* [9][0][][] */ 3,-112,-30,23,99,85,-35,-14,43,-54,90,86,-29,-12,120,-104,5,-12,-17,12,-73,-38,28,-14,-26,4,-30,16,-25,4,-12,-4,19,-1,-122,15,-12,12,-61,78,27,-102,-36,60,-2,-37,-89,-49,21,40,-32,-64,66,41,-34,-75,-5,114,-12,9,11,-60,-51,127,-87,-6,18,-4,-18,26,-53,-85,53,-6,1,30,59,-85,13,-5,-5,-14,-1,22,-16,-57,19,-33,0,-54,-77,45,-91,-28,-22,-55, 
  /* [10][0][][] */ -38,-8,-36,-35,-19,-6,61,-34,45,14,28,33,27,1,-4,-2,-3,26,-21,-17,6,42,22,26,-8,-15,23,-127,28,-47,58,-39,3,15,-8,0,5,35,19,-14,17,-27,24,-55,8,5,37,21,-7,30,-31,-25,-37,-14,4,-54,28,8,1,-40,28,8,3,10,-35,87,-14,-38,28,-26,-5,-23,-19,-3,16,58,7,40,-14,24,-34,3,0,37,8,-21,-5,121,2,1,12,16,17,-26,40,-50, 
  /* [11][0][][] */ -83,3,7,8,20,-59,-3,-8,-57,5,0,21,21,34,-22,6,41,-10,-51,-53,12,-17,-7,8,73,20,75,11,-19,26,-34,19,-13,29,-2,1,-3,9,40,0,-6,14,11,9,79,28,65,34,48,33,-8,13,14,-59,32,6,-66,-24,-25,-37,0,-12,10,22,-8,-32,12,6,31,10,-11,30,-22,13,37,2,-12,75,-113,60,-25,-7,-58,-60,127,6,40,1,9,54,-18,-50,-8,56,-17,-2, 
  /* [12][0][][] */ -5,-6,-35,-6,56,17,-15,-7,-11,19,10,-4,10,-26,33,-16,-26,-5,4,-12,-2,-20,-40,28,-24,39,-25,74,-18,24,-39,0,-10,11,5,16,-17,-17,-3,11,-11,-28,-13,11,-24,-18,14,13,-15,1,5,-11,-17,-1,-20,-13,-15,-6,1,10,-18,-18,-2,42,44,-79,25,48,-38,-127,5,44,-1,9,1,81,0,-4,-8,1,7,20,-27,-3,10,-1,0,-56,-10,3,-4,-12,-38,17,-20,34, 
  /* [13][0][][] */ -88,70,-7,-21,-73,9,-18,34,-50,-17,37,33,91,11,-34,-9,-13,38,-60,5,8,-15,44,-72,66,35,-11,-11,-6,-22,-39,-85,-82,-39,0,-8,-16,21,10,-2,-45,66,-11,18,55,-19,-11,-27,59,-8,50,106,74,-76,70,-20,-37,66,28,-9,-6,37,-16,11,-7,-24,12,14,1,14,40,-127,1,-40,-89,9,39,53,-62,-52,94,-25,9,-41,30,-24,95,-10,-30,-17,-21,17,23,-68,-23,33, 
  /* [14][0][][] */ -23,12,-13,-69,52,-2,-9,54,-107,9,5,11,-34,-71,-91,-40,-89,-8,53,24,31,-17,-5,-118,-27,16,-54,-5,13,-23,-26,-30,-58,-35,26,8,-34,-15,-12,11,-7,69,-67,4,-49,14,2,17,127,-37,31,17,32,65,-105,26,-42,25,-120,21,0,46,48,24,23,23,4,13,-59,11,74,31,16,-20,-26,27,48,-76,-34,-97,25,-30,19,22,32,-78,-27,7,-41,9,22,50,15,21,8,-9, 
  /* [15][0][][] */ -40,-98,-16,-41,19,9,3,-68,-28,16,-4,-31,36,-3,50,-10,-90,2,-21,8,-18,-4,-78,-37,-9,9,13,32,-14,-14,65,-100,-8,38,24,17,6,34,-85,2,30,-61,10,48,-20,-35,56,52,62,12,-16,-127,-8,57,9,49,37,-24,-12,53,13,5,55,-2,22,-11,-7,-7,-9,19,11,29,-38,4,4,-36,-23,-6,6,18,-10,50,-14,81,-2,-62,-27,-21,-36,64,37,88,-27,10,7,-29, 
};
const TfArray<4, int> tensor_dimension8 = { 4, { 16,1,1,96 } };
const TfArray<16, float> quant8_scale = { 16, { 0.029974013566970825, 0.020214458927512169, 0.0089691132307052612, 0.010548730380833149, 0.020491424947977066, 0.01601170189678669, 0.016421152278780937, 0.016012169420719147, 0.013594882562756538, 0.010445639491081238, 0.029069840908050537, 0.027650319039821625, 0.017809251323342323, 0.0090433871373534203, 0.024189762771129608, 0.018664760515093803, } };
const TfLiteAffineQuantization quant8 = { (TfLiteFloatArray*)&quant8_scale, (TfLiteIntArray*)&g0::quant7_zero, 0 };
const MODEL_SECTION(EI_MODEL_SECTION) ALIGN(16) int32_t tensor_data9[96] = { 24811, 59488, -2074, -6, 16117, -5467, 134, -563, 5330, 12790, -4819, 294, 895, 5149, 5495, -8758, -4024, -343, -243, 11961, -11949, 16415, -2279, 9683, 26314, 77, -5139, 18102, 15923, -19627, 2009, 21073, 23826, -10008, 2829, 405, 553, -584, 4544, -9244, -5650, -1548, -8319, -38, 30034, -2632, 13105, -1629, -14454, 1583, -16, 511, -3911, 20396, -3316, 15628, 17558, -561, 35049, 45, -9000, -798, 1644, -383, -2422, 14359, -1841, -7083, -3160, 3653, 459, -3354, 1506, 337, -1691, -6808, 267, -2276, 38989, -7703, -6359, -12335, 381, 132, 60883, -13956, -10762, -27190, -6267, 8579, -3380, 32798, 227, -2186, -2967, 290, };
const TfArray<96, float> quant9_scale = { 96, { 9.1139569121878594e-05, 9.5313742349389941e-05, 0.00011791654833359644, 0.0002159133437089622, 0.00020047849102411419, 0.00014732150884810835, 5.7881294196704403e-05, 9.4782641099300236e-05, 0.00024890579516068101, 0.0001883357617771253, 0.00023648943169973791, 0.00010976149496855214, 0.0002270435361424461, 0.00021594589634332806, 0.00039023288991302252, 0.00018191998242400587, 0.00020476372446864843, 0.00016210081230383366, 0.00015650363638997078, 9.1086301836185157e-05, 6.494091940112412e-05, 4.3378586269682273e-05, 0.00013883567589800805, 7.713490049354732e-05, 9.268635039916262e-05, 0.00010243967699352652, 0.00019212772895116359, 0.00016712475917302072, 7.7142722147982568e-05, 0.00043431911035440862, 0.00038723601028323174, 0.0002423112018732354, 0.00012997392332181334, 0.00015551225806120783, 0.00022025033831596375, 0.00042432686313986778, 0.00042702187784016132, 0.0001814622082747519, 0.00023877878265921026, 7.7928489190526307e-05, 0.0002051271585514769, 0.0002494970103725791, 0.00036273823934607208, 0.00011715621803887188, 0.00036662438651546836, 8.861379319569096e-05, 0.00011499505490064621, 0.000249357835855335, 0.00066973170032724738, 9.7744297818280756e-05, 0.00044220927520655096, 0.00016527135448995978, 0.00012411814532242715, 0.00013617391232401133, 0.0002721718919929117, 0.00011628273932728916, 0.00015892881492618471, 0.00041459058411419392, 4.4836771849077195e-05, 0.00016366869385819882, 0.00028349776403047144, 0.00028590517467819154, 0.00011725272634066641, 0.0001481573999626562, 0.00013052270514890552, 0.00012381687702145427, 0.00022874113346915692, 0.00031129535636864603, 0.0002024747955147177, 0.00010862950148293748, 0.00020794529700651765, 9.723058610688895e-05, 0.00028490091790445149, 0.00013725736062042415, 0.00043640134390443563, 0.00027336174389347434, 0.00011894496856257319, 9.4194940174929798e-05, 6.6430366132408381e-05, 0.00015933558461256325, 0.00024189565738197416, 0.00021471752552315593, 0.0001631556951906532, 0.000287281145574525, 5.8550765970721841e-05, 0.00010186728468397632, 7.5505951826926321e-05, 0.00048928632168099284, 0.00023661043087486178, 0.00011861728853546083, 0.00030864804284647107, 3.255644696764648e-05, 0.0001421885535819456, 0.00010741639562183991, 0.00031419380684383214, 0.00030780956149101257, } };
const TfLiteAffineQuantization quant9 = { (TfLiteFloatArray*)&quant9_scale, (TfLiteIntArray*)&g0::quant5_zero, 0 };
const MODEL_SECTION(EI_MODEL_SECTION) ALIGN(16) int8_t tensor_data10[1*3*3*96] = { 
  /* [0][0][][] */ -48,-73,-9,127,23,72,78,-60,-12,-16,-15,-7,-30,0,36,1,-12,-46,27,24,17,-127,127,8,-82,7,48,-29,-127,-127,39,25,12,26,59,-19,-31,-10,33,-3,-13,28,-105,70,24,-66,38,46,-19,53,-22,19,6,-7,16,49,-91,-48,-63,-19,-11,-1,8,37,69,-26,73,15,-8,17,20,127,23,24,24,-1,-11,18,127,-8,-13,16,-28,20,123,24,-79,-17,-3,-31,-14,-37,1,-26,-15,27, 127,-127,79,105,-42,127,41,-118,70,6,-18,127,127,-98,-13,13,8,127,127,-109,127,-78,81,72,-127,-116,-67,-34,-55,45,-58,-19,-88,50,-127,-85,-44,-15,-51,67,0,127,127,82,-52,-110,-113,-50,-15,-127,44,83,69,-33,44,82,-48,43,-82,-114,-45,-42,-63,66,74,-63,25,31,-79,34,-18,91,115,127,11,18,1,58,-33,50,66,127,127,-24,-10,79,-112,127,-127,-98,6,-127,-92,-127,-38,108, -76,-14,32,-80,16,-21,67,-8,81,-33,-28,17,-19,-3,-8,-12,-11,-15,7,-3,-25,-107,32,2,-125,97,6,-55,111,48,-15,11,0,16,12,-31,-9,34,22,17,26,12,-116,63,17,-16,37,15,-15,12,-15,5,-8,0,-2,20,-68,8,-34,51,2,41,32,-2,-5,-40,-33,25,9,3,-5,35,9,-24,-7,3,-13,-7,-85,0,-19,-25,-20,2,-112,14,-33,-23,-55,26,-25,-31,28,-27,-14,2, 
  /* [0][1][][] */ -65,-75,75,-35,-48,92,20,127,-50,-21,-1,-123,25,-115,77,30,-5,-63,-18,89,57,-71,47,50,-91,-11,127,-23,-26,64,122,-102,-127,92,-85,-57,-37,32,-30,96,-49,-25,-4,50,-47,127,-22,65,15,97,21,-2,16,-56,27,34,127,123,-70,-86,127,-34,-36,127,73,-39,-16,0,127,41,127,95,-41,102,-8,12,14,11,-30,9,-42,127,-81,111,0,36,-55,30,77,-127,-32,-6,127,-70,-22,2, 66,127,59,-114,127,79,89,39,-127,127,127,-40,-66,-127,-127,127,127,-64,-126,-49,107,95,-123,127,-103,-91,-43,127,-126,109,-127,-127,-87,127,106,127,127,-127,-108,127,-64,-95,109,-127,-127,-34,-127,-127,127,-111,85,42,127,127,127,-127,99,-127,-127,127,20,-81,-127,-99,-127,127,-127,127,-125,-127,-107,-84,-127,-80,127,127,-127,127,-77,127,127,33,-45,-127,58,127,96,47,127,14,127,-2,-69,35,127,-127, -55,-15,-49,40,-56,-94,33,-28,20,-33,-29,93,2,97,14,11,-7,67,-7,127,3,-84,-40,7,-74,106,-71,-20,-72,-17,16,-59,-71,39,4,-18,-30,44,-69,47,127,-4,-39,31,-40,-57,17,46,8,119,-10,6,-34,-73,5,18,94,4,0,22,-35,127,92,-53,-42,11,36,-10,-76,125,-20,-88,-1,-55,-18,-20,26,13,77,-37,-69,-42,54,14,-49,-14,73,22,13,65,-42,21,-45,96,-27,-4, 
  /* [0][2][][] */ -68,1,-3,-21,13,-43,69,27,56,-30,-36,-4,17,19,-27,-1,-5,66,8,1,-54,-80,2,-12,-27,-53,38,-67,87,38,24,26,16,-9,-11,-46,-8,36,-4,1,-16,-5,-66,109,4,31,11,36,-15,-30,10,-21,25,-1,8,16,-66,24,-12,13,15,-1,-19,-3,1,-48,-44,17,-30,13,26,29,13,-21,26,3,17,6,-78,-10,-7,-8,17,17,-127,5,13,-44,-63,-51,-27,-44,8,57,-18,-8, 121,33,-127,-37,-73,-24,42,32,-65,-30,-20,-110,-78,115,-13,35,5,-51,-9,-124,98,-48,-39,-3,-105,127,-48,21,-38,-21,-9,-6,-64,15,26,5,-25,-28,127,55,11,-12,68,-35,-37,76,-67,-43,-32,-5,-127,-127,-48,-25,2,38,-62,-7,13,40,-8,-18,10,-46,-53,33,65,-21,114,109,-23,-72,11,-59,3,3,100,6,49,24,13,-96,-52,4,0,5,127,40,-64,40,-19,-109,40,80,-10,27, -55,12,-16,26,16,-64,-127,4,-10,-9,-17,4,14,-23,18,-1,-8,-15,6,16,-50,-72,15,0,18,-97,20,4,-48,-39,-7,18,42,-17,-6,-24,-36,3,41,-39,22,-1,-48,-38,3,65,22,16,-9,-4,10,-9,21,4,-3,-7,-59,-12,5,-38,-12,10,87,-11,36,-2,-1,28,0,5,-5,19,-18,15,0,15,35,1,74,-11,5,-10,-8,-17,72,0,45,-39,58,42,-17,-51,-9,3,-15,-14, 
};
const TfArray<4, int> tensor_dimension10 = { 4, { 1,3,3,96 } };
const TfArray<96, float> quant10_scale = { 96, { 0.0038734315894544125, 0.0040508341044187546, 0.0050114532932639122, 0.0091763166710734367, 0.008520335890352726, 0.0062611638568341732, 0.0024599549360573292, 0.0040282621048390865, 0.010578496381640434, 0.0080042695626616478, 0.010050800628960133, 0.0046648634597659111, 0.0096493503078818321, 0.0091777006164193153, 0.016584897413849831, 0.0077315992675721645, 0.008702457882463932, 0.0068892845883965492, 0.0066514043137431145, 0.0038711677771061659, 0.0027599888853728771, 0.0018435899401083589, 0.0059005161747336388, 0.0032782333437353373, 0.0039391699247062206, 0.004353686235845089, 0.008165428414940834, 0.0071028023958206177, 0.0032785655930638313, 0.018458561971783638, 0.016457529738545418, 0.010298226028680801, 0.0055238916538655758, 0.0066092708148062229, 0.0093606393784284592, 0.018033891916275024, 0.018148429691791534, 0.0077121434733271599, 0.010148097760975361, 0.0033119607251137495, 0.0087179038673639297, 0.010603622533380985, 0.015416375361382961, 0.0049791391938924789, 0.01558153610676527, 0.0037660861853510141, 0.0048872898332774639, 0.010597707703709602, 0.028463596478104591, 0.004154132679104805, 0.018793893977999687, 0.0070240325294435024, 0.0052750208415091038, 0.0057873912155628204, 0.011567305773496628, 0.0049420162104070187, 0.0067544742487370968, 0.01762009970843792, 0.0019055628217756748, 0.0069559193216264248, 0.01204865425825119, 0.012150969356298447, 0.0049832407385110855, 0.0062966896221041679, 0.0055472147651016712, 0.0052622170187532902, 0.009721498005092144, 0.013230052776634693, 0.0086051784455776215, 0.004616753663867712, 0.0088376747444272041, 0.0041322996839880943, 0.012108288705348969, 0.0058334376662969589, 0.018547056242823601, 0.011617873795330524, 0.0050551611930131912, 0.004003284964710474, 0.0028232904151082039, 0.0067717619240283966, 0.010280565358698368, 0.0091254943981766701, 0.0069341170601546764, 0.012209448032081127, 0.002488407539203763, 0.0043293596245348454, 0.0032090030144900084, 0.020794667303562164, 0.010055943392217159, 0.0050412346608936787, 0.013117541559040546, 0.0013836489524692297, 0.0060430131852626801, 0.0045651965774595737, 0.013353236019611359, 0.013081906363368034, } };
const TfLiteAffineQuantization quant10 = { (TfLiteFloatArray*)&quant10_scale, (TfLiteIntArray*)&g0::quant5_zero, 3 };
const MODEL_SECTION(EI_MODEL_SECTION) ALIGN(16) int32_t tensor_data11[96] = { 1837, 6530, 19684, 39460, 16022, -3809, -2254, 6728, 31426, -5153, 8900, 4563, 9874, 13244, 28975, 2152, 2892, 11767, 19410, 7610, -200, 380, 12339, -1349, 5847, 88, 14612, 6572, 5526, 68945, 52789, 18720, 9248, -942, 9677, 2527, 2004, 4774, 19000, -785, 14615, 14180, 54465, -3460, 34378, 7367, 6597, 16134, 65192, 15061, -622, 9931, -4064, -149, -2846, 8478, -606, 12675, 7052, 10618, 6844, 19360, 10973, 6209, 14815, 9080, 5330, -8368, 8830, -3223, 6375, 11724, 22804, 6932, -4287, -5959, 7897, 312, 3239, -1304, 17354, 17435, 5060, 24517, 3226, 286, 11295, 56081, 13838, 13042, 6872, -233, 8005, 11932, 6005, 11617, };
const TfArray<96, float> quant11_scale = { 96, { 0.00021425349405035377, 0.00023084937129169703, 9.5811294158920646e-05, 5.7526369346305728e-05, 0.00018579291645437479, 0.00026213322416879237, 0.00034698916715569794, 0.00023832256556488574, 7.3456751124467701e-05, 0.00026499186060391366, 0.00030223478097468615, 0.00019470298138912767, 0.00012762947881128639, 0.0001748874201439321, 8.1939222582150251e-05, 0.00027969010989181697, 0.00016597447392996401, 0.00010369516530772671, 0.00011655291746137664, 0.00015475331747438759, 0.0002935348020400852, 0.00053022184874862432, 0.00016161183884833008, 0.00047866933164186776, 0.00044382544001564384, 0.00027636971208266914, 0.00015127012738958001, 0.00020817651238758117, 0.00029408722184598446, 5.1282848289702088e-05, 5.4029234888730571e-05, 0.00013137879432179034, 0.00017980404663830996, 0.00025425132480449975, 0.00020667776698246598, 0.00022218040248844773, 0.00026600898127071559, 0.00031059473985806108, 0.0001390498218825087, 0.00069590081693604589, 0.00013044512888882309, 0.00011341104254825041, 5.0059919885825366e-05, 0.00031618695356883109, 9.4710128905717283e-05, 0.00020737730665132403, 0.00026436118059791625, 0.00016481682541780174, 6.2958883063402027e-05, 0.00013760200818069279, 0.00020585377933457494, 0.00017252773977816105, 0.00024911537184379995, 0.00023968120513018221, 0.00035412053694017231, 0.00013230845797806978, 0.00017532822676002979, 0.00014657730935141444, 0.00028575927717611194, 0.00013872282579541206, 0.00023415562463924289, 7.1138936618808657e-05, 0.00013494398444890976, 0.00016130678704939783, 0.00016752973897382617, 0.00021372849005274475, 0.00024329248117282987, 0.00015646374959032983, 0.00018814757640939206, 0.00022375982371158898, 0.00017177303379867226, 0.00013604029663838446, 9.3016162281855941e-05, 0.00015317436191253364, 0.00036314790486358106, 0.00022595237533096224, 0.00020836300973314792, 0.00027654902078211308, 0.00024351124011445791, 0.0002948349283542484, 0.00011588182678679004, 9.6680334536358714e-05, 0.00017801084322854877, 7.9786717833485454e-05, 0.00035883253440260887, 0.00020495476201176643, 0.00020809202396776527, 6.7836168454959989e-05, 0.00010550313163548708, 0.00017383349768351763, 0.0001821201149141416, 0.0003159227198921144, 0.00018633107538335025, 0.00013107903942000121, 0.00018645846284925938, 0.00014180898142512888, } };
const TfLiteAffineQuantization quant11 = { (TfLiteFloatArray*)&quant11_scale, (TfLiteIntArray*)&g0::quant5_zero, 0 };
const MODEL_SECTION(EI_MODEL_SECTION) ALIGN(16) int8_t tensor_data12[96*1*1*16] = { 
  /* [0][0][][] */ -13,70,-14,70,24,30,11,-10,39,20,-36,127,12,-114,55,-114, 
  /* [1][0][][] */ 18,46,-8,-32,48,-30,127,-121,21,66,7,-3,-10,-25,49,28, 
  /* [2][0][][] */ -112,50,-44,-39,-4,-23,77,101,-41,92,127,-33,-53,1,64,-42, 
  /* [3][0][][] */ -87,117,48,91,-89,81,104,122,-20,117,-127,38,17,-112,-67,-86, 
  /* [4][0][][] */ -7,-8,34,63,-21,65,-8,29,10,-25,10,11,11,-5,-127,-11, 
  /* [5][0][][] */ -22,-48,89,-12,20,-23,-27,26,-82,88,-37,-127,-13,22,-73,-25, 
  /* [6][0][][] */ 4,15,30,-3,45,52,-63,-72,-11,9,62,-10,127,-38,-15,-54, 
  /* [7][0][][] */ 40,16,127,5,-17,-27,8,11,-85,33,-81,-50,23,14,26,-25, 
  /* [8][0][][] */ 6,46,90,104,-73,68,6,43,12,36,-6,-127,-45,-16,-117,-107, 
  /* [9][0][][] */ 47,-127,51,56,6,-25,30,48,126,34,46,-21,-18,-1,-125,-38, 
  /* [10][0][][] */ -37,-70,9,-19,-106,30,-23,51,83,127,23,-7,-35,51,62,-15, 
  /* [11][0][][] */ 40,-22,13,-84,16,-33,-113,-127,-45,26,3,-22,12,-14,30,-62, 
  /* [12][0][][] */ -19,12,13,-44,-45,-40,-106,-4,-75,-78,-49,11,44,127,101,36, 
  /* [13][0][][] */ -80,-127,-56,39,-5,-60,-15,-44,29,0,-22,11,19,4,95,31, 
  /* [14][0][][] */ -6,-70,61,21,28,45,-2,127,-16,56,12,-41,30,35,-53,119, 
  /* [15][0][][] */ 22,-31,-9,57,6,-16,112,-2,-2,-127,12,-41,6,-31,-5,-38, 
  /* [16][0][][] */ 46,-68,-41,20,4,-15,41,-57,113,45,89,21,20,111,55,127, 
  /* [17][0][][] */ -87,-63,56,120,113,76,12,-35,127,-57,-10,-8,20,48,-107,43, 
  /* [18][0][][] */ -12,25,-12,5,-108,-12,-21,52,-52,-32,-4,-55,-12,-127,68,14, 
  /* [19][0][][] */ 53,-53,59,-84,94,68,-127,122,109,-119,79,27,-2,113,7,118, 
  /* [20][0][][] */ 53,-27,69,-58,7,1,-28,49,-6,-55,91,-8,13,24,-39,127, 
  /* [21][0][][] */ -52,-24,-5,-55,6,6,-105,-45,-41,63,-12,14,-127,-3,49,2, 
  /* [22][0][][] */ 18,-18,27,-16,6,-51,-3,-1,-127,23,-25,-50,-7,-12,51,-27, 
  /* [23][0][][] */ 18,12,4,-4,-6,9,2,2,-8,-3,41,-11,127,-15,15,-42, 
  /* [24][0][][] */ -13,-2,15,-56,-58,-17,54,8,-50,-3,-45,-127,7,-116,38,10, 
  /* [25][0][][] */ -79,24,-37,-6,40,-24,-49,-127,-15,34,-33,-45,-62,-68,0,-49, 
  /* [26][0][][] */ 50,-17,60,-108,126,-24,-7,-13,127,-52,41,-3,-7,72,-1,58, 
  /* [27][0][][] */ 85,-30,24,-21,-33,-44,-12,-28,-35,23,-127,20,19,-21,-7,34, 
  /* [28][0][][] */ -127,-19,-89,-54,56,-3,66,-70,-14,39,-42,32,32,-27,-54,23, 
  /* [29][0][][] */ -79,-31,-14,127,-21,7,14,-51,-22,-8,-74,42,42,-90,33,-25, 
  /* [30][0][][] */ 28,-45,127,-50,69,33,-45,73,-40,-75,59,-14,-4,19,-72,89, 
  /* [31][0][][] */ 14,-110,11,-38,-7,-52,29,-47,-12,58,113,30,-21,85,75,127, 
  /* [32][0][][] */ -6,80,-39,31,-127,22,-79,-36,-46,-34,3,49,1,66,40,71, 
  /* [33][0][][] */ 53,-19,10,127,12,-19,50,-39,-124,80,65,-28,-1,3,25,119, 
  /* [34][0][][] */ 28,1,-5,1,65,-33,-127,-10,-49,89,-54,-3,-24,-4,5,-2, 
  /* [35][0][][] */ 95,23,-20,2,29,-123,-11,-1,-21,10,-127,13,85,1,7,9, 
  /* [36][0][][] */ 17,-9,-127,14,55,13,-28,15,-24,-19,11,-8,0,17,-16,13, 
  /* [37][0][][] */ 9,5,127,-18,-53,17,2,-58,-11,19,-37,20,22,-1,27,3, 
  /* [38][0][][] */ -127,9,0,48,17,57,19,-28,-15,-39,113,-5,-45,-3,-30,-4, 
  /* [39][0][][] */ -1,-5,11,29,30,-13,-127,46,3,34,-11,-48,3,-13,9,1, 
  /* [40][0][][] */ -23,106,-35,127,13,57,41,14,-93,-44,-20,92,11,61,-66,-5, 
  /* [41][0][][] */ -11,27,-69,-52,-74,-8,127,90,-51,91,-27,-2,-1,70,59,-4, 
  /* [42][0][][] */ 49,5,-49,-55,37,24,-55,56,94,-82,127,-8,-19,31,-45,20, 
  /* [43][0][][] */ -55,-2,21,-27,31,6,-58,-82,-7,34,7,-16,-127,-9,35,-4, 
  /* [44][0][][] */ 12,3,-7,-5,3,-7,-16,-38,127,-5,12,54,13,99,-16,45, 
  /* [45][0][][] */ -39,-80,8,-70,28,-4,-8,49,4,-73,-23,-20,31,97,-28,127, 
  /* [46][0][][] */ -27,17,-30,75,-83,-20,-1,-61,-127,52,-52,-16,8,37,-5,-34, 
  /* [47][0][][] */ -37,-33,-107,127,27,50,6,-41,15,40,85,100,-39,3,54,0, 
  /* [48][0][][] */ -13,-7,46,-127,26,-7,-32,11,-78,4,44,-9,12,38,85,38, 
  /* [49][0][][] */ -57,30,85,112,-43,24,-95,-40,-1,-35,-74,-23,-15,-66,-127,-123, 
  /* [50][0][][] */ -24,55,17,-117,63,20,-17,48,127,-3,-23,16,-13,-37,9,-25, 
  /* [51][0][][] */ 0,-12,7,-23,37,-13,-61,-127,22,-70,16,11,-19,-16,11,12, 
  /* [52][0][][] */ 25,10,6,30,48,-11,-88,112,-95,127,-49,-38,88,97,-15,-40, 
  /* [53][0][][] */ -23,86,3,-79,-27,-2,35,-29,-67,-53,-35,59,13,-127,-93,-14, 
  /* [54][0][][] */ -4,8,9,32,49,-27,6,-32,5,28,-6,-16,-16,127,-34,-14, 
  /* [55][0][][] */ -96,108,80,-36,59,-11,6,12,-24,18,124,-14,-24,-8,127,1, 
  /* [56][0][][] */ 25,-5,-2,-127,60,7,-23,28,31,-37,33,89,-28,6,75,50, 
  /* [57][0][][] */ -19,-2,11,50,-7,4,33,127,3,0,-4,-42,3,38,2,5, 
  /* [58][0][][] */ 12,114,16,-127,15,47,-20,12,106,-15,8,90,-3,-87,28,77, 
  /* [59][0][][] */ 30,62,34,-112,-51,-6,36,13,2,17,22,-76,-9,-127,-77,13, 
  /* [60][0][][] */ 53,-21,96,-52,-40,127,33,-36,-16,35,-48,-9,22,-6,40,-7, 
  /* [61][0][][] */ -2,11,-45,-37,-40,13,126,127,-9,65,15,42,-22,93,33,-17, 
  /* [62][0][][] */ -25,4,-17,-37,-87,26,-76,-17,-30,-40,21,-28,48,-127,124,3, 
  /* [63][0][][] */ 1,-40,-7,-74,50,2,-106,-127,-58,84,-21,14,58,-5,22,-40, 
  /* [64][0][][] */ -17,-21,39,49,74,2,-17,-127,34,-91,11,-29,0,-28,13,5, 
  /* [65][0][][] */ -127,25,25,-83,12,71,65,-52,-66,32,66,-15,-14,23,-13,-11, 
  /* [66][0][][] */ 70,16,78,-7,-68,5,-36,44,-51,-6,90,-82,-34,53,-127,-2, 
  /* [67][0][][] */ 41,-55,-21,92,50,-28,-64,-95,72,-127,-100,-15,-105,7,-79,52, 
  /* [68][0][][] */ -9,-55,-66,78,-46,-85,-18,-103,-24,-33,70,-46,-37,59,127,-3, 
  /* [69][0][][] */ -47,22,-78,68,-11,-127,20,61,15,-11,69,-4,104,25,-23,0, 
  /* [70][0][][] */ 7,31,-24,-42,-22,11,127,100,-20,45,-15,10,19,61,22,-1, 
  /* [71][0][][] */ 5,-10,-30,-55,27,-1,5,38,-17,-42,-1,3,4,-127,91,14, 
  /* [72][0][][] */ 28,36,-10,20,31,-55,-34,-127,32,56,-44,2,25,56,36,57, 
  /* [73][0][][] */ -32,-127,-33,-68,-78,-24,44,-28,-19,18,-29,-38,23,-51,66,-13, 
  /* [74][0][][] */ -40,40,66,103,-2,-5,-127,89,31,-41,-34,-42,0,4,-23,-6, 
  /* [75][0][][] */ -68,52,-39,8,-25,114,89,124,-1,55,17,-27,-127,83,21,21, 
  /* [76][0][][] */ 49,-19,-42,-27,60,-103,-127,-110,-36,1,-11,-25,62,-18,86,-59, 
  /* [77][0][][] */ -33,18,-33,-19,-48,-7,-15,-47,127,0,-69,11,5,43,25,-91, 
  /* [78][0][][] */ -74,-114,6,84,70,59,-17,64,-8,-45,-127,47,72,1,72,32, 
  /* [79][0][][] */ 29,10,40,-58,127,6,38,16,66,5,8,27,-3,-8,12,-34, 
  /* [80][0][][] */ -18,-47,58,-120,-14,-46,-1,8,-106,-28,3,-30,20,127,-33,31, 
  /* [81][0][][] */ 41,0,62,62,19,64,-2,-20,3,-4,-8,-30,-15,32,-127,6, 
  /* [82][0][][] */ -82,-36,30,-123,5,-35,-26,-55,0,-25,-27,-104,-32,-80,-127,38, 
  /* [83][0][][] */ 9,19,-35,-96,-46,6,6,65,-81,1,40,-83,42,-127,41,70, 
  /* [84][0][][] */ 127,21,32,51,-42,5,-40,33,-12,-1,70,-1,-44,12,62,-69, 
  /* [85][0][][] */ -5,-19,3,-52,42,3,-71,99,-79,-122,-85,-37,-3,77,84,-127, 
  /* [86][0][][] */ 15,-4,26,6,-45,46,-39,34,-89,-67,39,-34,-26,-127,-40,35, 
  /* [87][0][][] */ 127,-13,7,-19,-31,-19,8,30,11,21,-75,-19,44,8,10,6, 
  /* [88][0][][] */ 22,51,-17,-24,-8,6,-18,-34,118,18,62,0,12,-79,127,-103, 
  /* [89][0][][] */ 45,87,-105,-33,-58,-21,21,-61,41,56,23,-53,-32,-2,-21,-127, 
  /* [90][0][][] */ -17,-22,23,-73,-75,17,127,-47,106,-76,-1,-121,50,-32,-70,-18, 
  /* [91][0][][] */ -4,36,-17,-126,-59,-5,8,-55,-66,24,44,59,35,-19,1,127, 
  /* [92][0][][] */ 20,11,-6,2,50,-22,-81,-127,34,-62,-2,-20,-29,-12,12,-16, 
  /* [93][0][][] */ 52,-7,48,-127,-47,-2,-42,41,53,-86,110,-40,-57,121,-29,52, 
  /* [94][0][][] */ -92,38,-107,25,66,-127,-18,-3,11,-51,84,-32,-4,16,-19,4, 
  /* [95][0][][] */ -25,64,7,-127,-17,-21,-31,-8,20,-13,-47,-46,-10,8,-45,-2, 
};
const TfArray<96, float> quant12_scale = { 96, { 0.00081089162267744541, 0.00087370252003893256, 0.00036261987406760454, 0.00021772176842205226, 0.00070317601785063744, 0.00099210347980260849, 0.0013132602907717228, 0.00090198655379936099, 0.00027801396208815277, 0.0010029226541519165, 0.0011438770452514291, 0.00073689821874722838, 0.00048304311349056661, 0.00066190166398882866, 0.00031011784449219704, 0.0010585515992715955, 0.00062816857825964689, 0.00039245819789357483, 0.00044112131581641734, 0.0005856995121575892, 0.001110950019210577, 0.0020067465957254171, 0.00061165716033428907, 0.0018116341670975089, 0.0016797594726085663, 0.0010459846816956997, 0.00057251658290624619, 0.00078789191320538521, 0.0011130407219752669, 0.00019409172818996012, 0.00020448605937417597, 0.00049723323900252581, 0.00068050978006795049, 0.00096227257745340466, 0.0007822195184417069, 0.00084089284064248204, 0.0010067721595987678, 0.0011755172163248062, 0.00052626605611294508, 0.0026337967719882727, 0.00049369956832379103, 0.00042923016007989645, 0.00018946327327284962, 0.0011966822203248739, 0.00035845226375386119, 0.00078486709389835596, 0.001000535674393177, 0.00062378717120736837, 0.00023828237317502499, 0.00052078644512221217, 0.00077910098480060697, 0.00065297092078253627, 0.00094283442012965679, 0.0009071286185644567, 0.0013402506010606885, 0.00050075177568942308, 0.00066357001196593046, 0.00055475556291639805, 0.0010815217392519116, 0.00052502844482660294, 0.00088621582835912704, 0.00026924166013486683, 0.00051072653150185943, 0.00061050261138007045, 0.00063405482796952128, 0.00080890464596450329, 0.00092079635942354798, 0.00059217301895841956, 0.00071208778535947204, 0.00084687053458765149, 0.0006501145544461906, 0.00051487580640241504, 0.00035204106825403869, 0.00057972362264990807, 0.0013744167517870665, 0.00085516873514279723, 0.00078859773930162191, 0.0010466633830219507, 0.00092162430519238114, 0.0011158705456182361, 0.00043858142453245819, 0.00036590895615518093, 0.00067372299963608384, 0.00030197118758223951, 0.0013580842642113566, 0.00077569845598191023, 0.00078757212031632662, 0.00025674159405753016, 0.00039930085767991841, 0.00065791286760941148, 0.00068927544634789228, 0.0011956822127103806, 0.00070521282032132149, 0.00049609877169132233, 0.00070569495437666774, 0.00053670868510380387, } };
const TfLiteAffineQuantization quant12 = { (TfLiteFloatArray*)&quant12_scale, (TfLiteIntArray*)&g0::quant5_zero, 0 };
const MODEL_SECTION(EI_MODEL_SECTION) ALIGN(16) int32_t tensor_data13[16] = { -782, 3153, -8818, 24282, 28547, 3022, -9063, -2396, 21906, 5529, 31107, 17945, -13565, 15025, 32227, -29276, };
const TfArray<16, float> quant13_scale = { 16, { 0.00043597322655841708, 0.00024920428404584527, 0.0002507033059373498, 0.0002389056608080864, 0.00037703555426560342, 0.00031733230571262538, 0.00029840169008821249, 0.00043217491474933922, 0.00019975741452071816, 0.00022702824207954109, 0.00038151018088683486, 0.00069741421611979604, 0.00042752755689434707, 0.00043514167191460729, 0.00047687263577245176, 0.00035800019395537674, } };
const TfLiteAffineQuantization quant13 = { (TfLiteFloatArray*)&quant13_scale, (TfLiteIntArray*)&g0::quant7_zero, 0 };
const MODEL_SECTION(EI_MODEL_SECTION) ALIGN(16) int8_t tensor_data14[16*1*1*96] = { 
  /* [0][0][][] */ -14,22,-15,14,34,90,-31,-28,44,-2,17,7,7,3,18,61,6,-17,-9,-5,95,-54,-8,-25,-26,-32,-34,-113,-4,-7,59,42,127,1,7,-2,4,-22,-17,-2,-23,22,15,-36,9,-35,-18,27,-8,23,2,-2,-33,-21,-4,-6,44,31,-23,-44,-55,33,-12,-7,24,16,65,-3,9,-2,8,-33,-71,-10,-10,-2,-10,-90,3,-25,40,-28,-62,-49,39,2,4,33,-19,-7,12,-46,20,7,-16,127, 
  /* [1][0][][] */ 72,-121,43,98,-35,-60,-12,-63,-11,-96,-20,36,19,-78,-27,-55,-100,-6,43,41,-29,-113,-48,15,118,-77,-74,15,-25,120,-6,46,-3,18,-49,13,-18,-16,73,-51,1,-80,72,-54,-64,9,82,-13,41,9,-16,-60,80,-84,29,-26,14,26,-16,-127,40,-84,16,-68,-1,-87,48,44,36,42,-46,-13,-127,26,-5,71,48,102,24,-21,38,10,-72,43,-81,84,-3,55,-67,5,12,26,15,-44,27,2, 
  /* [2][0][][] */ 16,36,15,-38,19,-10,-11,38,57,-7,21,68,-6,14,46,-6,-20,-23,7,-7,-28,-78,12,-46,8,-13,-36,31,-14,10,117,-52,31,-81,-33,57,25,127,-59,-10,-1,-21,-6,57,-44,-53,-71,32,26,39,-20,-40,29,5,1,-35,-26,-3,-9,33,-5,12,94,102,2,-83,15,-82,-6,-8,-21,9,-8,7,-30,16,8,45,9,10,13,97,21,-11,-23,-5,7,6,27,23,-9,-59,-60,2,-6,55, 
  /* [3][0][][] */ 1,-14,-30,29,46,-34,-7,-11,-20,22,11,0,8,-7,40,-8,37,-36,9,-4,-23,-5,-6,16,0,16,0,2,26,-64,47,-11,28,-19,-15,60,-1,-1,-26,24,9,-49,14,-16,-8,1,-17,8,-127,39,2,16,-120,-50,-16,-25,37,4,-14,59,-5,19,22,19,-27,-90,-48,24,57,30,-8,35,-19,22,-21,-31,-51,-52,30,-30,16,-15,5,64,38,40,31,10,44,-2,5,2,-37,0,-6,-37, 
  /* [4][0][][] */ -15,-35,12,-69,-13,-5,-48,16,-24,-39,-26,-9,14,67,5,2,55,-18,12,-2,-2,17,46,-5,-11,-4,15,13,2,-10,3,-16,-35,-2,1,13,31,-29,-9,2,13,6,-96,-32,31,-14,-8,-9,9,89,-13,-13,-20,-8,3,-8,1,-29,23,37,-1,17,8,2,42,-117,34,-31,-53,24,-23,-6,-10,10,-23,28,-22,51,48,5,12,-4,127,-37,34,-16,-15,0,76,17,-13,11,-45,24,-8,-51, 
  /* [5][0][][] */ -5,-5,-5,2,3,-11,-1,112,54,-14,-12,-28,-15,26,41,36,-14,-4,-4,-35,-42,-4,2,-46,11,7,16,84,70,11,56,49,-46,15,-3,-9,-52,-50,-25,-8,-38,-18,-15,0,49,16,10,18,7,2,-18,16,-34,-6,8,-13,-26,-29,-11,31,-42,27,-20,-38,6,13,-24,1,3,18,0,0,36,3,14,-3,-5,35,16,127,-6,-41,25,33,2,-8,23,-36,-7,-11,22,-119,-26,-26,-8,-121, 
  /* [6][0][][] */ -14,-20,-9,-46,2,-32,-14,26,7,12,-21,-2,24,-58,8,-2,-3,-52,26,11,5,16,-22,28,70,-6,-4,15,21,-4,7,-10,-26,8,-17,16,25,12,28,30,-3,-35,-48,-30,-8,-13,18,-127,23,24,24,16,-3,2,-11,-45,31,-10,-1,4,32,25,-11,12,33,57,18,-11,-14,-5,18,-13,14,15,47,-12,-22,40,1,12,-11,7,53,-33,5,31,23,-32,28,0,-28,3,-5,20,-17,20, 
  /* [7][0][][] */ 11,10,35,-25,-7,10,-6,-31,0,-13,-12,-11,-1,-72,19,8,1,-24,-12,-9,5,-24,-42,-4,-14,-9,3,-33,-3,10,9,-12,-14,9,-11,-24,1,-17,-31,17,10,-14,-19,31,-4,15,-17,69,2,22,-14,-20,-14,2,-5,-51,25,5,-7,-5,-16,1,-5,-5,-10,43,13,-33,-8,-17,-2,21,-10,-14,-14,1,32,-2,9,-9,-7,-34,33,-3,-35,127,-8,5,-43,-19,-10,18,-32,-5,-3,7, 
  /* [8][0][][] */ -71,30,-56,7,30,-8,-16,34,21,63,-40,10,16,41,60,-3,9,45,-79,6,21,34,-37,-5,-60,-10,16,29,57,-89,11,-6,28,9,15,5,-27,33,-36,44,19,10,13,-127,-41,-2,49,-19,-43,12,10,76,-120,79,0,-8,10,-21,-24,-25,8,-21,-4,28,-18,21,31,-9,0,2,39,78,-16,31,50,12,6,-77,-11,-22,0,-14,31,-1,-58,7,28,-49,14,47,-29,3,49,-19,-29,-19, 
  /* [9][0][][] */ 13,-52,-21,-40,2,36,-19,8,37,-14,-3,11,-33,-21,-2,23,-4,0,45,-20,-34,-8,-32,-50,41,6,32,-33,-34,-37,-18,-5,-10,13,16,32,7,32,-35,25,7,10,-17,-97,13,-10,23,-119,-42,8,-2,21,-9,-3,-10,-4,-42,25,-5,16,0,15,21,26,15,127,37,38,1,-16,2,-35,-16,-12,-41,17,60,-16,19,12,-13,9,11,-40,4,41,-9,6,-66,36,-34,-4,-1,4,3,-19, 
  /* [10][0][][] */ 24,46,-20,27,76,-121,-16,-25,2,53,29,-12,-26,11,20,-71,1,34,-13,29,-73,-12,3,-16,-74,-19,-50,60,23,-8,-9,46,-14,-24,17,-19,83,-30,-24,10,-21,66,39,-15,-60,-18,-26,5,-14,-12,-34,-5,-7,-3,10,-12,11,17,-13,-9,-5,5,-3,23,8,38,55,18,24,-3,21,40,-50,-14,-42,-11,10,20,-11,2,34,-7,-73,-22,48,-55,86,-7,-18,25,17,-7,63,39,-17,-127, 
  /* [11][0][][] */ 51,25,-27,22,6,4,52,14,-5,-12,-21,-15,-8,8,36,11,-5,2,-96,-8,2,23,7,-1,-41,-13,-16,18,-3,17,-6,-3,-1,8,12,30,4,18,-9,23,-4,25,52,-93,29,-31,-5,1,-127,7,11,-47,13,24,-5,10,-13,-16,0,9,26,-14,-13,4,-55,44,-25,18,21,8,27,18,-42,-17,10,22,0,-23,-51,14,12,5,80,39,5,-19,-18,-21,13,22,-12,0,11,11,-19,20, 
  /* [12][0][][] */ -27,2,11,5,-22,41,11,3,127,5,-8,-2,8,6,-39,-46,24,17,-4,70,58,34,-18,-21,12,3,27,-37,-93,6,29,-44,2,1,2,-16,10,7,48,-8,-38,-17,-4,12,7,24,8,-13,19,13,-43,20,10,-9,11,-3,62,-17,18,22,24,-7,1,-9,-6,31,-36,-7,-8,6,-13,-36,16,10,-71,15,21,2,16,-71,-18,8,44,43,-7,-3,-31,-18,2,5,2,45,-10,-17,16,15, 
  /* [13][0][][] */ 24,-7,-28,26,29,2,9,-3,-5,1,4,2,15,-17,10,-18,13,-77,-42,15,-11,-22,1,-3,7,9,1,-11,-16,-33,0,9,-1,11,12,39,15,-9,11,10,3,7,21,45,20,16,-8,-127,22,1,5,8,-11,-4,18,1,-16,19,24,7,7,21,-4,2,-3,-10,-13,-61,6,12,-9,-36,-19,31,-9,22,-33,-2,14,-7,20,-12,-14,13,13,36,2,19,-12,1,18,-8,2,17,-11,-9, 
  /* [14][0][][] */ -117,-58,25,51,12,-10,-36,9,-17,7,-9,20,79,3,-127,-1,89,-19,-1,30,-16,-19,30,2,-120,15,36,-25,-36,-65,-16,-6,-10,9,21,-61,25,26,7,12,24,37,-2,-49,20,116,76,56,-99,53,-6,27,-47,-12,21,-6,8,12,76,47,32,47,19,49,14,-17,-29,46,1,66,-48,-94,-73,2,-4,34,-2,47,86,0,69,10,39,29,47,25,48,38,28,35,60,-15,10,22,19,-26, 
  /* [15][0][][] */ 83,-23,37,6,4,53,25,-12,-15,61,8,-4,-97,-4,-3,36,17,47,41,-21,5,14,-79,76,14,18,49,21,22,28,-75,-69,24,-42,38,15,27,-43,-71,-80,-11,22,2,37,0,55,-27,-31,100,-40,-27,21,37,-111,62,-108,2,-51,19,34,-127,17,11,34,80,-36,-47,48,-21,88,-21,23,56,27,16,-7,33,-53,65,-4,0,1,38,84,-24,-17,2,-42,23,4,68,-5,-63,55,29,-23, 
};
const TfArray<16, float> quant14_scale = { 16, { 0.018528861925005913, 0.010591181926429272, 0.010654889978468418, 0.010153490118682384, 0.016024010255932808, 0.013486622832715511, 0.012682071886956692, 0.018367433920502663, 0.008489689789712429, 0.0096487002447247505, 0.01621418260037899, 0.029640102759003639, 0.018169920891523361, 0.018493520095944405, 0.02026708610355854, 0.015215007588267326, } };
const TfLiteAffineQuantization quant14 = { (TfLiteFloatArray*)&quant14_scale, (TfLiteIntArray*)&g0::quant7_zero, 0 };
const MODEL_SECTION(EI_MODEL_SECTION) ALIGN(16) int32_t tensor_data15[96] = { 9784, -8522, 2597, 56590, -1946, -4449, -11202, 2860, -2770, 1144, 2583, -1642, 302, -5928, 6067, -6338, -346, 16058, 22721, 2200, 3889, -2236, -95, 461, 16114, -1168, -286, -3592, -5644, -7360, 5018, -9511, 310, -1674, -459, 14448, 1443, -2658, 21790, 325, -873, 1793, -9726, -7516, -7194, 64696, -465, 17135, 26961, -12156, 315, 8388, 6863, -391, -6039, 2999, -13153, 1248, 2159, -6801, -1436, -423, -13355, -68, 1319, 15816, 29897, 24742, -13120, 296, -6787, -899, 37019, 10677, 44, 1554, 18841, 31889, -1036, -6612, -1370, -8024, 705, -2740, 731, -15, 1077, -34, 2033, -3076, -207, -894, -781, 367, 263, 51269, };
const TfArray<96, float> quant15_scale = { 96, { 0.00017957264208234847, 0.00013320252764970064, 0.00021380474208854139, 3.7711753975600004e-05, 0.00014993919467087835, 0.00017024917178787291, 0.00026643922319635749, 7.4785166361834854e-05, 0.00014680679305456579, 0.00036558389547280967, 0.00015160872135311365, 0.00035485948319546878, 0.00010436387674417347, 0.00039398227818310261, 0.0001715660619083792, 0.00012725505803246051, 9.8821445135399699e-05, 0.00029255347908474505, 7.7719392720609903e-05, 0.00023485017300117761, 4.083923704456538e-05, 0.00018085225019603968, 0.00013169283920433372, 0.00036741324583999813, 0.00022042970522306859, 0.00021821730479132384, 0.00012671055446844548, 0.00019524950766935945, 0.00011194241233170033, 0.00011136982357129455, 0.00015141259063966572, 0.00017704525089357048, 0.00011926146544283256, 0.00010384371853433549, 0.00019965147657785565, 0.00016345860785804689, 0.00035995754296891391, 0.00011170941434102133, 5.3959876822773367e-05, 0.00013287743786349893, 0.00016981884255073965, 0.0003151334822177887, 0.00034172731102444232, 0.00016522571968380362, 0.00018695172911975533, 5.0226681196363643e-05, 0.00022263616847340018, 0.0001934540196089074, 9.388136095367372e-05, 0.00019815558334812522, 0.00018671015277504921, 0.00015249007265083492, 0.00023187691112980247, 0.00025605459813959897, 0.00031475641299039125, 0.00047537405043840408, 0.00028597991331480443, 0.00018096456187777221, 0.00010092555748997256, 7.5899588409811258e-05, 0.00030210759723559022, 0.00013193984341342002, 0.00026778786559589207, 0.00012672872981056571, 0.00016204448183998466, 0.00018180087499786168, 9.7001386166084558e-05, 7.334858673857525e-05, 0.00030385283753275871, 0.00018664354865904897, 0.00022546578838955611, 0.00010052994184661657, 0.00015646524843759835, 0.00014486396685242653, 0.00015829512267373502, 0.00023624268942512572, 0.00050477613694965839, 4.9547648814041167e-05, 0.00025652640033513308, 0.00028068706160411239, 0.00015531381359323859, 0.00026419374626129866, 0.00010717317491071299, 0.00011906497093150392, 0.0001187240268336609, 0.00010031749116024002, 0.00013183175178710371, 0.00018021883442997932, 0.00021820195252075791, 0.0001090183577616699, 0.00015825923765078187, 0.000116258546768222, 0.00013882838538847864, 0.00046469774679280818, 0.0047692004591226578, 7.4640825914684683e-05, } };
const TfLiteAffineQuantization quant15 = { (TfLiteFloatArray*)&quant15_scale, (TfLiteIntArray*)&g0::quant5_zero, 0 };
const MODEL_SECTION(EI_MODEL_SECTION) ALIGN(16) int8_t tensor_data16[1*3*3*96] = { 
  /* [0][0][][] */ -17,5,-19,107,-17,23,-64,-54,16,-5,100,-8,5,-9,-5,55,4,18,-36,4,75,1,33,-33,2,17,42,48,21,13,23,49,-4,28,9,-14,4,48,-64,-26,20,9,27,19,-85,-52,26,-5,-10,-22,-9,-6,50,6,-7,1,-4,-34,27,-30,28,-2,127,26,-14,-10,9,-55,67,35,1,-7,77,-34,71,2,17,-127,31,65,-1,12,127,-14,37,28,-27,-20,36,-6,-14,82,-1,19,-2,13, -48,11,-8,11,51,-9,-11,-127,37,13,-127,-5,-15,-13,3,92,18,-29,-18,-15,79,-97,127,26,-61,-31,-106,-16,27,36,-50,18,122,13,-16,0,-25,127,-67,-127,9,-20,-31,16,47,-127,127,-44,-76,48,48,7,40,-63,33,55,35,43,-103,84,127,34,2,-21,43,-38,-94,-4,36,-31,-20,47,-49,-48,108,-6,-29,-59,-31,65,-69,61,-15,9,-12,45,54,-41,-28,54,-13,73,-127,-32,24,-127, 0,-5,-23,-73,8,18,37,23,-4,-1,4,63,2,-12,-12,7,-12,18,-18,17,6,24,25,-32,1,-31,8,12,-7,6,45,-77,43,18,9,-22,12,3,-33,-20,7,2,-17,10,22,-34,22,0,7,-8,5,-5,5,6,-4,7,-8,46,5,-2,12,-17,4,-18,-27,-16,27,-53,-105,-7,38,-17,-127,-21,-10,14,10,-10,8,13,-15,22,-37,-4,-41,19,25,35,-25,-15,24,-11,19,6,-1,-45, 
  /* [0][1][][] */ -40,58,-17,39,-85,-16,-12,-43,26,94,-44,-21,-30,-26,-8,64,127,-23,-92,-13,59,-127,-28,16,-35,-47,-127,-5,36,36,-50,28,-127,-76,-57,3,66,-4,-53,46,-19,86,1,-3,35,-47,-11,-31,127,42,-4,20,45,9,-35,-17,31,10,-124,127,-36,-88,21,127,-59,-35,-82,126,-37,127,-20,55,-36,-57,36,7,-36,-70,127,46,127,33,5,-1,127,27,-94,47,-37,-36,-102,40,95,101,29,-59, 127,127,127,127,-45,-127,127,24,127,-127,17,-127,-103,127,127,127,-15,-127,-62,-127,127,22,-67,127,127,127,-56,-127,127,127,-127,127,-10,-127,-124,127,-127,-46,95,109,-127,-127,127,127,127,-115,-106,127,-13,127,-127,-127,-127,127,127,-127,127,-127,-42,42,-107,-28,-69,-68,127,127,-71,127,127,-108,-127,127,-42,127,-127,-127,-127,124,-74,127,-43,127,81,127,-39,-127,-24,-105,-127,-127,-22,-127,-20,-127,-127,119, -24,65,-38,2,127,69,-22,51,6,23,-13,-4,-24,-30,-14,-5,-104,-20,-127,39,32,76,-11,-115,-34,-41,122,72,9,36,72,10,124,-47,127,-3,55,4,-97,15,36,24,-24,2,-24,-53,-12,-42,81,14,-12,38,-5,-4,-73,-15,24,21,127,-88,3,127,2,-37,-110,-27,-75,101,16,-17,109,25,-17,-57,13,45,-29,-6,-40,-2,-48,8,47,23,-89,34,127,-46,31,-22,127,-10,-109,34,34,19, 
  /* [0][2][][] */ -3,-38,-20,-60,-4,15,39,32,-2,10,-18,52,25,-35,-7,8,40,4,11,23,-8,29,-16,-26,2,-25,11,6,-12,-9,48,-74,-38,68,-27,-26,32,-36,-67,18,10,9,-34,19,13,-72,-11,0,-10,6,16,-8,9,0,-21,6,0,45,-48,36,-5,-14,6,17,-5,-10,20,-56,-54,11,-22,-12,-117,-34,0,16,13,-11,56,18,22,24,-40,15,12,26,-22,10,6,25,23,-5,20,39,-7,-32, -27,-10,-26,24,-44,75,-25,67,5,-6,55,-12,127,-7,-17,-17,-2,-39,-57,25,-21,78,-44,-111,-46,-48,101,71,11,44,54,0,-127,62,-14,-24,-28,-28,-127,-4,45,-14,-15,37,-26,-44,-17,-47,-60,30,67,23,-10,-82,30,50,19,27,78,-55,19,-59,-8,1,19,-25,-127,-57,-9,-27,-62,24,36,-49,-30,-7,-46,25,-57,2,50,35,19,10,4,62,-91,127,15,126,-30,-18,116,-22,46,82, -8,-33,-26,29,14,66,-44,13,4,-6,1,14,14,-51,-10,-10,-44,-5,20,21,-23,5,-21,3,-4,18,-3,54,-4,-6,34,30,15,42,20,-23,-6,-28,-35,9,11,-11,21,9,-74,-34,-12,5,-2,-17,-1,-5,-8,8,-16,-6,0,-49,13,-30,-23,48,9,-29,-11,-2,33,-56,47,7,52,-24,32,-58,-18,21,9,12,-4,22,-30,31,91,-15,-17,55,39,-9,109,11,2,-18,12,-23,-7,-53, 
};
const TfArray<96, float> quant16_scale = { 96, { 0.0076318373903632164, 0.0056611071340739727, 0.0090867010876536369, 0.0016027495730668306, 0.0063724154606461525, 0.007235589437186718, 0.011323666200041771, 0.0031783694867044687, 0.0062392884865403175, 0.015537315048277378, 0.0064433705992996693, 0.015081527642905712, 0.0044354647397994995, 0.016744246706366539, 0.0072915577329695225, 0.0054083401337265968, 0.0041999113745987415, 0.012433522380888462, 0.0033030742779374123, 0.0099811321124434471, 0.0017356674652546644, 0.0076862205751240253, 0.0055969455279409885, 0.015615062788128853, 0.0093682622537016869, 0.0092742349952459335, 0.0053851986303925514, 0.0082981036975979805, 0.004757552407681942, 0.0047332174144685268, 0.0064350352622568607, 0.0075244228355586529, 0.0050686122849583626, 0.0044133579358458519, 0.0084851877763867378, 0.0069469907321035862, 0.01529819518327713, 0.0047476501204073429, 0.0022932947613298893, 0.0056472909636795521, 0.0072173005901277065, 0.01339317299425602, 0.014523410238325596, 0.0070220930501818657, 0.0079454481601715088, 0.0021346339490264654, 0.0094620371237397194, 0.0082217957824468613, 0.0039899577386677265, 0.0084216119721531868, 0.0079351812601089478, 0.0064808279275894165, 0.0098547684028744698, 0.010882320813834667, 0.013377147726714611, 0.020203396677970886, 0.01215414609760046, 0.0076909936033189297, 0.0042893360368907452, 0.0032257325947284698, 0.012839572504162788, 0.0056074429303407669, 0.011380984447896481, 0.005385971162468195, 0.0068868906237185001, 0.0077265370637178421, 0.004122558981180191, 0.0031173147726804018, 0.012913745827972889, 0.0079323509708046913, 0.0095822960138320923, 0.0042725224047899246, 0.0066497731022536755, 0.0061567183583974838, 0.0067275427281856537, 0.010040313936769962, 0.02145298570394516, 0.0021057750564068556, 0.010902371257543564, 0.011929200030863285, 0.0066008367575705051, 0.011228233575820923, 0.0045548598282039165, 0.0050602611154317856, 0.0050457711331546307, 0.0042634932324290276, 0.0056028491817414761, 0.0076593002304434776, 0.0092735830694437027, 0.0046332799829542637, 0.0067260172218084335, 0.0049409880302846432, 0.0059002065099775791, 0.019749654456973076, 0.20269101858139038, 0.0031722350977361202, } };
const TfLiteAffineQuantization quant16 = { (TfLiteFloatArray*)&quant16_scale, (TfLiteIntArray*)&g0::quant5_zero, 3 };
const MODEL_SECTION(EI_MODEL_SECTION) ALIGN(16) int32_t tensor_data17[96] = { 20303, 1157, 8407, -994, 5991, 6392, 20282, 8440, -1427, 32052, 9643, 2362, 6153, 53312, -557, -2835, 10245, 15458, 1604, -277, -824, 15653, 5345, 4529, 12178, 6695, 5582, 5963, 47, -87, 8842, 12377, 16114, 2101, 8131, -820, 20080, 10878, 1125, 6259, 731, 12546, 14177, 4258, 4427, 12762, 16881, 6785, 6174, 3508, 391, -835, 22595, 8941, 10685, 17698, -250, 7872, 3109, 4314, 17888, 11531, 3303, 9132, 5919, 5556, 7693, -1154, 20409, 7562, 12057, -1242, -2149, 3901, 1883, 4222, 35116, 18623, 13110, -3683, 7653, -7897, -2939, 1065, 8208, 8028, 7478, 5979, 11046, 5651, 8851, 4645, 18501, 27513, -10759, 14793, };
const TfArray<96, float> quant17_scale = { 96, { 0.00012868063640780747, 0.00026023341342806816, 0.00016058179608080536, 0.0005495428922586143, 0.00026536110090091825, 0.00014592736260965466, 0.000155423185788095, 0.00041611792403273284, 0.00030068765045143664, 5.6820790632627904e-05, 0.0001463547523599118, 0.00034581689396873116, 0.00044131578761152923, 9.0526256826706231e-05, 0.00021832354832440615, 0.00024101651797536761, 0.00021859469416085631, 0.00015068496577441692, 0.00030295518808998168, 0.00050823582569137216, 0.00032762647606432438, 0.00015910781803540885, 0.00028409771039150655, 0.00017295246652793139, 0.0001421347405994311, 0.00031279557151719928, 0.00025817542336881161, 0.00015696286573074758, 0.00047056993935257196, 0.00027329256408847868, 0.00016398905427195132, 0.00014989571354817599, 0.00012097514991182834, 0.00051762117072939873, 0.00020575217786245048, 0.00034283698187209666, 0.00011330593406455591, 0.00024397906963713467, 0.00042974852840416133, 0.00015678777708671987, 0.00063212780514732003, 0.00015053455717861652, 0.00015281651576515287, 0.00016644257993903011, 0.0002559544809628278, 0.00025507964892312884, 0.00016718381084501743, 0.00021484862372744828, 0.0002586220798548311, 0.00024710639263503253, 0.00034408381907269359, 0.00078817416215315461, 0.00011899356468347833, 0.0001784230989869684, 0.00021631676645483822, 0.00010514598398003727, 0.00037472703843377531, 0.00021982820180710405, 0.00024747429415583611, 0.00037498003803193569, 9.3617323727812618e-05, 0.00012169725960120559, 0.00031337651307694614, 0.0003040313022211194, 0.00017470332386437804, 0.00020595875685103238, 0.00025540668866597116, 0.00031542940996587276, 0.0001306298072449863, 0.00015403704310301691, 0.00016664425493218005, 0.00037386169424280524, 0.00019320298451930285, 0.00033023781725205481, 0.00022099523630458862, 0.0003059835871681571, 6.7624641815200448e-05, 0.00024019012926146388, 0.00012599886395037174, 0.00033308335696347058, 0.00014349038247019053, 0.000263238325715065, 0.00012791329936590046, 0.00027157249860465527, 0.00019629087182693183, 0.00018966733478009701, 0.00021306761482264847, 0.00022673896455671638, 0.00015330383030232042, 0.00028322808793745935, 0.00015653291484341025, 0.00036770064616575837, 0.00011271320545347407, 0.00010066715913126245, 0.00027159854653291404, 0.00022180090309120715, } };
const TfLiteAffineQuantization quant17 = { (TfLiteFloatArray*)&quant17_scale, (TfLiteIntArray*)&g0::quant5_zero, 0 };
const MODEL_SECTION(EI_MODEL_SECTION) ALIGN(16) int8_t tensor_data18[96*1*1*16] = { 
  /* [0][0][][] */ 66,-47,114,77,72,-54,36,-7,127,-29,-51,-80,21,101,-28,-71, 
  /* [1][0][][] */ 39,90,-8,6,62,-22,20,25,31,68,-59,127,22,-41,91,-84, 
  /* [2][0][][] */ 3,-68,0,23,-34,48,-45,65,-54,-92,18,96,-11,-127,87,-107, 
  /* [3][0][][] */ 127,112,-4,20,-118,-11,-56,-13,6,12,103,-68,-58,101,-41,-34, 
  /* [4][0][][] */ 8,-18,28,15,-27,34,-16,45,-61,-40,5,3,-1,-127,39,-2, 
  /* [5][0][][] */ 119,-56,-24,-7,7,-114,-15,26,-2,-5,-127,-22,14,-3,8,11, 
  /* [6][0][][] */ -127,-84,-12,109,-54,0,-47,55,-119,-61,-85,-41,47,71,-4,86, 
  /* [7][0][][] */ -18,10,-67,44,40,-127,-34,41,13,-36,16,3,-4,31,-44,21, 
  /* [8][0][][] */ 30,-54,-16,-4,13,33,-52,-62,-21,16,-77,16,-127,-9,9,19, 
  /* [9][0][][] */ 5,-76,90,127,-5,33,-18,-117,125,-106,32,-11,-2,74,-111,55, 
  /* [10][0][][] */ -110,-61,5,-43,91,28,62,86,127,-40,-101,29,117,-109,-125,77, 
  /* [11][0][][] */ 52,-11,-127,24,54,29,-16,47,-15,-35,-13,-11,-3,25,-47,-4, 
  /* [12][0][][] */ 84,-51,-8,18,-14,-37,-29,-2,10,-1,-127,-5,-31,-21,-14,36, 
  /* [13][0][][] */ 6,-74,37,-81,112,44,-104,-127,47,-90,61,49,66,-32,61,-9, 
  /* [14][0][][] */ -49,30,-83,-40,81,-127,56,-57,52,34,-11,-83,23,97,-7,29, 
  /* [15][0][][] */ 29,-12,76,49,65,-32,-37,-11,19,-68,-78,2,-127,-50,-18,49, 
  /* [16][0][][] */ -127,46,-6,19,0,94,27,64,-13,23,119,9,13,10,25,-33, 
  /* [17][0][][] */ -14,0,-35,-24,-33,12,42,66,-26,127,-29,15,1,61,56,2, 
  /* [18][0][][] */ -2,127,-43,-13,7,-1,43,-54,10,85,-43,73,15,-30,10,-80, 
  /* [19][0][][] */ 11,-21,37,25,-4,40,-1,19,9,10,-54,-4,-127,-9,-17,33, 
  /* [20][0][][] */ 77,-68,-12,-105,-41,38,15,-97,-62,40,-127,-50,35,12,48,6, 
  /* [21][0][][] */ 37,1,127,41,-14,53,18,-11,5,13,-7,-5,-19,78,-10,-11, 
  /* [22][0][][] */ 19,3,25,13,-9,10,14,127,18,-8,8,37,4,58,15,12, 
  /* [23][0][][] */ -21,18,-90,16,18,-127,-8,36,-3,-23,-18,-10,-49,6,-5,38, 
  /* [24][0][][] */ 44,-73,1,-66,55,-11,-26,-19,29,21,68,90,-44,78,127,42, 
  /* [25][0][][] */ -127,-91,-63,-16,18,10,-4,-34,-47,-9,-82,4,27,51,45,62, 
  /* [26][0][][] */ 8,-1,34,-6,-12,-3,-39,47,-73,-62,-11,4,6,-127,36,-14, 
  /* [27][0][][] */ -107,43,-52,38,40,-18,-5,22,37,-37,127,43,-32,15,-19,-26, 
  /* [28][0][][] */ -9,-1,22,33,-5,-8,25,85,24,13,-33,-8,-127,-6,-12,49, 
  /* [29][0][][] */ -22,65,34,-45,36,-18,15,-34,-127,26,-26,9,-5,37,-92,21, 
  /* [30][0][][] */ 4,-10,-127,-34,27,-70,8,31,-13,-7,-5,-31,-37,-19,16,8, 
  /* [31][0][][] */ 127,-47,-112,3,41,14,-52,76,-10,0,-88,-48,18,-4,-98,23, 
  /* [32][0][][] */ -111,41,17,40,23,95,17,28,34,-8,127,7,-29,34,-11,-8, 
  /* [33][0][][] */ 25,-27,127,-28,-76,7,4,-20,-26,6,-20,33,-18,39,29,38, 
  /* [34][0][][] */ 5,-40,-55,-116,33,6,6,-38,-24,-49,-46,-127,6,-13,38,13, 
  /* [35][0][][] */ 10,-40,35,53,60,-34,10,-20,-120,35,-11,27,-28,127,-41,-41, 
  /* [36][0][][] */ -110,31,-16,12,-11,30,41,84,-1,36,127,9,18,19,6,-24, 
  /* [37][0][][] */ -39,2,127,-21,-72,-59,32,-39,13,20,-6,5,6,-71,55,5, 
  /* [38][0][][] */ 1,-14,-9,41,41,-39,-74,-8,3,-28,96,-29,127,15,-10,-3, 
  /* [39][0][][] */ -26,-23,6,-20,-61,-78,72,127,-48,-20,-13,-40,24,60,49,58, 
  /* [40][0][][] */ 72,-16,-24,-8,-2,79,-15,1,15,-3,14,6,127,10,-35,-19, 
  /* [41][0][][] */ -10,-16,-19,-127,39,-9,-29,-79,0,-41,17,-30,5,-14,-9,32, 
  /* [42][0][][] */ 43,27,31,122,-96,4,-86,16,-66,-61,50,-82,-9,127,-42,-2, 
  /* [43][0][][] */ 39,122,-29,127,28,28,51,-64,-27,97,-13,27,-4,-38,68,25, 
  /* [44][0][][] */ -11,-19,-127,26,71,102,-47,71,-17,-21,46,-23,16,-22,-69,-13, 
  /* [45][0][][] */ -4,25,-22,-127,-11,-5,34,-8,-1,16,-8,0,3,-80,44,-28, 
  /* [46][0][][] */ 26,36,45,-39,14,6,-59,37,27,-57,-7,34,0,127,55,3, 
  /* [47][0][][] */ 3,-9,15,-47,-40,23,-50,52,-10,-24,23,38,4,-127,34,12, 
  /* [48][0][][] */ 12,-3,3,-127,-17,-2,2,17,8,-24,4,-14,12,55,-10,55, 
  /* [49][0][][] */ 22,-40,-9,104,80,14,-1,51,-56,22,40,45,-12,36,127,-2, 
  /* [50][0][][] */ -24,-2,67,-31,-3,127,-24,-53,26,-21,112,29,90,4,-3,-47, 
  /* [51][0][][] */ 39,43,18,14,13,0,-34,22,49,11,2,127,11,28,24,-62, 
  /* [52][0][][] */ -6,89,127,2,4,-47,2,-43,-38,14,-1,41,-2,85,-103,-16, 
  /* [53][0][][] */ -4,-17,-46,-127,-58,17,21,-39,-21,47,3,-25,29,-30,64,13, 
  /* [54][0][][] */ 13,11,-30,-44,24,20,-6,19,53,-8,-3,-22,-9,127,12,23, 
  /* [55][0][][] */ -6,-43,-58,-24,17,-66,2,-127,6,-82,-5,-5,-37,-97,-44,-23, 
  /* [56][0][][] */ 40,39,31,61,15,-16,12,127,22,-21,0,-25,69,-3,-50,27, 
  /* [57][0][][] */ 87,-11,127,-28,-66,-61,9,-30,5,4,-85,10,30,-31,49,22, 
  /* [58][0][][] */ 82,87,12,108,-127,-16,-9,31,-20,3,79,-35,-65,-53,-35,-86, 
  /* [59][0][][] */ 127,-26,-1,0,-14,-23,-6,5,-34,16,-104,-10,0,2,4,21, 
  /* [60][0][][] */ -127,58,-23,-39,6,-12,11,46,14,20,122,1,-62,14,44,4, 
  /* [61][0][][] */ -78,43,15,19,39,-26,-95,-80,101,-127,82,-33,66,-44,-76,-74, 
  /* [62][0][][] */ 4,-55,-122,69,48,70,19,127,21,-35,-2,-13,-47,23,-83,-10, 
  /* [63][0][][] */ -54,-5,127,-38,-51,-57,27,-37,13,22,-1,21,-3,-59,85,26, 
  /* [64][0][][] */ 20,54,-39,31,64,9,71,-127,-25,102,4,-11,-25,-125,2,57, 
  /* [65][0][][] */ 15,7,19,-6,89,7,-1,-127,-25,-72,-41,-48,2,-35,54,1, 
  /* [66][0][][] */ -127,3,-9,13,-37,14,19,-46,-69,-39,-80,46,49,20,34,66, 
  /* [67][0][][] */ -10,-69,14,127,-3,-11,-7,61,71,42,22,-30,-6,-28,-90,-37, 
  /* [68][0][][] */ 17,-10,2,127,-40,-20,15,-8,-46,34,0,-19,-16,-51,-18,-51, 
  /* [69][0][][] */ 59,79,29,101,55,-25,41,-127,27,72,30,46,-12,-42,27,-6, 
  /* [70][0][][] */ -3,-48,-9,-78,127,-43,26,8,59,-32,64,-37,-3,70,75,90, 
  /* [71][0][][] */ 7,45,3,79,29,-127,-30,76,33,-83,14,1,23,-59,-58,42, 
  /* [72][0][][] */ -127,-68,-17,33,12,52,-40,23,-38,-27,-75,34,39,31,6,100, 
  /* [73][0][][] */ -20,-6,8,68,33,-25,-13,-29,55,-3,6,21,23,127,-73,-45, 
  /* [74][0][][] */ 67,-31,0,-46,-10,-29,36,-24,-14,-25,-75,21,-127,-12,45,29, 
  /* [75][0][][] */ -12,-27,-27,127,-28,-4,-2,-20,-52,11,-22,-28,-8,-38,-9,-33, 
  /* [76][0][][] */ 10,-3,-10,44,35,-6,-16,-127,18,-126,4,14,-33,-12,40,-41, 
  /* [77][0][][] */ 127,-49,44,86,-50,-3,-31,-22,56,4,-35,37,56,-10,-73,26, 
  /* [78][0][][] */ -41,-7,57,-2,12,-3,-46,40,33,-31,-37,-26,26,127,50,-23, 
  /* [79][0][][] */ 9,22,48,21,34,47,-49,-52,19,-49,75,-24,127,-29,-32,-42, 
  /* [80][0][][] */ -127,-82,-84,72,-1,45,-2,-1,-77,24,-64,-14,58,-85,-3,48, 
  /* [81][0][][] */ 89,36,-100,18,127,98,-50,-33,-7,-111,12,-102,-59,9,-118,61, 
  /* [82][0][][] */ 97,124,-12,32,-112,-19,-55,-38,-70,1,127,-64,-63,75,-3,-43, 
  /* [83][0][][] */ 127,49,14,-30,13,-19,-6,25,39,8,89,-39,-63,-27,-32,-86, 
  /* [84][0][][] */ -12,-56,-53,-32,58,30,-7,-127,-22,-35,22,27,-20,-14,9,-6, 
  /* [85][0][][] */ -4,-18,-29,-62,-1,-20,66,121,-41,127,-34,-56,36,90,60,-40, 
  /* [86][0][][] */ 127,-44,8,-6,9,-43,10,-11,-3,2,-104,18,14,19,8,22, 
  /* [87][0][][] */ -2,13,9,-33,-22,48,-15,76,-17,-30,23,12,21,-127,16,7, 
  /* [88][0][][] */ -9,-29,-88,-36,44,2,-14,-127,7,-16,-6,-9,-16,-23,14,-5, 
  /* [89][0][][] */ 32,-8,38,-120,37,15,-58,127,84,-89,36,27,2,65,25,37, 
  /* [90][0][][] */ 2,11,-53,38,79,-14,112,-95,97,127,-55,27,31,6,-5,-10, 
  /* [91][0][][] */ 41,-7,-38,-20,-1,-127,-14,-8,-6,-8,-39,-9,25,-8,12,30, 
  /* [92][0][][] */ 33,28,127,100,46,23,5,45,-57,18,-59,32,37,91,-25,-15, 
  /* [93][0][][] */ 127,-49,-32,-23,-23,-64,15,35,-30,38,-99,6,0,15,3,52, 
  /* [94][0][][] */ 33,-16,32,71,98,-43,0,73,-2,2,-13,49,-5,127,-12,-66, 
  /* [95][0][][] */ -98,35,27,38,32,48,12,-3,12,3,127,9,-24,32,-5,-29, 
};
const TfArray<96, float> quant18_scale = { 96, { 0.00051972316578030586, 0.0010510465363040566, 0.00064856751123443246, 0.0022195272613316774, 0.0010717565892264247, 0.00058938033180311322, 0.00062773260287940502, 0.0016806423664093018, 0.0012144355569034815, 0.000229491270147264, 0.0005911064799875021, 0.0013967063277959824, 0.0017824131064116955, 0.00036562295281328261, 0.00088177842553704977, 0.00097343220841139555, 0.00088287354446947575, 0.00060859561199322343, 0.0012235938338562846, 0.0020526938606053591, 0.0013232377823442221, 0.00064261432271450758, 0.0011474310886114836, 0.00069853093009442091, 0.00057406246196478605, 0.0012633377918973565, 0.0010427345987409353, 0.0006339511601254344, 0.0019005665089935064, 0.0011037905933335423, 0.00066232896642759442, 0.0006054079276509583, 0.00048860179958865047, 0.0020905998535454273, 0.00083100440679118037, 0.0013846708461642265, 0.00045762691297568381, 0.00098539749160408974, 0.0017356944736093283, 0.00063324399525299668, 0.0025530762504786253, 0.00060798815684393048, 0.00061720464145764709, 0.00067223841324448586, 0.0010337645653635263, 0.001030231243930757, 0.00067523214966058731, 0.00086774368537589908, 0.0010445385705679655, 0.00099802832119166851, 0.0013897066237404943, 0.0031833257526159286, 0.00048059844993986189, 0.00072062609251588583, 0.000873673299793154, 0.00042466999730095267, 0.0015134703135117888, 0.00088785553816705942, 0.00099951424635946751, 0.0015144922072067857, 0.0003781073319260031, 0.00049151829443871975, 0.0012656841427087784, 0.0012279400834813714, 0.00070560240419581532, 0.00083183875540271401, 0.0010315520921722054, 0.0012739754747599363, 0.0005275956355035305, 0.00062213419005274773, 0.00067305297125130892, 0.0015099754091352224, 0.0007803199696354568, 0.0013337845448404551, 0.00089256901992484927, 0.0012358251260593534, 0.00027312652673572302, 0.00097009452292695642, 0.00050889188423752785, 0.0013452772982418537, 0.00057953770738095045, 0.0010631829500198364, 0.00051662401529029012, 0.00109684350900352, 0.00079279154306277633, 0.00076604000059887767, 0.00086055044084787369, 0.00091576715931296349, 0.00061917281709611416, 0.001143918838351965, 0.00063221465097740293, 0.0014850917505100369, 0.00045523294829763472, 0.00040658065699972212, 0.0010969487484544516, 0.00089582300279289484, } };
const TfLiteAffineQuantization quant18 = { (TfLiteFloatArray*)&quant18_scale, (TfLiteIntArray*)&g0::quant5_zero, 0 };
const MODEL_SECTION(EI_MODEL_SECTION) ALIGN(16) int32_t tensor_data19[16] = { -38109, 5182, 3392, -6328, 1504, -7153, -10475, -41872, 2313, 20740, 35375, -10178, -4281, -19967, 37151, -45318, };
const TfArray<16, float> quant19_scale = { 16, { 0.00074211868923157454, 0.00089784344891086221, 0.0010698495898395777, 0.0010384988272562623, 0.00084115099161863327, 0.0012469529174268246, 0.0012004008749499917, 0.000559471664018929, 0.00067265960387885571, 0.00074915826553478837, 0.00090669130440801382, 0.00049733615014702082, 0.00096224923618137836, 0.0012657562037929893, 0.00060200126608833671, 0.00066196941770613194, } };
const TfLiteAffineQuantization quant19 = { (TfLiteFloatArray*)&quant19_scale, (TfLiteIntArray*)&g0::quant7_zero, 0 };
const MODEL_SECTION(EI_MODEL_SECTION) ALIGN(16) int8_t tensor_data20[16*1*1*48] = { 
  /* [0][0][][] */ -19,-10,-24,14,20,-3,7,97,-48,16,41,0,20,-23,-8,6,8,-14,-3,-5,67,-5,20,127,-22,79,-13,-17,30,-17,30,-24,-12,46,19,-45,19,42,14,-13,-104,-14,15,46,27,31,-114,-57, 
  /* [1][0][][] */ -41,-17,25,16,-29,6,0,51,-57,-29,2,-42,-14,-18,1,-4,-25,127,-5,16,11,15,-27,-17,21,-40,15,32,-18,-89,-33,14,-26,-4,26,-4,-8,-45,-5,20,-22,-27,121,15,6,-3,17,-15, 
  /* [2][0][][] */ -18,-3,-15,-40,-2,-67,6,-19,-3,12,14,23,14,14,-15,5,-3,-22,-26,-10,-7,-5,-3,-127,-13,75,-15,-1,-1,-21,-1,-1,-6,54,14,1,25,14,29,-2,-40,-1,-15,-8,1,-7,13,12, 
  /* [3][0][][] */ -8,28,-1,-33,-2,-2,6,-1,-23,-3,-1,37,-127,7,-3,1,5,3,-16,-1,-31,3,6,18,-10,-15,-2,22,-14,14,7,23,0,7,16,20,-15,28,47,3,12,1,24,-28,6,-3,6,19, 
  /* [4][0][][] */ 41,-36,7,11,27,24,26,-23,-33,5,-15,-17,5,11,0,16,24,-4,-77,5,-4,5,19,78,0,-25,0,49,9,-79,21,14,12,-30,29,-127,10,38,-4,12,-16,16,6,-23,-8,-17,6,0, 
  /* [5][0][][] */ 27,3,-22,57,4,-6,10,26,1,-7,42,6,2,52,-1,-1,-27,19,34,9,12,2,3,-27,2,-49,6,-22,-3,-12,-1,8,65,-127,6,29,-10,-15,15,5,-92,55,25,-4,-3,1,-100,-8, 
  /* [6][0][][] */ 21,-4,5,4,-15,-1,4,-15,-5,9,1,3,-18,9,4,7,1,-14,127,4,6,12,13,-40,0,-2,30,-9,-16,-3,-6,5,0,-9,30,-39,1,-47,75,19,-2,-8,-10,10,-9,-2,7,-8, 
  /* [7][0][][] */ -41,-11,-10,34,-8,77,-13,41,1,30,-9,127,75,-5,-6,1,-6,-19,-8,-13,-27,-10,-17,62,-1,-32,-56,-26,-7,-17,-10,-13,6,-7,-25,6,11,-56,86,-9,21,35,-61,-56,13,-7,2,-5, 
  /* [8][0][][] */ -56,-45,-3,3,-4,5,4,32,-1,-72,7,40,49,8,11,6,-11,60,-25,6,-43,27,-10,-16,6,-3,11,44,-9,125,-11,24,-2,9,-13,-127,-112,66,33,28,18,-8,118,-19,11,27,26,40, 
  /* [9][0][][] */ -22,0,-9,35,13,-36,0,0,58,-42,9,62,-55,2,22,-4,-8,20,-37,-26,45,0,-8,-9,-9,13,41,-30,10,6,13,9,-6,18,73,-96,-3,-127,-93,1,-27,31,53,7,3,16,-18,-50, 
  /* [10][0][][] */ -20,-6,-33,-127,50,79,9,-9,-10,33,17,12,57,-42,-37,28,40,-35,64,-35,40,-28,37,62,-43,-99,1,-37,53,33,49,-44,-36,-75,22,-12,5,-41,6,-39,-28,-66,-14,7,14,14,7,-34, 
  /* [11][0][][] */ -8,62,-3,64,43,-66,-89,-12,1,68,-14,-6,-13,62,-9,-79,24,43,5,2,-62,-107,7,-6,16,-49,28,-19,50,-44,19,-104,52,-20,-36,-104,106,23,15,-127,-10,60,109,-78,-5,-68,38,44, 
  /* [12][0][][] */ 127,-7,-14,16,3,23,1,101,28,-14,-53,-21,-6,9,-11,-6,-12,5,-8,-4,4,1,5,18,-3,13,-7,2,-6,16,-9,0,7,-72,-7,14,-14,-14,-31,2,-17,-74,8,-123,-53,-9,86,-5, 
  /* [13][0][][] */ 13,4,1,4,8,-14,1,-2,-3,8,3,19,-2,4,5,1,7,2,9,4,9,-15,8,-2,-2,0,15,127,9,-6,8,-2,2,-2,-39,19,9,-4,3,-14,-14,-1,2,5,1,-2,-13,-11, 
  /* [14][0][][] */ 62,-31,42,-68,53,29,35,-100,-52,-55,-5,122,-69,-14,67,23,47,25,-57,59,22,21,83,-16,25,58,-34,-111,27,-35,58,37,1,65,-127,-54,-35,42,86,9,-35,14,50,6,1,0,14,-31, 
  /* [15][0][][] */ -14,-49,-79,-40,62,36,79,-48,-8,16,-13,-37,86,24,-106,74,63,49,91,-90,-101,-29,59,-14,-82,38,38,57,51,53,49,-53,30,69,105,125,-28,-120,-5,-39,104,62,127,-48,-2,-37,-14,72, 
};
const TfArray<4, int> tensor_dimension20 = { 4, { 16,1,1,48 } };
const TfArray<16, float> quant20_scale = { 16, { 0.031540043652057648, 0.038158345967531204, 0.045468606054782867, 0.044136200100183487, 0.035748917609453201, 0.052995495498180389, 0.051017038524150848, 0.023777544498443604, 0.028588032349944115, 0.031839225441217422, 0.038534380495548248, 0.021136784926056862, 0.040895592421293259, 0.053794637322425842, 0.025585053488612175, 0.028133699670433998, } };
const TfLiteAffineQuantization quant20 = { (TfLiteFloatArray*)&quant20_scale, (TfLiteIntArray*)&g0::quant7_zero, 0 };
const MODEL_SECTION(EI_MODEL_SECTION) ALIGN(16) int32_t tensor_data21[48] = { -296, 38012, -993, 51444, 4248, 127159, -3037, 47220, 2761, 29158, 28513, 5349, 2783, 33455, -1556, -2029, -476, 880, 1559, -2050, 536, -2077, -184, -20395, -5066, 41161, 124162, 97429, 2733, 2870, -2366, 342, 26282, -419, 34653, -4732, 35915, 1225, 44031, 1230, -1383, 58082, -1802, 1906, 46636, -488, 1409, 49911, };
const TfArray<1, int> tensor_dimension21 = { 1, { 48 } };
const TfArray<48, float> quant21_scale = { 48, { 9.0518413344398141e-05, 3.4181819501100108e-05, 0.00018482247833162546, 4.6496428694808856e-05, 0.00013164106348995119, 6.5050437115132809e-05, 0.0001462492800783366, 0.00012678030179813504, 8.0492696724832058e-05, 4.7260717110475525e-05, 5.7731645938474685e-05, 8.1203797890339047e-05, 4.0739123505773023e-05, 4.0480572351953015e-05, 0.00016026973025873303, 0.0001794856070773676, 0.00017153876251541078, 6.3026403950061649e-05, 0.00011476732470327988, 0.00015537909348495305, 7.3280185461044312e-05, 0.00021964618645142764, 8.6909363744780421e-05, 0.00012786782463081181, 0.00011023605475202203, 0.00011058177187805995, 3.0280434657470323e-05, 7.3913150117732584e-05, 0.0001135246639023535, 0.00011344876838847995, 9.7540156275499612e-05, 0.00015960358723532408, 5.9367033827584237e-05, 0.00015770448953844607, 2.8704853320959955e-05, 6.3408806454390287e-05, 0.00016525039973203093, 9.0747060312423855e-05, 0.00013326788030099124, 9.4047332822810858e-05, 0.00013603003753814846, 0.0001021097632474266, 0.00011183576134499162, 9.6775416750460863e-05, 3.0780869565205649e-05, 0.00014752273273188621, 0.00010833594569703564, 2.6628673367667943e-05, } };
const TfArray<48, int> quant21_zero = { 48, { 0,0,0,0,0,0,0,0,0,0,0,0,0,0,0,0,0,0,0,0,0,0,0,0,0,0,0,0,0,0,0,0,0,0,0,0,0,0,0,0,0,0,0,0,0,0,0,0 } };
const TfLiteAffineQuantization quant21 = { (TfLiteFloatArray*)&quant21_scale, (TfLiteIntArray*)&quant21_zero, 0 };
const MODEL_SECTION(EI_MODEL_SECTION) ALIGN(16) int8_t tensor_data22[1*3*3*48] = { 
  /* [0][0][][] */ 68,-92,96,72,54,-34,107,-66,60,-90,-80,47,53,-42,-70,-90,100,80,49,78,68,-75,-84,50,-32,-41,-62,-64,-66,62,-64,-113,-14,40,72,65,-65,53,-49,-23,51,-74,57,61,-93,11,74,-35, 81,-95,127,87,-77,-68,-57,-84,96,-102,-64,74,81,-108,-95,90,-36,98,83,127,85,-116,54,71,-53,-77,-68,-80,55,79,-29,-127,-87,79,83,84,-83,83,-83,-16,76,-96,83,89,-74,-127,92,-103, 33,-45,69,38,18,-41,-47,-40,42,-31,6,34,30,-79,-53,-2,-52,39,34,70,33,-56,32,26,-28,-45,-44,-22,31,31,89,-88,-86,43,37,33,-30,39,-38,-10,40,-41,34,42,-5,-8,37,-74, 
  /* [0][1][][] */ 90,-111,-41,95,54,-82,127,-91,86,-114,-71,82,83,-111,-14,-127,127,108,74,-37,84,107,-127,73,73,-76,-94,-98,-127,87,-70,-8,-87,71,108,95,-85,80,-80,89,83,-100,87,90,-88,108,93,-95, 127,-127,-65,127,-127,-127,-90,-127,127,-127,-127,127,127,-127,-22,96,-64,127,127,-52,127,127,69,127,127,-127,-127,-127,53,127,-28,17,-127,127,127,127,-127,127,-127,127,127,-127,127,127,-127,-11,127,-127, 64,-76,-33,66,37,-62,-49,-62,55,-42,-60,58,48,-54,-15,10,-61,50,58,-29,57,63,50,64,66,-65,-61,-44,36,55,127,16,-64,71,48,50,-50,60,-60,57,60,-59,53,61,-62,-67,58,-58, 
  /* [0][2][][] */ 44,-49,-45,51,26,-52,64,-43,40,-73,-5,40,55,-72,83,-79,73,49,34,-30,25,-11,-77,31,-24,-46,-47,-50,-75,32,-42,90,-75,38,48,42,-27,37,-42,-87,47,-50,39,44,-24,16,40,-76, 71,-75,-48,80,-56,-63,-72,-68,51,-77,-67,62,74,-48,127,32,-45,59,61,-43,54,-18,41,67,-49,-67,-76,-62,32,61,-24,118,-55,65,57,58,-49,62,-66,-106,68,-68,59,62,-85,50,63,-54, 42,-40,-25,47,29,-20,-18,-34,12,-26,-51,28,32,4,68,25,-35,21,29,-31,29,0,39,43,-25,-30,-47,-24,33,34,61,68,0,35,15,22,-23,30,-29,-55,28,-32,24,29,-61,10,32,-6, 
};
const TfArray<4, int> tensor_dimension22 = { 4, { 1,3,3,48 } };
