/*
 * Copyright (c) 2026 EdgeImpulse Inc.
 *
 * Generated by Edge Impulse and licensed under the applicable Edge Impulse
 * Terms of Service. Community and Professional Terms of Service
 * (https://edgeimpulse.com/legal/terms-of-service) or Enterprise Terms of
 * Service (https://edgeimpulse.com/legal/enterprise-terms-of-service),
 * according to your product plan subscription (the “License”).
 *
 * This software, documentation and other associated files (collectively referred
 * to as the “Software”) is a single SDK variation generated by the Edge Impulse
 * platform and requires an active paid Edge Impulse subscription to use this
 * Software for any purpose.
 *
 * You may NOT use this Software unless you have an active Edge Impulse subscription
 * that meets the eligibility requirements for the applicable License, subject to
 * your full and continued compliance with the terms and conditions of the License,
 * including without limitation any usage restrictions under the applicable License.
 *
 * If you do not have an active Edge Impulse product plan subscription, or if use
 * of this Software exceeds the usage limitations of your Edge Impulse product plan
 * subscription, you are not permitted to use this Software and must immediately
 * delete and erase all copies of this Software within your control or possession.
 * Edge Impulse reserves all rights and remedies available to enforce its rights.
 *
 * Unless required by applicable law or agreed to in writing, the Software is
 * distributed on an "AS IS" BASIS, WITHOUT WARRANTIES OR CONDITIONS OF ANY KIND,
 * either express or implied. See the License for the specific language governing
 * permissions, disclaimers and limitations under the License.
 */
// Generated on: 25.05.2026 22:53:10

#include <stdio.h>
#include <stdlib.h>
#include "edge-impulse-sdk/tensorflow/lite/c/builtin_op_data.h"
#include "edge-impulse-sdk/tensorflow/lite/c/common.h"
#include "edge-impulse-sdk/tensorflow/lite/micro/micro_mutable_op_resolver.h"
#include "edge-impulse-sdk/porting/ei_classifier_porting.h"

#if EI_CLASSIFIER_PRINT_STATE
#if defined(__cplusplus) && EI_C_LINKAGE == 1
extern "C" {
    extern void ei_printf(const char *format, ...);
}
#else
extern void ei_printf(const char *format, ...);
#endif
#endif

#define STRINGIZE(x) #x
#define STRINGIZE_VALUE_OF(x) STRINGIZE(x)

#if defined (__GNUC__)  /* GNU compiler */
#define ALIGN(X) __attribute__((aligned(X)))
#define DEFINE_SECTION(x) __attribute__((section(x)))
#elif defined (_MSC_VER)
#define ALIGN(X) __declspec(align(X))
#elif defined (__TASKING__) /* TASKING Compiler */
#define ALIGN(X) __align(X)
#define DEFINE_SECTION(x) __attribute__((section(x)))
#elif defined (__ARMCC_VERSION) /* Arm Compiler */
#define ALIGN(X) __ALIGNED(x)
#define DEFINE_SECTION(x) __attribute__((section(x)))
#elif defined (__ICCARM__) /* IAR Compiler */
#define ALIGN(x) __attribute__((aligned(x)))
#define DEFINE_SECTION(x) __attribute__((section(x)))
#elif defined (__clang__) /* LLVM/Clang Compiler */
#define ALIGN(X) __ALIGNED(x)
#define DEFINE_SECTION(x) __attribute__((section(x)))
#endif

#if defined(EI_MODEL_SECTION) && (defined(__GNUC__) || defined(__clang__))
#define MODEL_SECTION(X) __attribute__((section(STRINGIZE_VALUE_OF(X))))
#else
#define MODEL_SECTION(X)
#endif

#ifndef EI_MAX_SCRATCH_BUFFER_COUNT
#ifndef CONFIG_IDF_TARGET_ESP32S3
#define EI_MAX_SCRATCH_BUFFER_COUNT 14
#else
#define EI_MAX_SCRATCH_BUFFER_COUNT 28
#endif // CONFIG_IDF_TARGET_ESP32S3
#endif // EI_MAX_SCRATCH_BUFFER_COUNT

#ifndef EI_MAX_OVERFLOW_BUFFER_COUNT
#define EI_MAX_OVERFLOW_BUFFER_COUNT 10
#endif // EI_MAX_OVERFLOW_BUFFER_COUNT

using namespace tflite;
using namespace tflite::ops;
using namespace tflite::ops::micro;

namespace {

#if defined(EI_CLASSIFIER_ALLOCATION_STATIC_HIMAX) || defined(EI_CLASSIFIER_ALLOCATION_STATIC_HIMAX_GNU)
constexpr int kTensorArenaSize = 154944;
#else
constexpr int kTensorArenaSize = 153920;
#endif

#if defined(EI_CLASSIFIER_ALLOCATION_STATIC)
#if defined (EI_TENSOR_ARENA_LOCATION)
uint8_t tensor_arena[kTensorArenaSize] ALIGN(16) DEFINE_SECTION(STRINGIZE_VALUE_OF(EI_TENSOR_ARENA_LOCATION));
#else
uint8_t tensor_arena[kTensorArenaSize] ALIGN(16);
#endif
#elif defined(EI_CLASSIFIER_ALLOCATION_STATIC_HIMAX)
#pragma Bss(".tensor_arena")
uint8_t tensor_arena[kTensorArenaSize] ALIGN(16);
#pragma Bss()
#elif defined(EI_CLASSIFIER_ALLOCATION_STATIC_HIMAX_GNU)
uint8_t tensor_arena[kTensorArenaSize] ALIGN(16) __attribute__((section(".tensor_arena")));
#else
#define EI_CLASSIFIER_ALLOCATION_HEAP 1
uint8_t* tensor_arena = NULL;
#endif

static uint8_t* tensor_boundary;
static uint8_t* current_location;

template <int SZ, class T> struct TfArray {
  int sz; T elem[SZ];
};

enum used_operators_e {
  OP_CONV_2D, OP_DEPTHWISE_CONV_2D, OP_ADD, OP_SOFTMAX,  OP_LAST
};

struct TensorInfo_t { // subset of TfLiteTensor used for initialization from constant memory
  TfLiteAllocationType allocation_type;
  TfLiteType type;
  void* data;
  TfLiteIntArray* dims;
  size_t bytes;
  TfLiteQuantization quantization;
};

typedef struct {
  TfLiteTensor tensor;
  int16_t index;
} TfLiteTensorWithIndex;

typedef struct {
  TfLiteEvalTensor tensor;
  int16_t index;
} TfLiteEvalTensorWithIndex;

TfLiteContext ctx{};
static const int MAX_TFL_TENSOR_COUNT = 4;
static TfLiteTensorWithIndex tflTensors[MAX_TFL_TENSOR_COUNT];
static const int MAX_TFL_EVAL_COUNT = 4;
static TfLiteEvalTensorWithIndex tflEvalTensors[MAX_TFL_EVAL_COUNT];
TfLiteRegistration registrations[OP_LAST];

namespace g0 {
const TfArray<4, int> tensor_dimension0 = { 4, { 1,96,96,3 } };
const TfArray<1, float> quant0_scale = { 1, { 0.0039215688593685627, } };
const TfArray<1, int> quant0_zero = { 1, { -128 } };
const TfLiteAffineQuantization quant0 = { (TfLiteFloatArray*)&quant0_scale, (TfLiteIntArray*)&quant0_zero, 0 };
const MODEL_SECTION(EI_MODEL_SECTION) ALIGN(8) int32_t tensor_data1[3] = { 18485, -29422, -27246, };
const TfArray<1, int> tensor_dimension1 = { 1, { 3 } };
const TfArray<3, float> quant1_scale = { 3, { 0.0002763492229860276, 0.00021395832300186157, 0.00019289001647848636, } };
const TfArray<3, int> quant1_zero = { 3, { 0,0,0 } };
const TfLiteAffineQuantization quant1 = { (TfLiteFloatArray*)&quant1_scale, (TfLiteIntArray*)&quant1_zero, 0 };
const MODEL_SECTION(EI_MODEL_SECTION) ALIGN(16) int8_t tensor_data2[3*1*1*32] = { 
  /* [0][0][][] */ 30,32,122,-25,-76,13,10,0,-24,25,14,21,-10,-40,71,-7,-28,35,127,45,-52,-48,12,-35,-88,98,-42,-12,108,33,-16,67, 
  /* [1][0][][] */ 68,-36,-81,21,-18,121,-18,-6,116,-80,0,-127,-57,93,36,-43,87,-44,-18,-89,-104,23,108,74,21,3,8,-18,-81,-54,-1,-56, 
  /* [2][0][][] */ -49,76,-90,77,83,-45,-34,116,94,34,127,-24,-99,-92,75,120,-85,-53,-34,-115,72,120,-52,-94,76,-57,-17,-114,-3,-80,86,-71, 
};
const TfArray<4, int> tensor_dimension2 = { 4, { 3,1,1,32 } };
const TfArray<3, float> quant2_scale = { 3, { 0.0046263742260634899, 0.0035818854812532663, 0.0032291801180690527, } };
const TfLiteAffineQuantization quant2 = { (TfLiteFloatArray*)&quant2_scale, (TfLiteIntArray*)&g0::quant1_zero, 0 };
const MODEL_SECTION(EI_MODEL_SECTION) ALIGN(16) int32_t tensor_data3[32] = { 282, -25, 572, -79, -25, 188, 76, -57, -63, 617, -49, 1628, -313, -112, -221, -52, -22, -406, 1061, -251, -331, -30, 99, -14, -240, 378, -458, -281, 154, 160, -314, 1469, };
const TfArray<1, int> tensor_dimension3 = { 1, { 32 } };
const TfArray<32, float> quant3_scale = { 32, { 4.9242411478189752e-05, 4.1790954128373414e-05, 4.2469106119824573e-05, 4.6049321099417284e-05, 4.3185911636101082e-05, 4.4708405766868964e-05, 4.6735738578718156e-05, 4.5261600462254137e-05, 5.4520194680662826e-05, 5.0936781917698681e-05, 4.4145195715827867e-05, 5.186302587389946e-05, 4.6125056542223319e-05, 4.363147309049964e-05, 4.6845208999002352e-05, 4.3056956201326102e-05, 4.403597631608136e-05, 4.2345316614955664e-05, 6.7878296249546111e-05, 4.167816587141715e-05, 4.0348306356463581e-05, 4.1592276829760522e-05, 4.2221246985718608e-05, 4.0465809433953837e-05, 4.1967610741266981e-05, 4.9375939852325246e-05, 4.4194330257596448e-05, 4.3196127080591395e-05, 5.0386079237796366e-05, 4.1650884668342769e-05, 4.1543720726622269e-05, 5.5069696827558801e-05, } };
const TfArray<32, int> quant3_zero = { 32, { 0,0,0,0,0,0,0,0,0,0,0,0,0,0,0,0,0,0,0,0,0,0,0,0,0,0,0,0,0,0,0,0 } };
const TfLiteAffineQuantization quant3 = { (TfLiteFloatArray*)&quant3_scale, (TfLiteIntArray*)&quant3_zero, 0 };
const MODEL_SECTION(EI_MODEL_SECTION) ALIGN(16) int8_t tensor_data4[32*1*1*96] = { 
  /* [0][0][][] */ -47,-48,84,9,61,-22,-74,-107,49,-87,-88,-16,48,15,-36,67,-38,-24,-60,-61,-57,-88,11,100,-104,-1,68,-48,107,-3,-16,-77,83,-53,-56,77,-82,-68,-114,27,73,-77,-84,104,41,-92,102,-9,23,-41,-43,95,-56,-46,-88,87,31,75,127,-83,-65,76,-44,42,17,27,65,79,66,87,90,-107,96,-88,40,75,-83,21,-50,23,52,27,72,-7,-43,-28,-66,100,28,113,-23,-118,8,52,38,26, 
  /* [1][0][][] */ -55,36,-79,-2,-65,84,39,14,83,-102,-108,127,51,-29,26,61,110,-43,40,100,-47,-6,36,27,28,26,-46,107,5,-22,99,-71,53,109,-22,16,49,67,4,-67,-63,11,-23,-104,-35,32,-27,-56,-27,-90,109,60,9,94,-87,-56,24,100,47,82,-66,120,-65,-88,-59,32,78,46,96,23,17,16,-119,88,-50,45,68,-49,-43,74,-84,73,-49,-123,27,120,-71,-75,84,80,107,13,83,101,14,-21, 
  /* [2][0][][] */ 40,41,-17,107,22,-82,98,110,-95,87,-27,101,31,-14,102,-100,-54,-28,48,-1,-110,1,125,29,26,90,116,44,-58,45,93,92,-74,-19,-84,-103,-66,92,121,-24,-121,-74,29,9,-71,127,-32,-72,103,13,85,-111,-35,55,28,23,-88,81,-58,13,-34,88,-74,68,77,50,66,92,-94,85,-3,-84,39,-50,22,54,-60,-12,14,5,34,-66,-22,-41,10,-100,-15,-33,81,116,-34,-22,-45,-105,-52,-49, 
  /* [3][0][][] */ 74,2,20,-27,-93,44,-100,28,48,29,62,9,87,96,65,1,106,103,-59,46,124,-83,-59,-103,-46,-98,-74,86,43,-86,79,18,-51,-28,-12,-17,-87,-11,38,46,-12,-77,-99,-2,65,26,-30,-76,66,-79,44,24,81,36,94,-94,-97,-92,-109,-55,-80,33,-15,64,60,-27,-59,-30,-27,-80,21,110,31,-109,67,-55,35,93,92,-69,-74,-127,48,93,29,51,-36,-102,-62,49,8,-91,89,-67,-74,18, 
  /* [4][0][][] */ 57,115,-14,48,-74,-16,33,10,59,97,-10,82,3,-31,-14,-72,-18,4,-55,34,122,-90,88,28,-43,3,63,-63,-50,13,-71,-52,71,117,-1,-104,-48,3,-107,46,-41,-51,-72,-93,31,99,46,58,25,-30,-16,-58,-86,54,-81,16,42,-85,18,13,10,-67,-16,-70,-39,53,1,-37,8,-102,-84,-66,-46,-4,120,50,50,-19,-7,-46,10,-60,-80,-23,-1,75,94,-4,-104,-74,65,43,22,127,-100,-25, 
  /* [5][0][][] */ 90,-92,74,68,46,-114,28,38,95,-106,3,-75,52,103,33,44,67,63,-78,127,40,51,22,-18,-126,-62,-5,-86,58,48,23,-92,-37,3,-44,29,-100,-32,22,26,-79,-46,42,105,-35,32,36,-45,-102,115,30,48,42,11,44,-14,118,60,-30,-34,50,-68,50,-54,-14,108,-26,28,78,8,115,-63,-35,71,-23,-67,29,-42,15,70,113,53,31,114,-70,87,-3,46,75,-88,92,96,-4,10,81,-69, 
  /* [6][0][][] */ 12,-38,116,77,-69,-64,1,66,-8,-68,8,-83,55,54,112,-103,40,3,6,60,-75,-103,105,56,-30,-73,-5,-41,-20,-127,50,-77,-74,-107,-36,-92,-1,35,-94,74,79,51,26,-11,-94,99,-84,-36,-70,8,-18,-71,59,-51,85,-24,4,-8,-58,108,-97,14,45,-68,-55,60,99,-44,82,1,-98,-8,53,-50,-79,-29,-81,-87,-48,-22,28,-9,36,-27,-62,-82,-32,-92,74,89,96,-3,-48,-65,72,-16, 
  /* [7][0][][] */ 115,69,-49,-45,-107,113,-18,-4,108,8,-93,34,49,-82,42,64,51,19,-2,127,59,32,-7,83,-86,102,37,45,-78,88,-23,33,18,24,52,86,-105,89,-6,-27,95,-67,78,62,46,-7,106,-106,49,-47,-106,-53,-27,87,18,27,112,-82,-7,-57,11,-10,93,-115,-59,-54,62,24,-116,12,67,89,83,8,63,50,-72,50,-95,43,89,-48,-9,-73,81,36,-104,85,84,5,92,59,-56,-29,-10,-76, 
  /* [8][0][][] */ 10,25,-51,-80,29,21,-59,-26,-1,34,35,87,30,-29,-72,-59,-49,79,-57,51,36,-22,64,90,-127,73,39,50,-50,31,-73,93,70,-27,43,1,91,7,-24,56,69,86,-90,-92,-16,-22,-12,86,15,-56,-45,16,-51,-8,-18,-82,46,96,-65,81,105,25,55,90,-10,-33,-21,80,-73,37,38,9,68,40,15,10,-29,83,65,53,34,59,-78,-64,20,40,60,-31,40,-28,-71,90,-59,-74,-32,46, 
  /* [9][0][][] */ -7,25,127,57,72,-94,-28,-50,45,58,9,51,-68,-52,-66,-10,11,5,-68,-83,4,102,-80,-79,116,22,5,44,-3,-65,-66,76,48,7,13,-6,-57,12,20,-16,42,-50,55,-54,79,33,-90,56,53,-23,-59,-70,76,-66,-50,88,62,-50,81,8,-68,105,73,-64,-84,13,109,70,-45,87,88,-80,13,74,-102,-56,-64,-89,-18,102,30,54,105,26,-28,-73,47,-10,86,41,10,74,113,-30,60,-40, 
  /* [10][0][][] */ -57,84,77,-69,-56,105,105,23,34,32,22,-47,95,81,-36,5,-33,81,-97,-33,-10,26,54,-67,10,57,-115,-119,-52,60,-97,-83,77,98,105,61,-45,13,-32,33,-30,118,-112,-40,-97,-62,5,-58,-4,8,34,23,57,25,-60,-36,-97,-13,19,-47,1,72,127,33,122,-75,-97,-20,8,-29,-88,-57,87,46,-74,99,-26,61,64,20,77,-15,63,98,-100,71,98,-29,42,8,4,-77,-55,-39,-53,-78, 
  /* [11][0][][] */ 106,38,37,127,119,52,70,116,115,101,-30,111,-40,-52,73,-7,-21,-79,104,-12,13,104,58,-66,5,-55,-2,96,95,-17,50,-13,-71,-37,43,53,-9,73,71,-31,-11,98,-21,46,-1,-19,-61,-47,77,86,100,18,-32,-60,27,22,-71,-43,6,-38,-100,124,40,10,33,99,2,40,93,76,-64,-72,55,86,-76,90,-58,71,-13,112,-92,13,-70,-32,66,-58,45,-4,-88,17,56,-105,-76,-10,-26,-16, 
  /* [12][0][][] */ 6,56,-54,-6,96,5,-41,27,-76,51,-22,4,-58,2,38,-80,-101,-39,-51,-97,14,-16,8,82,-50,-54,85,-97,79,-3,-41,100,-89,-74,-50,6,-9,-79,-21,31,98,28,-110,-45,-26,-86,-46,101,-49,-127,-79,84,29,-11,-86,72,-28,-66,48,55,42,107,-20,45,86,22,-49,101,45,87,30,56,70,104,-25,-10,-44,26,-116,-92,-64,93,33,3,-42,20,42,98,-98,-109,84,33,82,-25,19,63, 
  /* [13][0][][] */ 105,-67,103,89,116,101,78,45,69,-106,7,-52,127,72,60,-49,-117,-70,-79,64,67,-29,115,-48,-75,32,10,21,-83,-61,83,42,41,97,-7,36,-84,-37,0,67,-68,75,-59,6,-49,29,-14,-34,34,112,-26,-97,-103,17,109,-72,-44,24,-4,-75,-13,112,-76,33,-74,-66,-93,83,-56,-19,95,2,-87,39,-82,-41,-82,65,79,-68,52,-86,97,28,-83,-99,87,116,-9,-57,-86,69,123,-67,60,-3, 
  /* [14][0][][] */ -70,-108,77,62,63,-44,-18,-106,-72,-32,62,71,-31,-89,-86,-94,-68,-59,-3,23,-42,23,-16,53,-108,-74,-32,14,-123,-115,-74,38,76,-25,-43,-8,75,106,31,-123,-6,-101,11,79,60,-102,60,-82,101,22,67,50,75,-18,-14,10,-56,1,42,74,-14,-96,-46,50,-92,-11,62,-119,-102,-104,-94,87,-9,75,27,-74,48,-116,47,21,41,-29,-127,-33,-108,-93,-119,99,94,6,58,-46,67,68,-37,41, 
  /* [15][0][][] */ 25,-18,-36,74,58,-79,64,-93,60,-1,-69,34,92,5,-87,-116,91,15,-87,19,56,20,73,111,70,76,39,88,18,36,63,-103,2,11,-76,-14,-69,121,124,-65,23,119,-48,-27,28,-82,-32,-77,-6,-78,-12,37,-99,-92,-52,-8,69,55,-63,109,-46,-66,16,95,-34,97,-70,8,-70,1,66,-63,21,-26,66,-109,-17,56,107,83,-79,46,-98,-65,-120,-31,-88,35,92,71,-94,-48,51,127,-116,98, 
  /* [16][0][][] */ -73,-4,103,-62,62,105,-53,28,47,52,-104,54,21,-43,-54,-51,109,78,64,96,111,77,-35,54,-42,49,-60,66,-88,41,44,20,-96,74,75,73,-28,48,-75,-65,21,-47,72,95,58,108,95,-12,-54,-93,18,120,-36,108,77,53,34,95,87,16,127,105,35,74,65,20,-36,89,53,103,-23,-11,34,95,60,88,14,98,-105,-15,19,-66,58,20,15,101,101,18,79,17,-30,125,78,-41,-64,41, 
  /* [17][0][][] */ 31,-121,18,89,-44,-125,-74,-106,50,-90,81,45,73,53,-123,50,19,47,118,89,-107,-20,4,-63,45,52,-89,17,99,-58,-41,74,-34,-29,25,-3,-66,95,-98,-37,-104,-52,-22,-19,7,7,82,-117,83,104,-21,16,-29,76,90,-86,-125,82,-100,-121,23,-107,57,87,-95,-80,38,-107,-116,-9,98,17,6,-124,-88,57,110,-60,36,-57,1,-14,-92,-103,-121,63,75,-38,7,75,-92,-127,-16,81,11,11, 
  /* [18][0][][] */ -42,54,127,22,17,-48,-44,88,10,56,-35,-55,-70,27,84,-10,20,-24,58,-48,52,13,33,-25,89,-59,7,95,30,-37,31,-2,10,-2,-7,-61,-1,20,12,66,-30,-1,17,22,-54,7,10,13,10,-45,56,-28,-50,3,5,72,-45,14,19,-59,41,109,-21,26,-41,-73,22,116,63,9,-55,53,-50,15,-65,-29,-2,55,21,-71,-42,14,-17,-54,82,-19,50,25,-74,-33,-57,28,57,-72,48,29, 
  /* [19][0][][] */ 13,32,73,37,63,-84,97,89,98,-68,26,-6,-97,31,-60,61,76,-104,109,58,-23,80,-58,11,89,-81,29,-72,-93,-122,-69,43,93,-86,31,-2,9,-72,-60,-106,45,-120,-88,7,-88,27,77,-96,-25,37,-42,46,-39,13,-1,-10,22,102,5,-29,58,-58,98,60,-72,-4,-29,-6,-3,53,77,-52,-64,-127,-54,-84,-25,-116,13,112,60,-117,-30,75,-89,-11,9,-5,91,31,-8,58,-35,124,76,-49, 
  /* [20][0][][] */ -10,82,62,104,-123,99,19,61,20,1,-100,21,-29,86,39,-89,-58,-39,-65,-65,22,-49,-85,-82,82,-82,-121,44,18,-6,-55,106,110,46,-41,43,36,-36,-4,-119,-92,-37,-98,-126,-36,-90,-76,110,67,-121,-118,19,47,118,35,-12,94,76,86,90,99,-50,-79,-48,-44,-85,-54,17,-95,-88,-75,87,-75,-102,37,16,92,79,113,127,84,-15,92,-49,54,116,-15,60,19,92,58,55,11,52,-18,-6, 
  /* [21][0][][] */ 100,82,56,-111,56,-80,77,9,-6,-65,-76,67,15,43,-57,-100,-104,-25,23,45,123,-53,72,-85,31,-83,-34,64,10,9,-15,-25,3,20,-104,-124,108,109,-125,-34,0,15,24,-20,-104,-91,-72,96,-24,-59,-8,110,32,74,-89,26,-49,60,-62,120,65,-88,43,-22,94,31,-41,-69,-127,-14,68,92,37,-44,83,61,-124,-33,64,111,19,86,45,-77,24,-92,67,-90,-98,80,124,-113,-50,-52,64,-46, 
  /* [22][0][][] */ 27,-52,-84,-108,105,-70,103,57,-96,101,-73,-116,127,-108,-125,-72,47,87,-106,-70,97,-78,39,36,80,-20,-114,113,-45,-73,-59,-112,56,65,28,33,17,-18,-89,-120,4,-17,11,114,55,-107,95,-20,-63,-75,10,-7,-37,-92,-51,29,4,-16,-8,-24,121,-83,-75,-108,-47,32,-122,-56,126,120,-4,-9,-60,-5,71,-85,64,-46,64,100,115,-85,-80,-112,88,92,107,-24,-53,40,-114,55,22,16,-9,117, 
  /* [23][0][][] */ 45,-110,1,53,111,-108,3,-114,52,-87,90,59,62,-114,10,-36,98,-38,-123,104,96,-87,112,-37,-20,-24,82,15,81,52,79,-42,-38,45,43,34,107,-14,-122,8,-115,-9,7,-115,-93,-93,117,28,81,-114,-87,-35,86,-69,-54,91,-87,-11,120,52,-108,-102,-55,-2,43,39,-126,-118,85,-16,127,-87,3,-34,-40,-104,61,-22,99,100,-56,-37,17,-107,99,6,122,-22,-97,51,93,-21,118,-69,-4,98, 
  /* [24][0][][] */ -74,-54,-127,-87,-98,-123,-80,-112,59,117,79,43,110,58,-44,-125,-87,42,12,-52,95,-92,-63,-45,41,-32,66,49,107,58,-1,-64,-8,9,46,30,-61,-84,53,-38,-74,-109,101,2,25,-41,50,70,-94,-48,-29,10,66,65,69,-80,-3,79,-8,-2,88,-13,40,85,-113,99,-58,-113,-101,50,-67,-34,-62,27,97,91,61,-83,-118,-79,-84,-112,-71,-121,0,66,-17,-101,23,-110,-8,-78,-23,33,-96,27, 
  /* [25][0][][] */ -76,-59,-36,-1,127,-48,-80,58,34,-89,-29,13,56,-7,-74,-14,-56,46,33,-112,50,86,-2,-38,33,-19,-70,51,79,-87,37,103,65,-105,72,56,102,-62,-16,-18,-81,83,-86,16,77,29,47,31,-102,78,-65,-3,47,-28,-39,17,-32,35,-83,72,91,63,38,45,-1,70,-2,-12,-83,7,-23,-108,35,-88,62,32,74,72,17,0,37,45,-45,65,-63,-45,-91,-70,-25,-40,80,15,-105,-18,-31,-34, 
  /* [26][0][][] */ 47,-116,-37,-20,-86,-17,-18,-25,-103,-127,95,71,-34,-49,-3,-15,106,28,-88,-31,13,61,91,6,32,44,6,35,8,65,-97,1,-18,-64,-93,-83,-69,75,-67,100,-101,92,50,24,-82,71,-46,95,-22,34,9,98,7,-51,-14,-114,103,71,61,21,9,-102,59,-24,109,-21,-63,47,-81,78,89,90,75,-104,-84,1,61,-110,-100,22,-28,79,77,-71,72,-4,-46,15,-81,107,5,56,-56,115,75,95, 
  /* [27][0][][] */ 14,-3,-65,-105,-44,-33,-74,-11,33,83,32,-127,-24,51,80,-33,66,-29,79,-85,-97,7,-32,-22,-93,52,-118,-3,64,29,-33,-21,56,63,-74,-90,-81,-68,-110,81,-99,5,18,19,92,20,63,102,84,83,55,-83,-68,-91,-10,-26,98,-32,-58,-82,-57,-60,-34,50,37,-51,-115,99,56,3,-117,-4,56,-44,-4,-92,43,-68,82,89,78,-25,123,-61,-78,-88,-39,21,-51,-7,-55,-55,49,25,86,53, 
  /* [28][0][][] */ 72,-8,93,43,-103,-7,-76,-45,-30,-86,53,127,-80,-90,29,92,87,89,27,88,-36,30,-91,-60,-78,104,-51,11,23,11,-4,-11,-90,14,60,51,22,-94,70,25,86,29,-77,44,-94,-15,9,46,19,35,-39,-25,-28,21,115,49,37,-15,103,47,-28,-8,-69,4,62,67,-5,69,32,24,-93,-49,60,125,7,-77,-57,-53,-70,33,-67,-89,97,-31,58,-107,56,-61,-99,-53,18,-29,-39,102,5,-30, 
  /* [29][0][][] */ 58,54,85,-46,-41,14,-115,19,107,-14,-85,-109,90,-107,-38,-38,-100,104,36,-90,-86,-26,62,9,8,21,-38,-8,-94,-4,118,2,56,5,-71,-54,-3,104,0,104,48,109,-36,91,11,116,-59,-22,21,-3,59,-110,80,-102,120,56,-103,50,-50,118,-127,115,-112,-40,-72,-62,63,97,116,-74,26,-79,113,104,55,38,125,-58,-25,32,-5,-66,-15,-72,72,118,48,86,-44,101,72,79,-96,9,-5,76, 
  /* [30][0][][] */ 24,-75,-73,30,-102,20,-75,-21,112,-20,-8,-45,-104,16,51,11,-12,31,94,-111,41,-112,-124,6,-118,17,-79,113,-17,-112,-101,2,-87,-79,-125,-62,9,-25,-8,20,85,-82,-21,94,98,-49,100,54,-76,76,17,-108,96,-57,-19,97,-83,-57,-84,-58,-109,-11,-79,-31,-112,-97,-106,90,-67,106,48,-37,-93,101,35,-96,-61,-80,-85,-67,23,27,-110,-23,-118,23,-114,109,-41,-127,74,56,-36,-11,5,-78, 
  /* [31][0][][] */ 78,-66,108,108,104,74,-23,5,-14,2,-22,-93,49,-92,17,127,-32,-70,68,-7,22,68,7,111,118,-47,43,80,-27,-59,80,103,18,43,-36,7,114,-15,-2,-65,55,-51,18,75,34,-4,-23,37,66,20,65,-38,-68,-22,-43,26,-103,38,71,118,-65,56,53,-31,75,115,7,-46,87,-52,-107,-15,-67,-6,6,57,-15,-3,62,74,-61,19,18,79,75,83,-59,40,-8,-23,-53,-63,16,72,8,29, 
};
const TfArray<4, int> tensor_dimension4 = { 4, { 32,1,1,96 } };
const TfArray<32, float> quant4_scale = { 32, { 0.0020928024314343929, 0.0017761155031621456, 0.001804937026463449, 0.0019570961594581604, 0.0018354011699557304, 0.0019001071341335773, 0.0019862689077854156, 0.0019236179068684578, 0.0023171082139015198, 0.0021648132242262363, 0.0018761707469820976, 0.002204178599640727, 0.0019603148102760315, 0.0018543376354500651, 0.0019909213297069073, 0.001829920569434762, 0.0018715289188548923, 0.0017996759852394462, 0.0028848275542259216, 0.0017713219858705997, 0.001714802929200232, 0.0017676717834547162, 0.0017944029532372952, 0.0017197967972606421, 0.0017836233600974083, 0.0020984774455428123, 0.0018782590050250292, 0.0018358353991061449, 0.0021414083894342184, 0.0017701624892652035, 0.0017656080890446901, 0.0023404620587825775, } };
const TfLiteAffineQuantization quant4 = { (TfLiteFloatArray*)&quant4_scale, (TfLiteIntArray*)&g0::quant3_zero, 0 };
const MODEL_SECTION(EI_MODEL_SECTION) ALIGN(16) int32_t tensor_data5[96] = { -1839, 2971, 14218, 2190, -3224, -2852, 15830, 2261, 2385, -1322, 9553, -189, -8626, 2083, 12847, 7631, 12964, 5340, -4368, -4193, 4208, 23312, 19125, 12030, 1470, 1148, 4692, 3839, 1969, -4746, 6366, -2189, -246, 5249, 15, 711, 8877, 4379, -1703, 3944, 7606, 4478, 4554, 11713, 3759, 3903, 1947, 7969, 5522, -4615, -6320, 271, -234, -1527, 1850, -10, 248, -936, -4801, 12546, -860, 1244, -1060, -1957, -3946, 6633, 20428, 1553, -2354, 690, 1129, 2153, 1833, -1040, 623, 10965, -448, 16106, 13663, -813, 7613, 1581, -711, 1363, 11439, 7358, 4184, 1246, 5611, 4878, -388, -6573, 562, -2247, -1545, -1702, };
const TfArray<1, int> tensor_dimension5 = { 1, { 96 } };
const TfArray<96, float> quant5_scale = { 96, { 0.0003420535649638623, 0.00053392892004922032, 0.0001692859223112464, 0.0004125137347728014, 0.00031376903643831611, 0.00051883474225178361, 0.0002101050631608814, 0.00032141324481926858, 0.0002558122796472162, 0.00044954632176086307, 0.0002071320777758956, 0.00029766830266453326, 0.00029401812935248017, 0.0013333398383110762, 0.0002415989147266373, 0.00015364449063781649, 0.00014295743312686682, 0.00027080203290097415, 0.00043978105532005429, 0.00039341871161013842, 0.00014575118257198483, 0.00011677244765451178, 0.00016099307686090469, 0.00013794451660942286, 0.00015480142610613257, 0.00041643262375146151, 0.00063870078884065151, 0.00028261964325793087, 0.00025135831674560905, 0.00041722992318682373, 0.00023436632181983441, 0.00035144085995852947, 0.00020162998407613486, 0.00021992682013660669, 0.00042037232196889818, 0.00031779232085682452, 0.00021406343148555607, 0.00024835768272168934, 0.00032749157981015742, 0.00045036483788862824, 0.0001642409770283848, 0.00057879026280716062, 0.00033477332908660173, 0.00019890701514668763, 0.00051235966384410858, 0.00026346280355937779, 0.00026018585776910186, 0.00025953113799914718, 0.00024832136114127934, 0.00028426272911019623, 0.00025314261438325047, 0.00027379198581911623, 0.00067034317180514336, 0.00021199432376306504, 0.00042719501652754843, 0.00038288664654828608, 0.00041758350562304258, 0.00029827834805473685, 0.00031795084942132235, 0.00014735337754245847, 0.00087880971841514111, 0.00053452083375304937, 0.00023695104755461216, 0.00041112865437753499, 0.00047353023546747863, 0.00029454691684804857, 0.00010773719259304926, 0.00025364014436490834, 0.00047948982683010399, 0.00047394723515026271, 0.00034536782186478376, 0.00023204306489787996, 0.00073290476575493813, 0.00039605615893378854, 0.00029257981805130839, 0.00019749607599806041, 0.00034471121034584939, 0.00011618006828939542, 0.00013337744167074561, 0.00024045903410296887, 0.00019163609249517322, 0.00019923594663850963, 0.00013776672130916268, 0.00018880674906540662, 0.00016086758114397526, 0.0003209504357073456, 0.00055680604418739676, 0.00022182933753356338, 0.00012620777124539018, 0.00042264320654794574, 0.00027311916346661747, 0.00029690831433981657, 0.00035742565523833036, 0.00046370946802198887, 0.00041066249832510948, 0.0002307736431248486, } };
const TfArray<96, int> quant5_zero = { 96, { 0,0,0,0,0,0,0,0,0,0,0,0,0,0,0,0,0,0,0,0,0,0,0,0,0,0,0,0,0,0,0,0,0,0,0,0,0,0,0,0,0,0,0,0,0,0,0,0,0,0,0,0,0,0,0,0,0,0,0,0,0,0,0,0,0,0,0,0,0,0,0,0,0,0,0,0,0,0,0,0,0,0,0,0,0,0,0,0,0,0,0,0,0,0,0,0 } };
const TfLiteAffineQuantization quant5 = { (TfLiteFloatArray*)&quant5_scale, (TfLiteIntArray*)&quant5_zero, 0 };
const MODEL_SECTION(EI_MODEL_SECTION) ALIGN(16) int8_t tensor_data6[96*1*1*16] = { 
  /* [0][0][][] */ -15,103,-17,-127,-48,-29,-24,-81,-42,18,-5,63,12,-68,-25,61, 
  /* [1][0][][] */ -10,10,-54,-14,-43,-32,19,-72,43,44,-82,32,2,-3,40,-127, 
  /* [2][0][][] */ -12,32,-47,49,59,21,-70,-63,127,-59,-5,-13,-3,106,-82,54, 
  /* [3][0][][] */ 23,-66,-13,-102,11,-24,-11,-13,115,-27,91,45,9,39,15,127, 
  /* [4][0][][] */ -115,40,18,66,-3,-50,5,77,-7,44,-10,-8,-127,-22,-16,47, 
  /* [5][0][][] */ 35,46,115,8,6,71,-88,70,-69,64,-54,-5,18,-41,-127,49, 
  /* [6][0][][] */ 60,-65,104,-127,24,-7,-43,91,-86,-92,33,-12,-12,79,-19,62, 
  /* [7][0][][] */ 42,123,-24,-42,98,14,-11,-51,127,84,-27,34,14,-12,38,34, 
  /* [8][0][][] */ 22,-85,7,-94,14,-62,17,-65,13,69,58,-7,14,127,82,53, 
  /* [9][0][][] */ 24,-23,-11,127,38,-8,32,-46,-57,108,41,-22,-19,-52,-22,-9, 
  /* [10][0][][] */ -25,32,-51,-127,16,-11,-12,42,24,-27,15,-50,1,-44,-11,43, 
  /* [11][0][][] */ 18,-8,17,-27,71,-33,96,-53,-101,48,-19,68,-13,127,-65,-51, 
  /* [12][0][][] */ 74,4,-127,-39,26,-55,18,10,-4,31,-68,-63,-74,104,2,47, 
  /* [13][0][][] */ -9,0,-13,5,1,-127,-10,19,-3,-9,0,14,10,-9,14,9, 
  /* [14][0][][] */ 14,-18,102,-16,74,34,-127,-110,10,-60,64,38,10,-71,-24,-34, 
  /* [15][0][][] */ -108,30,2,-41,36,26,127,32,-21,30,103,-60,7,70,35,35, 
  /* [16][0][][] */ 27,59,123,75,-8,-3,113,88,-127,47,-98,-49,72,-5,23,-68, 
  /* [17][0][][] */ -30,-87,-15,23,-65,-30,-47,23,-127,-19,2,-58,2,33,47,-31, 
  /* [18][0][][] */ 14,41,-22,86,49,3,25,-6,84,51,-29,-39,20,127,56,27, 
  /* [19][0][][] */ 30,-6,10,-13,69,-15,-81,-25,-124,-64,-56,-127,-46,-53,7,-4, 
  /* [20][0][][] */ 81,-17,-49,-48,0,-88,29,50,-99,53,-127,-36,13,-5,9,-10, 
  /* [21][0][][] */ 21,5,55,0,23,19,-6,67,37,-100,127,-8,-7,113,-4,95, 
  /* [22][0][][] */ 11,62,-56,127,-64,-10,93,74,-49,36,-38,11,-16,4,11,31, 
  /* [23][0][][] */ 54,30,44,-82,45,-14,24,49,-21,41,-23,-63,8,-40,-127,20, 
  /* [24][0][][] */ -127,37,7,-22,9,100,17,-34,-7,12,93,-13,-93,16,54,-24, 
  /* [25][0][][] */ 34,34,17,15,10,1,61,-47,-16,-127,-24,-32,-11,-38,2,30, 
  /* [26][0][][] */ -41,6,-20,17,-47,-6,-37,-33,-109,-44,10,-45,9,127,-46,58, 
  /* [27][0][][] */ -1,28,16,60,36,-27,-13,-28,52,9,-27,4,3,127,-9,9, 
  /* [28][0][][] */ 6,58,62,68,127,17,49,35,-64,-19,-24,-9,16,91,46,-50, 
  /* [29][0][][] */ 10,12,20,9,33,-6,-3,32,-25,-27,-20,-127,-8,1,-32,0, 
  /* [30][0][][] */ -31,76,-46,75,-31,-12,32,-127,-25,42,-1,-1,50,38,72,89, 
  /* [31][0][][] */ -43,-32,-8,-60,-3,11,-31,-101,27,66,3,-127,-39,-36,15,7, 
  /* [32][0][][] */ -115,-90,1,55,40,24,-16,17,-19,-33,-127,65,70,1,69,62, 
  /* [33][0][][] */ 9,-42,-40,-14,-113,-21,-92,5,53,25,-2,-45,26,-127,124,40, 
  /* [34][0][][] */ 60,7,65,20,40,12,-43,83,-88,-43,57,1,13,-12,-18,127, 
  /* [35][0][][] */ -39,56,-78,16,-2,-22,57,-109,78,95,-84,-15,16,-13,77,-127, 
  /* [36][0][][] */ 10,32,30,108,25,26,127,21,-24,47,-42,6,-12,17,-62,-42, 
  /* [37][0][][] */ 35,-14,21,-79,-11,-9,-41,-54,-90,-19,-11,11,-23,-127,53,-34, 
  /* [38][0][][] */ 46,111,-31,-42,127,2,35,-59,108,76,-11,-6,11,-33,43,6, 
  /* [39][0][][] */ -33,77,-15,-127,-13,-1,-46,40,32,-65,-30,-34,20,67,39,44, 
  /* [40][0][][] */ 6,-28,12,-94,12,-14,-1,-40,-127,8,-32,-29,-13,-109,59,-68, 
  /* [41][0][][] */ 9,-19,-35,-22,-4,-32,13,-9,-38,15,-55,-1,-127,1,27,32, 
  /* [42][0][][] */ 122,127,-30,-16,-70,-57,-32,-65,19,16,113,-74,-69,53,96,-107, 
  /* [43][0][][] */ -89,127,-82,9,86,-19,101,-42,78,90,-30,-36,42,-110,-89,-53, 
  /* [44][0][][] */ -51,-15,15,-60,62,-4,-117,-127,-15,22,9,-6,13,-44,84,-59, 
  /* [45][0][][] */ -43,40,-127,-25,35,-87,7,-90,21,13,12,-84,23,13,41,-6, 
  /* [46][0][][] */ 5,12,-25,-76,-9,5,31,-22,-127,-9,3,-6,2,-126,59,-28, 
  /* [47][0][][] */ 35,45,28,-18,127,-20,-27,25,-58,50,-14,34,12,10,115,-40, 
  /* [48][0][][] */ -127,-101,-14,33,56,26,7,-17,1,-29,-118,75,55,12,112,52, 
  /* [49][0][][] */ -10,6,84,72,127,5,33,33,-94,-42,-20,-85,17,101,16,-54, 
  /* [50][0][][] */ 28,-26,-85,-4,30,-127,-48,-11,0,-33,11,-22,42,-5,-13,17, 
  /* [51][0][][] */ 28,29,30,-2,9,-15,15,35,-127,63,-17,-96,28,-102,-17,64, 
  /* [52][0][][] */ -9,58,-20,58,55,12,25,19,74,71,-15,-51,29,127,57,14, 
  /* [53][0][][] */ 13,-51,-19,-21,-104,-12,-86,1,37,22,9,-53,16,-127,118,26, 
  /* [54][0][][] */ 44,1,-27,15,124,66,-127,-39,-56,-10,-21,-89,-6,-20,-11,-35, 
  /* [55][0][][] */ 34,-5,1,11,35,-24,-66,-127,-16,-76,-37,24,2,-13,25,-7, 
  /* [56][0][][] */ -4,7,17,-26,-14,-38,-89,67,-22,127,-17,-9,28,3,0,2, 
  /* [57][0][][] */ 3,34,-47,-8,-36,-42,127,79,-28,33,-14,-24,26,27,99,-4, 
  /* [58][0][][] */ 51,35,-127,56,99,105,-30,55,-103,-40,9,22,-39,40,0,-3, 
  /* [59][0][][] */ -86,63,114,15,-83,-63,124,127,17,1,25,-3,6,11,81,-6, 
  /* [60][0][][] */ 17,14,-50,-4,16,-127,-10,20,-32,-9,-24,-40,38,-19,-4,-6, 
  /* [61][0][][] */ 7,3,8,127,77,29,15,0,-73,-12,27,25,-20,20,20,-34, 
  /* [62][0][][] */ -24,127,13,-67,-51,-32,-65,77,-50,-75,-118,-62,6,-114,-61,-19, 
  /* [63][0][][] */ -40,29,-20,127,-71,11,-70,-40,-61,-37,-25,-38,19,74,29,43, 
  /* [64][0][][] */ 0,7,1,46,10,24,-2,77,26,-3,-13,-58,-6,-127,49,-12, 
  /* [65][0][][] */ -23,-14,-3,-90,54,-9,73,-33,5,46,23,-127,-2,-6,-5,-49, 
  /* [66][0][][] */ -8,-30,59,-14,17,34,-21,86,79,-127,114,95,-24,124,26,73, 
  /* [67][0][][] */ 0,70,-22,-127,-1,2,-67,29,95,-106,-21,-18,24,97,67,69, 
  /* [68][0][][] */ -33,27,127,8,16,-2,0,10,-33,-4,-19,-37,27,-17,76,-40, 
  /* [69][0][][] */ 127,96,-9,6,-83,-38,-32,-27,4,25,95,-62,-57,54,60,-93, 
  /* [70][0][][] */ 34,20,-64,-16,-20,14,56,127,-47,86,-41,-23,22,63,-26,27, 
  /* [71][0][][] */ 13,-18,-1,-1,-6,-76,-1,19,-40,22,-87,21,-127,-7,51,40, 
  /* [72][0][][] */ 32,26,-127,3,11,13,32,92,-64,-30,-3,-18,25,2,-11,15, 
  /* [73][0][][] */ -43,29,47,3,51,-46,-89,-127,9,-73,21,-25,10,-40,27,-10, 
  /* [74][0][][] */ 13,15,36,116,2,-20,-83,89,-91,24,-71,46,22,-127,43,-94, 
  /* [75][0][][] */ 9,16,-44,5,9,-6,21,-16,105,25,-18,12,-8,127,-41,-6, 
  /* [76][0][][] */ -7,-12,5,27,8,-7,-6,54,25,-29,-9,-127,-8,0,8,2, 
  /* [77][0][][] */ 22,22,-18,127,-68,10,89,118,-11,51,-30,44,-22,-22,-12,-7, 
  /* [78][0][][] */ 41,-2,33,-127,29,-43,-31,49,-1,-43,-16,-21,19,105,25,45, 
  /* [79][0][][] */ -5,-88,-78,-67,-76,-7,30,-79,127,23,32,52,9,50,42,-45, 
  /* [80][0][][] */ -9,29,91,-77,17,-62,40,-65,-98,79,-85,-127,43,90,53,-34, 
  /* [81][0][][] */ -35,44,-127,17,63,-122,-15,55,-7,-46,58,-2,27,-10,13,-6, 
  /* [82][0][][] */ 127,-7,-4,21,22,-123,-30,16,-12,-19,-102,-7,109,17,-9,36, 
  /* [83][0][][] */ -57,63,-116,-83,-35,-31,40,-127,55,48,-55,-124,7,65,43,110, 
  /* [84][0][][] */ -43,42,65,-33,-2,-4,75,-127,-4,56,14,-54,46,48,73,-9, 
  /* [85][0][][] */ -67,127,35,-126,-78,-31,-11,5,-67,9,-92,20,6,-8,-92,-31, 
  /* [86][0][][] */ -12,12,-42,2,-27,-42,127,23,-5,-20,-3,-10,15,35,77,-17, 
  /* [87][0][][] */ -30,-36,14,-110,17,-27,48,-19,8,13,-3,-127,-25,14,7,-37, 
  /* [88][0][][] */ 88,-4,25,-23,27,-117,9,27,-72,30,-127,-59,14,20,57,14, 
  /* [89][0][][] */ 30,-36,-43,-63,17,-7,-26,-13,-45,1,38,-46,127,-14,45,-60, 
  /* [90][0][][] */ -3,-62,39,-55,50,3,-49,86,58,-87,-33,4,-22,116,21,-127, 
  /* [91][0][][] */ -23,-13,-9,-50,18,-47,-44,-80,-5,63,-37,-127,-33,-8,1,23, 
  /* [92][0][][] */ -36,26,44,21,5,-127,12,2,8,-20,6,-17,12,-20,19,9, 
  /* [93][0][][] */ 34,-46,127,-18,-63,59,22,-31,-19,23,-81,5,-28,6,35,-4, 
  /* [94][0][][] */ 16,-6,-3,-16,36,-3,-6,-4,-34,-10,17,-63,127,-11,22,-42, 
  /* [95][0][][] */ 127,102,8,37,-80,-10,-54,-2,-32,-9,76,-56,-34,31,70,-73, 
};
const TfArray<4, int> tensor_dimension6 = { 4, { 96,1,1,16 } };
const TfArray<96, float> quant6_scale = { 96, { 0.00091604975750669837, 0.0014299090253189206, 0.00045336270704865456, 0.0011047483421862125, 0.00084030133439227939, 0.0013894854346290231, 0.00056268001208081841, 0.00086077314335852861, 0.00068508798722177744, 0.0012039248831570148, 0.00055471807718276978, 0.00079718208871781826, 0.00078740663593634963, 0.0035708022769540548, 0.00064702332019805908, 0.00041147356387227774, 0.00038285268237814307, 0.00072523189010098577, 0.0011777726467698812, 0.0010536102345213294, 0.0003903346078004688, 0.00031272697378881276, 0.00043115374865010381, 0.00036942763836123049, 0.00041457195766270161, 0.0011152435326948762, 0.0017104974249377847, 0.00075688044307753444, 0.00067315989872440696, 0.001117378706112504, 0.00062765378970652819, 0.00094118976267054677, 0.00053998298244550824, 0.00058898353017866611, 0.0011257943697273731, 0.00085107603808864951, 0.00057328084949404001, 0.00066512392368167639, 0.00087705149780958891, 0.001206116983667016, 0.00043985189404338598, 0.0015500516165047884, 0.00089655269403010607, 0.00053269061027094722, 0.0013721446739509702, 0.0007055767928250134, 0.00069680082378908992, 0.00069504743441939354, 0.00066502665868028998, 0.00076128082582727075, 0.00067793834023177624, 0.00073323922697454691, 0.0017952384660020471, 0.00056773959659039974, 0.001144066103734076, 0.0010254044318571687, 0.0011183256283402443, 0.00079881586134433746, 0.00085150060476735234, 0.00039462541462853551, 0.0023535303771495819, 0.001431494252756238, 0.00063457590295001864, 0.0011010390007868409, 0.0012681559892371297, 0.00078882277011871338, 0.00028852975810877979, 0.00067927083000540733, 0.0012841162970289588, 0.0012692727614194155, 0.00092492566909641027, 0.00062143191462382674, 0.0019627839792519808, 0.001060673501342535, 0.00078355468576774001, 0.00052891200175508857, 0.00092316721566021442, 0.0003111405239906162, 0.00035719663719646633, 0.00064397061942145228, 0.00051321845967322588, 0.00053357152501121163, 0.00036895149969495833, 0.00050564121920615435, 0.00043081765761598945, 0.00085953372763469815, 0.001491175964474678, 0.00059407862136140466, 0.00033799561788327992, 0.001131876022554934, 0.00073143735062330961, 0.00079514679964631796, 0.0009572175913490355, 0.0012418550904840231, 0.0010997905628755689, 0.00061803229618817568, } };
const TfLiteAffineQuantization quant6 = { (TfLiteFloatArray*)&quant6_scale, (TfLiteIntArray*)&g0::quant5_zero, 0 };
const MODEL_SECTION(EI_MODEL_SECTION) ALIGN(16) int32_t tensor_data7[16] = { -9139, 15546, -38890, -10949, -17718, 1022, 17913, -48880, -11360, 24894, 17201, 16690, -5965, 11892, -12144, 11393, };
const TfArray<1, int> tensor_dimension7 = { 1, { 16 } };
const TfArray<16, float> quant7_scale = { 16, { 0.00064586993539705873, 0.00045862729893997312, 0.00022102998627815396, 0.00023404305102303624, 0.00044749266817234457, 0.00034316862002015114, 0.000392072310205549, 0.00027300481451675296, 0.00031538764596916735, 0.00025824931799434125, 0.00068092608125880361, 0.00064187066163867712, 0.00053758209105581045, 0.00025861183530651033, 0.00054439401719719172, 0.00050222495337948203, } };
const TfArray<16, int> quant7_zero = { 16, { 0,0,0,0,0,0,0,0,0,0,0,0,0,0,0,0 } };
const TfLiteAffineQuantization quant7 = { (TfLiteFloatArray*)&quant7_scale, (TfLiteIntArray*)&quant7_zero, 0 };
const MODEL_SECTION(EI_MODEL_SECTION) ALIGN(16) int8_t tensor_data8[16*1*1*96] = { 
  /* [0][0][][] */ -12,-13,-1,-33,18,-12,-37,-1,25,9,-4,-8,-10,-4,-28,10,3,10,-11,-7,13,-19,-3,2,10,11,2,127,33,-29,35,-11,3,5,6,1,-1,21,-42,-4,-9,17,5,30,3,23,19,-5,29,1,-5,2,11,-17,-5,73,11,9,-25,-32,-3,26,-1,-32,-43,-60,-16,42,9,1,12,-23,-25,-41,-19,-23,-18,14,-6,9,-15,-21,18,20,-5,-19,-13,-97,18,-4,-3,1,44,-24,-29,-10, 
  /* [1][0][][] */ 47,-69,-94,-53,121,-10,79,39,5,-102,-39,-30,6,-24,-61,50,-58,21,33,63,12,68,-14,-60,7,-20,-19,-74,43,-4,-68,51,-33,53,20,-22,21,-15,81,33,-8,71,-39,-35,-46,100,26,-21,34,-95,18,-51,-29,44,60,5,-33,-15,-27,-40,45,-16,-3,-53,-84,105,14,-16,-17,-50,-17,17,30,-111,-47,6,69,-81,42,15,-32,-13,17,-5,-66,-12,-21,30,46,-9,-16,8,27,7,42,127, 
  /* [2][0][][] */ -12,63,-58,-7,91,97,38,63,-41,-110,-11,-3,-6,4,41,30,28,-8,-44,53,-14,-58,80,19,60,16,11,4,54,-15,85,-66,35,41,-11,74,-127,-75,30,54,40,-73,34,28,28,-49,-4,110,-26,48,-22,21,95,9,-26,105,23,13,14,-21,34,22,37,-4,41,-18,-31,-17,-46,4,2,-46,-5,-62,33,73,44,63,44,1,54,-61,-7,-10,-1,62,52,75,-33,-8,37,-29,13,-38,-74,-10, 
  /* [3][0][][] */ 31,37,81,-18,25,-24,29,-11,-22,-87,6,-38,19,45,48,108,13,-2,12,-8,127,-10,35,31,67,-37,-11,43,60,31,1,68,-77,28,26,7,-28,-28,50,82,-25,-18,71,27,12,23,-20,-64,-46,-35,-38,52,4,-96,-3,26,-106,71,50,26,13,87,-19,-31,34,73,-11,-44,55,-20,2,-63,58,-18,68,-17,-1,2,41,40,-26,-72,20,-24,-6,17,28,59,26,44,34,40,28,85,35,-33, 
  /* [4][0][][] */ 8,-10,-3,-9,127,47,3,-38,-32,-84,-38,-30,-54,17,7,74,31,-77,-56,70,-37,5,37,-17,10,-34,9,-16,38,0,75,-21,99,16,-15,27,53,11,92,47,5,33,-15,-16,-13,-68,1,0,45,6,-28,17,4,-1,-3,-30,37,-14,-29,8,16,51,48,40,56,56,-4,-13,-43,-14,52,61,47,-58,-23,-14,36,44,90,-38,-26,-46,-3,-31,-60,-2,74,81,-40,41,19,-35,18,16,31,-17, 
  /* [5][0][][] */ -7,-10,-19,13,17,-12,49,-31,-23,-51,-6,9,-1,23,16,20,-3,0,4,-7,19,-9,-41,60,13,-18,17,-63,15,27,27,21,-8,10,6,-28,21,19,31,26,17,1,31,-11,-6,5,12,1,-8,-8,-3,-4,-8,-2,-10,-41,-3,6,-12,13,62,15,-10,34,7,56,7,57,13,71,18,16,34,17,4,54,-21,-5,23,3,-8,-13,-2,8,1,5,11,127,-3,29,30,-5,11,24,-51,3, 
  /* [6][0][][] */ 21,-61,6,-47,-19,1,40,24,23,-3,-4,-75,-20,1,-8,21,5,7,-25,14,-48,42,6,19,-21,2,-9,-12,-22,24,51,8,54,15,64,-19,11,-9,66,-78,-9,70,14,-37,9,-13,-21,3,-12,26,-25,78,-29,-45,-17,-21,21,-66,4,5,-16,67,23,-74,49,-16,18,-22,3,-19,127,-2,-34,0,-30,27,-48,-4,32,1,36,47,14,-5,-41,1,31,30,17,20,47,-36,-3,-14,-32,-8, 
  /* [7][0][][] */ 28,127,61,12,124,42,35,-20,-26,0,35,-34,-14,27,9,15,12,-35,14,43,42,-17,32,13,-9,35,21,-14,-11,-28,8,5,44,-10,-36,-8,25,15,-71,56,-78,12,6,14,-9,-17,10,-25,-36,-29,43,4,9,-68,-28,46,44,16,-26,11,-17,-30,4,-18,-64,70,-37,-84,-4,-24,-7,73,-52,-41,-26,5,48,67,22,-6,-35,-30,-2,17,-17,66,-45,-29,-27,19,-62,-47,-39,-29,29,6, 
  /* [8][0][][] */ -26,-12,54,12,-127,-26,73,-24,18,74,56,61,-22,16,54,22,-49,2,8,-24,-53,-51,-112,78,9,-55,62,25,34,-1,15,40,56,-25,2,26,-36,-31,37,59,16,-23,48,41,-49,-5,64,15,-94,17,-11,37,-56,-8,-40,78,-3,-64,-78,-44,15,-37,-33,6,14,79,-8,-63,13,-23,-22,-28,85,79,95,-13,-23,-46,-3,14,-103,-1,-29,-11,40,39,96,73,15,-40,68,58,-1,15,33,-4, 
  /* [9][0][][] */ 12,-99,17,19,80,82,-36,13,19,-9,64,90,-26,10,83,-93,11,-31,20,12,-48,-59,34,-14,-38,26,-22,16,-37,-7,-14,1,7,8,-112,34,11,33,-97,39,4,-104,-20,67,-1,-34,-105,-33,23,54,-11,-62,45,-18,-15,-33,-9,86,-30,-6,20,-47,-26,127,-104,-32,-22,-21,-18,24,-50,-50,7,5,4,18,38,-41,-5,-2,37,-16,26,43,5,-47,-26,-19,10,-63,-63,26,-56,-25,4,-32, 
  /* [10][0][][] */ -46,-28,-56,-46,-27,-3,74,-36,45,5,31,36,21,-9,8,9,-16,29,-45,-16,-16,29,17,26,3,-26,9,-107,40,-34,58,-25,5,32,4,1,4,24,62,15,32,-12,22,-50,9,3,40,8,2,23,-31,-22,-31,3,-6,-55,28,12,8,-45,26,4,-15,6,-28,90,-4,-26,17,-39,6,-30,-10,-7,21,51,14,33,-2,15,-51,-9,-5,14,4,-36,14,127,13,14,27,21,16,-26,43,-37, 
  /* [11][0][][] */ -102,26,10,-10,11,-70,-12,3,-74,-7,-23,31,38,34,-21,-11,32,-6,-53,-61,32,-39,-7,3,70,10,75,9,-25,5,-32,0,-12,18,-18,9,-19,7,-29,5,-24,-34,-6,26,85,11,59,44,33,54,-14,37,19,-59,16,13,-92,-17,-39,-44,-24,-6,5,30,-9,-29,8,-2,32,26,5,36,-12,14,38,-7,-51,92,-120,53,-7,-22,-60,-57,127,52,40,-15,-9,25,-12,-60,-28,48,-36,-14, 
  /* [12][0][][] */ 19,-18,-34,1,47,9,-16,-11,-13,16,14,-19,11,-26,23,5,-26,2,-3,-8,-16,-2,-29,32,-17,40,-15,88,-12,26,-26,15,-16,12,21,14,1,-6,24,2,-14,-12,0,8,-15,2,8,-14,1,-19,15,-17,-15,1,-18,-11,0,-6,5,8,-9,-13,-3,24,41,-73,31,45,-44,-127,3,41,-19,-2,5,71,3,-12,-13,1,-14,29,-28,0,13,-16,-4,-45,-4,12,-4,-4,-30,19,-9,31, 
  /* [13][0][][] */ -65,57,-13,-6,-55,-8,-12,-16,-39,-30,29,29,84,11,-4,24,-33,27,-49,-25,-4,-6,38,-59,57,28,-8,-14,35,-17,-32,-85,-67,-24,-8,-12,-5,24,56,-27,-25,94,17,20,32,2,-6,-6,56,-11,16,62,47,-37,51,-36,-38,32,34,6,16,20,-32,21,5,-9,6,5,6,8,24,-127,36,-10,-57,0,48,29,-56,-35,47,-27,-4,-48,60,-37,94,21,-19,1,12,37,46,-25,-15,6, 
  /* [14][0][][] */ -25,26,-6,-53,38,2,-25,45,-98,25,-1,21,-27,-46,-81,-39,-98,-21,62,25,13,9,5,-102,-32,36,-51,-13,7,-29,-16,-15,-58,-24,29,13,-24,-6,-23,-3,-2,77,-77,-14,-41,0,-17,9,127,-34,38,-8,37,47,-100,19,4,39,-106,18,-2,14,53,25,-10,22,-15,2,-61,36,44,21,21,-23,-12,25,53,-82,-34,-98,25,-37,18,17,43,-64,-37,-11,-42,6,19,56,4,22,13,-21, 
  /* [15][0][][] */ -25,-84,-18,-26,15,8,6,-84,-18,16,16,-21,42,-14,50,-2,-91,0,-17,4,-33,13,-69,-43,-18,-7,1,2,-26,-2,79,-102,-14,22,28,-5,-20,11,-73,-1,14,-40,-6,24,-32,-20,48,13,55,1,-13,-127,-16,59,-6,19,19,-15,-4,47,8,0,32,-15,10,2,12,-9,-14,17,11,31,-17,3,-17,-37,-26,-8,7,11,-42,45,-15,77,-1,-53,-19,-32,-32,65,32,83,-27,9,2,-14, 
};
const TfArray<4, int> tensor_dimension8 = { 4, { 16,1,1,96 } };
const TfArray<16, float> quant8_scale = { 16, { 0.0274494718760252, 0.019491659477353096, 0.0093937739729881287, 0.0099468296393752098, 0.019018437713384628, 0.01458466611802578, 0.016663072630763054, 0.011602704413235188, 0.01340397447347641, 0.010975595563650131, 0.028939357027411461, 0.027279503643512726, 0.022847238928079605, 0.010991002433001995, 0.023136746138334274, 0.021344559267163277, } };
const TfLiteAffineQuantization quant8 = { (TfLiteFloatArray*)&quant8_scale, (TfLiteIntArray*)&g0::quant7_zero, 0 };
const MODEL_SECTION(EI_MODEL_SECTION) ALIGN(16) int32_t tensor_data9[96] = { 26185, 62555, 345, -3407, 14636, -4729, -350, -965, 6557, 18603, -2520, -234, 662, 4698, 5655, -8795, -3832, -537, -936, 12592, -9358, 17394, -3483, 12402, 19018, -36, -7202, 18500, 15994, -19062, 1017, 22502, 22856, -10934, 2110, 477, -817, -618, 3345, -7868, -6277, -951, -9385, 364, 28499, -2917, 12395, -1365, -13844, 1061, -184, 155, -4730, 21005, -3971, 14187, 19615, -662, 35895, -838, -8138, -143, 254, -777, -1361, 9791, -1405, -4273, -3152, 4666, 597, -3912, 1554, -289, -3046, -5461, 23, -1399, 45121, -8711, -5850, -10696, 372, 1112, 60291, -11547, -14375, -27262, -6666, 9095, -2991, 43300, -505, -2574, -3146, 709, };
const TfArray<96, float> quant9_scale = { 96, { 8.7712774984538555e-05, 9.3002694484312087e-05, 0.00010545628902036697, 0.00022233593335840851, 0.00023776682792231441, 0.00017134047811850905, 3.5559172829380259e-05, 9.9669363407883793e-05, 0.00025073395227082074, 0.00014048244338482618, 0.00028148363344371319, 0.00012806762242689729, 0.00025317634572274983, 0.00022334301320370287, 0.00036896305391564965, 0.00017793786537367851, 0.0002312159922439605, 0.00019779281865339726, 0.00021645551896654069, 8.812898158794269e-05, 8.1279504229314625e-05, 4.9566489906283095e-05, 0.00015528826043009758, 6.3355757447425276e-05, 7.147090946091339e-05, 0.00010422038758406416, 0.00014722564083058387, 0.00016313942614942789, 7.9032659414224327e-05, 0.00046292119077406824, 0.00036753583117388189, 0.00024844365543685853, 0.00011106980673503131, 0.00014538397954311222, 0.00025154493050649762, 0.00047025561798363924, 0.0003677738131955266, 0.0001832216075854376, 0.00021752921747975051, 9.8705662821885198e-05, 0.00020480071543715894, 0.00024786009453237057, 0.00031369677162729204, 0.00015623611398041248, 0.00035841873614117503, 9.8670614534057677e-05, 0.00010240750998491421, 0.00029889150755479932, 0.0007406689110212028, 9.8307791631668806e-05, 0.00042684926302172244, 0.00016464274085592479, 0.000102713551314082, 0.00013051455607637763, 0.0002341587096452713, 0.0001326253404840827, 0.00014189041394274682, 0.00039849383756518364, 4.2556090193102136e-05, 0.00016265982412733138, 0.00029907884891144931, 0.0003003194578923285, 9.5279836386907846e-05, 0.00016034899454098195, 0.00012254268222022802, 0.00016716818208806217, 0.00028599484357982874, 0.00054136535618454218, 0.0002101671852869913, 9.7484255093149841e-05, 0.00018939505389425904, 0.00011068656021961942, 0.00023240626615006477, 0.00016402930486947298, 0.00023305052309297025, 0.00035071367165073752, 0.0001379044697387144, 8.2943130109924823e-05, 5.5467782658524811e-05, 0.0001472237054258585, 0.00026983817224390805, 0.00024187497911043465, 0.00017460605886299163, 0.00029587798053398728, 6.0029695305274799e-05, 0.00012108647933928296, 0.00010410181857878342, 0.00051685579819604754, 0.00023629436327610165, 0.00011532678036019206, 0.00034880868042819202, 2.4501337975380011e-05, 0.00013182559632696211, 0.00010858626774279401, 0.00029639367130585015, 0.00031334970844909549, } };
const TfLiteAffineQuantization quant9 = { (TfLiteFloatArray*)&quant9_scale, (TfLiteIntArray*)&g0::quant5_zero, 0 };
const MODEL_SECTION(EI_MODEL_SECTION) ALIGN(16) int8_t tensor_data10[1*3*3*96] = { 
  /* [0][0][][] */ -51,-72,-10,127,23,74,86,-59,-13,-19,-16,0,-28,1,35,3,-9,-42,27,20,22,-127,127,6,-86,4,50,-30,-127,-127,38,25,11,30,60,-17,-31,-9,30,-6,-12,28,-107,75,25,-64,41,45,-20,51,-21,19,4,-6,18,49,-95,-48,-61,-18,-11,-1,9,40,67,-26,76,15,-7,22,20,127,23,25,28,2,-11,19,127,-6,-14,15,-29,19,127,22,-67,-16,-6,-30,-13,-36,1,-26,-18,29, 127,-127,73,106,-42,127,50,-118,68,4,-19,127,127,-99,-14,17,10,127,127,-112,127,-60,80,70,-127,-113,-68,-34,-57,47,-59,-18,-85,59,-127,-85,-41,-14,-51,65,-2,127,127,81,-50,-107,-115,-50,-16,-127,46,84,73,-31,47,79,-49,44,-79,-110,-44,-44,-64,69,72,-61,26,32,-78,36,-18,89,118,127,23,17,-2,60,-33,51,67,127,127,-24,-6,70,-102,127,-127,-100,7,-127,-91,-127,-41,106, -79,-15,30,-78,15,-19,75,-6,80,-36,-28,23,-18,-2,-9,-10,-10,-17,9,-6,-17,-107,30,-2,-122,101,8,-54,116,50,-14,12,-2,17,14,-29,-7,32,21,14,24,14,-119,68,19,-17,38,15,-16,12,-13,6,-4,1,-4,21,-70,8,-37,52,-1,40,31,1,-7,-40,-33,26,8,6,-5,36,7,-23,-1,2,-12,-2,-90,1,-21,-28,-19,2,-111,6,-31,-23,-51,25,-23,-37,28,-28,-15,3, 
  /* [0][1][][] */ -65,-73,70,-30,-48,92,18,127,-52,-23,-2,-114,26,-113,77,27,-4,-59,-17,90,47,-70,47,50,-92,-10,127,-22,-26,62,123,-103,-127,95,-84,-56,-34,31,-28,95,-48,-25,-6,47,-47,127,-21,63,15,97,22,-3,13,-54,30,28,127,123,-70,-83,127,-34,-36,127,70,-37,-14,-1,127,42,127,96,-41,101,-1,10,14,12,-28,11,-46,124,-82,110,2,28,-46,32,75,-127,-30,-13,127,-68,-23,2, 68,127,56,-108,127,79,96,37,-127,127,127,-39,-66,-127,-127,127,127,-61,-122,-48,97,93,-121,127,-109,-84,-43,127,-127,108,-127,-127,-85,127,106,127,127,-127,-107,127,-63,-94,107,-127,-127,-32,-127,-127,127,-110,88,43,127,127,127,-127,101,-127,-127,127,18,-81,-127,-99,-127,127,-127,127,-121,-127,-106,-80,-127,-77,127,127,-127,127,-73,127,127,27,-45,-127,58,127,95,49,125,14,127,1,-68,34,127,-127, -55,-13,-47,41,-57,-89,51,-24,18,-41,-30,91,1,95,14,12,-6,65,-4,127,5,-86,-40,8,-78,118,-70,-18,-73,-17,20,-63,-72,38,6,-16,-27,41,-65,39,127,-3,-39,30,-38,-56,16,46,8,119,-6,6,-32,-71,3,18,96,1,0,24,-36,127,94,-50,-43,12,38,-12,-76,122,-19,-82,-3,-51,-16,-20,27,16,74,-36,-71,-45,57,13,-48,-19,68,23,18,64,-42,15,-41,92,-27,-2, 
  /* [0][2][][] */ -69,2,-6,-14,12,-37,84,28,52,-28,-39,-3,19,20,-27,-3,-10,62,8,3,-61,-83,4,-7,-27,-56,33,-65,89,37,25,25,17,-9,-11,-46,-7,32,1,2,-16,-5,-68,103,5,35,8,37,-14,-31,10,-21,28,1,10,9,-65,28,-18,11,15,-2,-22,-7,0,-43,-46,15,-28,16,24,29,12,-18,35,2,16,5,-75,-8,-8,-13,16,15,-126,4,23,-45,-58,-53,-27,-52,11,53,-19,-9, 125,34,-127,-28,-73,-20,61,35,-64,-29,-22,-106,-73,114,-14,41,-1,-47,-8,-124,80,-49,-34,3,-110,127,-52,24,-34,-23,-8,-9,-60,17,26,6,-22,-30,127,61,13,-14,67,-33,-36,78,-72,-40,-32,-5,-127,-127,-44,-24,4,34,-64,-6,7,38,-9,-21,11,-50,-53,37,66,-24,115,111,-25,-67,10,-54,12,2,98,5,50,25,14,-101,-51,2,1,10,127,40,-61,39,-19,-119,42,75,-12,28, -57,14,-18,30,14,-61,-127,7,-13,-11,-18,6,15,-23,18,2,-10,-11,7,18,-53,-70,16,-1,17,-95,21,6,-47,-41,-5,17,41,-23,-6,-24,-35,0,44,-39,27,-1,-49,-32,4,66,20,20,-9,-3,11,-9,26,7,-4,-10,-58,-13,1,-37,-14,8,86,-10,34,0,1,28,1,10,-6,20,-20,19,3,11,35,4,76,-12,7,-7,-9,-19,69,-4,45,-40,60,40,-17,-53,-6,-1,-16,-14, 
};
const TfArray<4, int> tensor_dimension10 = { 4, { 1,3,3,96 } };
const TfArray<96, float> quant10_scale = { 96, { 0.0037277927622199059, 0.0039526144973933697, 0.0044818921014666557, 0.0094492770731449127, 0.010105090215802193, 0.0072819702327251434, 0.0015112648252397776, 0.0042359479703009129, 0.010656192898750305, 0.0059705036692321301, 0.011963053606450558, 0.0054428735747933388, 0.010759994387626648, 0.0094920778647065163, 0.015680929645895958, 0.0075623588636517525, 0.0098266797140240669, 0.0084061948582530022, 0.0091993594542145729, 0.0037454816047102213, 0.0034543788060545921, 0.0021065757609903812, 0.0065997508354485035, 0.0026926195714622736, 0.0030375134665518999, 0.0044293664395809174, 0.0062570897862315178, 0.0069334255531430244, 0.0033588879741728306, 0.01967415027320385, 0.015620272606611252, 0.010558854788541794, 0.0047204666770994663, 0.0061788191087543964, 0.010690659284591675, 0.01998586393892765, 0.015630386769771576, 0.007786918431520462, 0.0092449914664030075, 0.0041949907317757607, 0.008704029954969883, 0.010534053668379784, 0.013332112692296505, 0.0066400347277522087, 0.015232795849442482, 0.0041935010813176632, 0.0043523190543055534, 0.012702888809144497, 0.031478427350521088, 0.0041780811734497547, 0.018141092732548714, 0.0069973166100680828, 0.0043653259053826332, 0.0055468683131039143, 0.0099517451599240303, 0.0056365770287811756, 0.0060303425416350365, 0.016935987398028374, 0.0018086337950080633, 0.0069130421616137028, 0.012710850685834885, 0.012763576582074165, 0.0040493928827345371, 0.006814831867814064, 0.0052080638706684113, 0.0071046473458409309, 0.012154780328273773, 0.02300802618265152, 0.008932105265557766, 0.0041430806741118431, 0.00804928969591856, 0.0047041787765920162, 0.0098772663623094559, 0.0069712451659142971, 0.0099046472460031509, 0.01490533072501421, 0.005860939621925354, 0.00352508295327425, 0.002357380697503686, 0.0062570073641836643, 0.011468122713267803, 0.010279686190187931, 0.007420757319778204, 0.012574813328683376, 0.0025512620341032743, 0.0051461751572787762, 0.004424327053129673, 0.021966369822621346, 0.010042509995400906, 0.004901388194411993, 0.014824368990957737, 0.0010413068812340498, 0.0056025879457592964, 0.0046149161644279957, 0.012596731074154377, 0.013317362405359745, } };
const TfLiteAffineQuantization quant10 = { (TfLiteFloatArray*)&quant10_scale, (TfLiteIntArray*)&g0::quant5_zero, 3 };
const MODEL_SECTION(EI_MODEL_SECTION) ALIGN(16) int32_t tensor_data11[96] = { 1379, 5564, 13030, 23842, 23455, -2984, -1873, 5645, 25070, -3506, 11520, 6415, 9122, 13365, 23947, 2103, 2499, 8379, 20887, 5829, -551, 591, 14162, -1390, 5844, 34, 11220, 10893, 7384, 33334, 51670, 17130, 7761, -779, 13604, 4064, 1614, 3244, 21914, -823, 11535, 7523, 45117, -3871, 28062, 8554, 6810, 16470, 51128, 11495, -514, 8529, -2271, -104, -3616, 7140, -402, 12649, 5057, 7954, 5028, 18948, 9203, 5493, 11837, 10117, 5450, -9082, 8403, -2507, 5500, 11849, 22704, 9943, -4035, -5955, 6513, 402, 2343, -1109, 14513, 16104, 5163, 19448, 3011, -124, 13186, 83530, 9311, 11864, 6107, -72, 8044, 6881, 3392, 15900, };
const TfArray<96, float> quant11_scale = { 96, { 0.00029033370083197951, 0.00026412031729705632, 0.00014168974303174764, 9.7294279839843512e-05, 0.00013049943663645536, 0.00034053708077408373, 0.00041223826701752841, 0.00028298445977270603, 9.1998335847165436e-05, 0.00036947679473087192, 0.00023501357645727694, 0.00014410015137400478, 0.0001333417312707752, 0.00017151629435829818, 9.9264878372196108e-05, 0.00027941877488046885, 0.00019891401461791247, 0.00014143569569569081, 0.00010790900705615059, 0.00020436452177818865, 0.00030147127108648419, 0.00044186395825818181, 0.0001416608429281041, 0.00048181615420617163, 0.00044407235691323876, 0.00027266345568932593, 0.00019913532014470547, 0.00013024666986893862, 0.0002273689751746133, 0.00010658371320459992, 5.4685664508724585e-05, 0.0001480342325521633, 0.00021157483570277691, 0.00028794884565286338, 0.00014852859021630138, 0.00013956717157270759, 0.00032738456502556801, 0.0004619545943569392, 0.00011631776578724384, 0.00072678003925830126, 0.00015841166896279901, 0.000209903868380934, 6.0318343457765877e-05, 0.00028038886375725269, 0.00011565621389308944, 0.00017805375682655722, 0.0002470794424880296, 0.00016185430285986513, 8.0748766777105629e-05, 0.00017933189519681036, 0.00024425407173112035, 0.00020065483113285154, 0.00043363767326809466, 0.00031138697522692382, 0.00028699074755422771, 0.00016141631931532174, 0.00021005398593842983, 0.00014817390183452517, 0.00040293793426826596, 0.00017901269893627614, 0.00032380843185819685, 7.6617572631221265e-05, 0.00016114705067593604, 0.00017904466949403286, 0.00020511158800218254, 0.00018843889120034873, 0.00023182603763416409, 0.00014133589866105467, 0.00020281782781239599, 0.00028090097475796938, 0.00020856330229435116, 0.00012958672596141696, 8.9874192781280726e-05, 0.00010333916725357994, 0.00040094600990414619, 0.00023180955031421036, 0.00025082289357669652, 0.00030008607427589595, 0.00032960873795673251, 0.00032748637022450566, 0.00013979806681163609, 0.00010207725426880643, 0.00017335308075416833, 0.00010106014087796211, 0.00038751857937313616, 0.00023726405925117433, 0.00017079914687201381, 4.5403532567434013e-05, 0.00015106839418876916, 0.00019144953694194555, 0.00020384590607136488, 0.00028103243676014245, 0.00018812435155268759, 0.00022988297860138118, 0.00033808598527684808, 0.00010859571921173483, } };
const TfLiteAffineQuantization quant11 = { (TfLiteFloatArray*)&quant11_scale, (TfLiteIntArray*)&g0::quant5_zero, 0 };
const MODEL_SECTION(EI_MODEL_SECTION) ALIGN(16) int8_t tensor_data12[96*1*1*16] = { 
  /* [0][0][][] */ 11,45,-16,50,30,-2,21,28,33,19,-35,127,32,-87,37,-75, 
  /* [1][0][][] */ 34,38,9,-18,36,-25,127,-99,-6,85,-13,-24,-13,-20,1,23, 
  /* [2][0][][] */ -95,42,-41,-21,43,4,0,26,-22,-37,127,-37,-56,-7,44,-25, 
  /* [3][0][][] */ -69,59,39,45,-34,8,24,106,-21,64,-127,13,30,-101,-63,-77, 
  /* [4][0][][] */ -2,-22,54,127,8,100,-12,19,52,-31,1,17,38,6,-121,-29, 
  /* [5][0][][] */ 11,-20,55,-31,9,-41,-30,7,-69,56,-21,-127,-1,34,-58,-5, 
  /* [6][0][][] */ -23,-11,44,-28,25,69,-32,-71,-17,9,87,-2,127,-18,3,-28, 
  /* [7][0][][] */ 50,-10,127,24,-54,-38,6,-45,-56,68,-104,-42,26,-26,52,-35, 
  /* [8][0][][] */ 58,14,76,10,-72,70,64,1,27,19,59,-127,-34,-40,-77,-98, 
  /* [9][0][][] */ -1,-127,38,62,15,-6,44,46,82,32,122,33,-4,9,-64,-36, 
  /* [10][0][][] */ -33,-83,19,-27,-91,-12,-33,49,85,127,31,-55,-17,50,88,-15, 
  /* [11][0][][] */ -4,-59,-1,-97,-2,25,-86,-127,-45,90,32,-48,48,-48,110,-94, 
  /* [12][0][][] */ -28,59,57,-34,-40,-41,-127,14,-58,-76,-59,25,1,120,71,23, 
  /* [13][0][][] */ -19,-81,-63,33,-15,-67,3,-1,39,21,1,1,51,-9,127,39, 
  /* [14][0][][] */ 11,-56,50,24,40,17,23,126,13,67,11,-29,34,38,-45,127, 
  /* [15][0][][] */ 11,-53,-8,77,11,-11,97,11,12,-127,7,-28,-6,-4,-1,-11, 
  /* [16][0][][] */ 21,-53,-43,31,16,13,35,-70,103,49,85,21,4,127,74,87, 
  /* [17][0][][] */ -102,-58,92,101,107,70,25,-10,127,-19,57,-51,3,15,-58,15, 
  /* [18][0][][] */ -6,38,-39,50,-125,-23,-11,47,-113,-4,-52,-94,34,-127,25,5, 
  /* [19][0][][] */ 35,-51,80,-44,56,-3,-106,115,82,-127,12,44,-16,69,-13,71, 
  /* [20][0][][] */ 28,7,64,-79,-16,42,-48,67,-19,-79,101,-47,5,-12,-51,127, 
  /* [21][0][][] */ -120,-12,-4,-45,-4,33,-119,-49,-23,63,3,32,-127,-37,18,-33, 
  /* [22][0][][] */ 23,-9,39,-38,14,-58,6,4,-127,16,-10,-68,-21,-21,76,-10, 
  /* [23][0][][] */ 2,-5,19,-11,9,0,-13,-6,3,-18,57,-23,127,7,6,-31, 
  /* [24][0][][] */ -54,15,2,-110,-15,-12,23,-6,-45,-5,-10,-127,-3,-84,51,-10, 
  /* [25][0][][] */ -31,49,12,-65,34,7,-99,-46,-85,-15,-89,-37,-60,-127,12,-94, 
  /* [26][0][][] */ 29,-2,48,-112,119,-31,2,17,127,-29,58,-24,28,56,-18,78, 
  /* [27][0][][] */ 127,-44,21,-18,-14,-47,-21,-49,-11,16,-127,28,12,-8,-5,54, 
  /* [28][0][][] */ -120,-74,-127,-70,56,-2,124,-54,-25,62,-51,-29,46,0,-65,52, 
  /* [29][0][][] */ -31,-11,10,127,2,35,22,-27,2,-11,-54,38,13,-50,13,-35, 
  /* [30][0][][] */ 77,0,125,-68,58,42,-47,94,-49,-78,64,-61,11,6,-94,127, 
  /* [31][0][][] */ 6,-71,7,-38,11,-44,19,-62,-14,29,116,31,-30,86,68,127, 
  /* [32][0][][] */ -1,53,-48,30,-127,10,-63,-26,-47,-18,-13,48,16,34,42,63, 
  /* [33][0][][] */ 39,-29,3,127,20,-8,7,-28,-87,39,50,6,-3,8,-1,93, 
  /* [34][0][][] */ 44,22,4,-11,60,-51,-127,-4,-64,95,-46,43,-37,-8,9,20, 
  /* [35][0][][] */ 79,28,-40,21,31,-127,-39,-25,-12,0,-113,20,85,44,-10,28, 
  /* [36][0][][] */ -4,-18,-127,2,43,13,-25,26,-35,-4,-11,4,19,5,-3,4, 
  /* [37][0][][] */ 9,-8,127,-15,-36,16,20,-48,-9,31,-40,16,20,4,17,0, 
  /* [38][0][][] */ -101,38,-28,51,33,106,22,-66,28,-24,127,-41,4,18,-30,-15, 
  /* [39][0][][] */ -37,4,24,34,23,-11,-127,39,12,40,15,-4,-8,-11,4,0, 
  /* [40][0][][] */ 69,27,-8,127,-9,8,57,54,-52,-33,-36,54,21,26,-36,15, 
  /* [41][0][][] */ 16,27,-31,-22,-37,7,127,77,-32,67,-19,-22,-3,59,4,4, 
  /* [42][0][][] */ -41,-57,-85,-39,2,0,-81,110,4,-127,119,36,-115,-26,-107,-25, 
  /* [43][0][][] */ -50,56,73,-54,19,41,-83,-60,-10,1,-47,-23,-127,3,25,4, 
  /* [44][0][][] */ 11,-11,-17,-2,-3,-25,12,-23,127,29,15,39,47,79,19,26, 
  /* [45][0][][] */ -88,-88,2,-95,53,17,-42,-7,26,-55,-7,-17,-8,123,-30,127, 
  /* [46][0][][] */ -41,13,-65,125,-88,-11,43,-73,-127,88,-65,-40,-17,29,-13,-28, 
  /* [47][0][][] */ -50,-11,-83,127,1,57,-11,-37,-1,65,72,113,-54,-17,31,4, 
  /* [48][0][][] */ 8,-1,37,-127,42,-14,-14,-10,-13,38,44,1,-24,81,74,34, 
  /* [49][0][][] */ -64,14,54,72,-6,-21,-89,-93,48,-46,-94,1,2,-36,-106,-127, 
  /* [50][0][][] */ 6,56,12,-127,62,30,-4,59,99,-20,-35,-14,-1,-58,-1,-25, 
  /* [51][0][][] */ -2,-32,-2,-4,64,5,-32,-127,36,-73,20,19,-21,-7,18,-3, 
  /* [52][0][][] */ 5,18,-32,21,10,-19,-59,73,-79,127,-43,-42,86,74,0,-41, 
  /* [53][0][][] */ -34,78,18,-71,-26,16,17,-32,-44,-50,-44,74,24,-127,-63,1, 
  /* [54][0][][] */ 4,-7,12,32,53,-38,0,-41,7,25,-20,-25,-4,127,-40,-1, 
  /* [55][0][][] */ -85,127,70,-17,14,-10,-5,22,-70,21,29,-11,1,-27,71,-17, 
  /* [56][0][][] */ 48,4,37,-87,65,-7,-12,105,39,-31,0,127,-36,28,44,50, 
  /* [57][0][][] */ -32,-34,20,68,-8,24,21,127,13,15,14,-13,-2,58,14,-11, 
  /* [58][0][][] */ 6,127,-9,-103,17,45,-14,20,106,-10,20,95,5,-79,39,39, 
  /* [59][0][][] */ 1,58,70,-117,-25,8,34,-5,23,41,13,-37,-38,-127,-89,-9, 
  /* [60][0][][] */ 41,8,67,-53,-32,127,35,-33,-18,15,-17,-39,41,4,43,-15, 
  /* [61][0][][] */ -4,60,-7,-26,-27,27,116,127,-38,77,21,18,4,80,2,-40, 
  /* [62][0][][] */ -1,9,3,9,-88,21,-63,-19,-54,-46,9,-62,19,-127,105,7, 
  /* [63][0][][] */ 1,-19,16,-91,48,14,-127,-88,-38,122,-7,10,63,2,20,-55, 
  /* [64][0][][] */ -41,-12,29,29,57,-44,-59,-127,34,-110,10,-18,-22,-21,15,-13, 
  /* [65][0][][] */ -127,39,24,-55,0,59,34,-29,-71,17,29,-6,-2,9,-20,-21, 
  /* [66][0][][] */ 103,28,69,27,-76,17,-69,21,-61,-33,108,-113,-3,25,-127,6, 
  /* [67][0][][] */ 29,-38,-28,80,55,-34,-81,-108,49,-127,-57,-25,-106,11,-75,10, 
  /* [68][0][][] */ -8,-75,-57,42,-63,-66,64,-58,-39,20,85,-36,-31,67,127,-39, 
  /* [69][0][][] */ -65,53,-92,39,-35,-127,-16,70,62,-5,29,41,114,47,-24,-24, 
  /* [70][0][][] */ 9,17,-55,-19,-66,17,127,77,-49,47,-56,-6,34,67,-4,0, 
  /* [71][0][][] */ 17,22,-32,-47,42,-20,20,66,-26,-75,-11,-23,28,-127,71,-15, 
  /* [72][0][][] */ 12,7,-4,27,15,-38,-43,-127,25,49,-45,25,12,63,70,44, 
  /* [73][0][][] */ -60,-127,-38,-76,-89,-30,3,-35,-27,28,-30,-21,27,-67,103,-34, 
  /* [74][0][][] */ -47,15,56,112,-32,2,-107,127,27,-14,-55,-32,15,-18,0,1, 
  /* [75][0][][] */ -78,7,-35,-9,-30,99,103,116,-17,63,7,-61,-127,86,3,4, 
  /* [76][0][][] */ 29,-19,-40,-52,41,-92,-127,-81,-49,-14,-8,-43,37,-19,35,-44, 
  /* [77][0][][] */ -40,16,-51,-29,-51,-12,-17,-42,127,-3,-40,-15,-5,44,39,-100, 
  /* [78][0][][] */ -50,-110,2,115,93,53,-13,21,-28,-73,-127,48,16,-5,66,67, 
  /* [79][0][][] */ 44,-8,42,-55,127,-1,34,8,70,9,13,34,-15,-18,8,-25, 
  /* [80][0][][] */ 11,-76,44,-95,20,-19,38,5,-76,-21,-26,-29,-9,127,-39,25, 
  /* [81][0][][] */ -20,-73,74,39,-22,67,-16,12,31,-4,-22,-40,-2,73,-127,18, 
  /* [82][0][][] */ -54,-37,33,-120,-17,-74,13,-74,-56,-68,-37,-127,-3,-109,-110,24, 
  /* [83][0][][] */ -19,-8,-44,-65,-33,30,-16,25,-94,-52,-1,-127,39,-84,-12,77, 
  /* [84][0][][] */ 127,14,13,59,-39,-31,-32,19,-31,-27,94,-34,-63,21,87,-73, 
  /* [85][0][][] */ -14,-21,-37,-42,16,-19,-64,86,-72,-127,-62,-22,-26,61,83,-121, 
  /* [86][0][][] */ -13,-16,51,-16,-37,83,-37,96,-127,-61,41,36,-37,-98,-23,2, 
  /* [87][0][][] */ 116,-36,-9,-35,-88,-52,-2,45,-21,14,-127,-19,57,-34,29,24, 
  /* [88][0][][] */ 47,65,-49,11,0,-43,-51,-44,75,52,-60,44,-25,-9,127,-78, 
  /* [89][0][][] */ 52,61,-65,1,-25,-17,56,-42,53,73,18,-40,-24,-20,-23,-127, 
  /* [90][0][][] */ -15,-21,11,-76,-117,8,127,-37,75,-88,-19,-73,39,-10,-44,-26, 
  /* [91][0][][] */ -7,-22,-2,-127,-61,-17,25,-17,-68,39,63,44,21,-23,53,77, 
  /* [92][0][][] */ -22,-13,18,-11,51,-37,-80,-127,52,-55,14,-12,-30,-21,13,-34, 
  /* [93][0][][] */ 60,29,15,-127,-45,6,-7,86,16,-81,81,-24,-37,80,-47,24, 
  /* [94][0][][] */ -97,45,-97,4,67,-127,-19,18,-3,-17,54,-4,8,6,-8,-22, 
  /* [95][0][][] */ -7,106,-4,-127,10,37,13,3,4,-27,-54,-85,-35,-10,-101,-23, 
};
const TfArray<96, float> quant12_scale = { 96, { 0.0010156269418075681, 0.00092392903752624989, 0.00049565010704100132, 0.0003403486916795373, 0.00045650487300008535, 0.0011912452755495906, 0.0014420658117160201, 0.00098991836421191692, 0.00032182276481762528, 0.0012924803886562586, 0.0008221096359193325, 0.0005040820105932653, 0.00046644758549518883, 0.00059998745564371347, 0.00034724210854619741, 0.00097744504455476999, 0.00069582840660586953, 0.0004947613924741745, 0.00037748046452179551, 0.00071489502443000674, 0.0010545877739787102, 0.0015457005938515067, 0.00049554900033399463, 0.0016854588175192475, 0.0015534257981926203, 0.00095381401479244232, 0.00069660256849601865, 0.00045562064042314887, 0.00079536775592714548, 0.00037284439895302057, 0.00019129793508909643, 0.00051784398965537548, 0.00074011768447235227, 0.0010072843870148063, 0.0005195733392611146, 0.00048822505050338805, 0.0011452359613031149, 0.0016159802908077836, 0.00040689544402994215, 0.0025423760525882244, 0.00055414566304534674, 0.00073427241295576096, 0.00021100181038491428, 0.00098083855118602514, 0.00040458125295117497, 0.00062285637250170112, 0.00086431769886985421, 0.00056618847884237766, 0.000282470224192366, 0.00062732747755944729, 0.00085443409625440836, 0.00070191803388297558, 0.0015169238904491067, 0.0010892741847783327, 0.0010039329063147306, 0.00056465633679181337, 0.00073479756247252226, 0.00051833258476108313, 0.0014095320366322994, 0.00062621088000014424, 0.0011327262036502361, 0.00026801874628290534, 0.00056371442042291164, 0.00062632275512441993, 0.00071750837378203869, 0.00065918499603867531, 0.00081095920177176595, 0.00049441232113167644, 0.00070948450593277812, 0.00098263006657361984, 0.00072958297096192837, 0.00045331206638365984, 0.00031439220765605569, 0.00036149454535916448, 0.0014025639975443482, 0.0008109015179798007, 0.00087741273455321789, 0.0010497421026229858, 0.0011530164629220963, 0.0011455920757725835, 0.00048903276911005378, 0.00035708019277080894, 0.00060641276650130749, 0.00035352219128981233, 0.0013555929763242602, 0.00082998210564255714, 0.00059747876366600394, 0.00015882776642683893, 0.00052845792379230261, 0.00066971668275073171, 0.0007130808662623167, 0.00098308990709483624, 0.00065808469662442803, 0.00080416211858391762, 0.0011826710542663932, 0.00037988266558386385, } };
const TfLiteAffineQuantization quant12 = { (TfLiteFloatArray*)&quant12_scale, (TfLiteIntArray*)&g0::quant5_zero, 0 };
const MODEL_SECTION(EI_MODEL_SECTION) ALIGN(16) int32_t tensor_data13[16] = { -5361, -5294, -9151, 24278, 21480, 3433, -18060, -4124, 17544, 5221, 26341, 23511, -12891, 10413, 34403, -36681, };
const TfArray<16, float> quant13_scale = { 16, { 0.00043876434210687876, 0.00028272799681872129, 0.00032492965692654252, 0.00025844233459793031, 0.00043105243821628392, 0.00039524087333120406, 0.00027843899442814291, 0.00044039374915882945, 0.00026643034652806818, 0.00026697680004872382, 0.00043269037269055843, 0.00075095833744853735, 0.00045799560029990971, 0.00042865736759267747, 0.00042112302617169917, 0.00031264522112905979, } };
const TfLiteAffineQuantization quant13 = { (TfLiteFloatArray*)&quant13_scale, (TfLiteIntArray*)&g0::quant7_zero, 0 };
const MODEL_SECTION(EI_MODEL_SECTION) ALIGN(16) int8_t tensor_data14[16*1*1*96] = { 
  /* [0][0][][] */ -8,14,12,11,67,70,-22,-20,38,15,27,5,-22,15,29,65,31,-11,-22,-3,97,-48,15,-24,-23,-21,-41,-108,-9,-4,39,48,127,6,20,0,18,-24,-31,28,-44,20,38,-17,15,-26,-27,37,-9,32,6,-7,-43,-4,13,-12,60,31,1,-49,-61,32,2,7,25,14,60,-2,5,9,4,-11,-70,-24,-12,10,-14,-104,25,-31,67,-14,-76,-54,47,-16,17,39,0,4,-2,-52,20,29,0,120, 
  /* [1][0][][] */ 67,-108,18,64,-28,-55,13,-48,-24,-104,-14,29,0,-63,-45,-56,-85,-2,39,18,-43,-117,-15,44,127,-57,-67,-6,-27,86,-13,74,25,14,-71,8,-3,-13,33,-17,8,-70,66,-30,-38,9,53,0,49,26,24,-65,95,-104,17,-31,34,6,-5,-99,40,-91,18,-65,8,-75,30,56,15,48,-65,4,-82,34,-11,44,45,75,21,-8,51,0,-84,48,-117,69,10,49,-52,8,21,25,-13,-57,56,-7, 
  /* [2][0][][] */ 28,32,16,-14,16,10,-14,55,50,-18,10,50,20,18,48,-7,19,-24,0,5,-22,-45,0,-27,-5,-16,-13,28,5,10,82,-27,20,-46,-4,47,27,127,1,-27,0,-35,-16,29,-40,-42,-54,20,13,21,-21,-21,17,-11,-6,-36,-24,4,-8,7,6,15,67,64,6,-47,19,-56,2,-6,-7,-2,-27,7,-11,4,16,57,2,3,22,74,28,-9,-6,6,26,15,16,2,-2,-47,-31,14,-8,36, 
  /* [3][0][][] */ -26,-14,-21,36,47,-24,15,6,-13,19,-5,23,-4,-2,62,-2,57,-33,8,6,-15,6,0,24,0,31,16,12,48,-61,33,-15,27,-25,-1,44,8,9,6,22,22,-54,19,-34,-10,9,-8,10,-127,59,-17,15,-120,3,-16,-40,43,-6,-2,71,-14,47,13,10,-7,-79,-30,21,44,32,-4,29,-54,-5,-3,-25,-34,-41,29,-48,13,-1,15,63,51,41,44,7,36,-1,11,2,0,-2,-16,-21, 
  /* [4][0][][] */ -18,-20,10,-52,-6,-29,-47,17,-22,-46,-24,-9,-3,63,21,12,37,-9,13,0,-18,7,71,27,-13,-3,18,39,10,-21,-9,-3,-17,-9,9,9,28,-23,5,-13,11,-3,-92,-27,26,-6,-18,-5,-5,94,8,-18,-28,-13,-10,-13,5,-28,22,58,-4,21,11,-14,22,-105,22,-15,-32,11,-10,12,-4,11,-1,5,-8,56,32,-9,0,13,127,-38,20,-27,-2,1,61,28,-2,37,-37,21,-2,-35, 
  /* [5][0][][] */ -20,7,10,-12,-13,-20,6,120,40,-9,-1,-32,-13,32,39,2,5,-20,-1,-26,-57,-21,22,-17,14,9,14,97,71,-15,43,62,-26,0,0,1,-33,-40,-23,-4,-22,-18,-24,-12,59,-6,-1,24,9,19,-7,11,-20,-14,-17,-1,-16,-29,-13,40,-54,40,-8,-43,19,2,-31,16,5,15,3,6,28,6,26,-32,6,29,4,94,5,-35,17,34,-3,-24,43,-18,14,-10,38,-91,-42,-6,-8,-127, 
  /* [6][0][][] */ -46,9,18,-88,-10,-22,-11,29,-7,19,17,3,27,-42,-5,-31,9,-79,22,11,11,2,-9,46,104,22,-17,8,19,-19,5,-5,-7,6,-30,7,23,-6,5,75,-16,-23,-58,-12,6,-23,1,-127,41,49,36,4,9,-10,-7,-30,32,-14,-7,18,29,22,13,18,54,70,28,-17,-20,11,9,-19,49,-15,73,13,-52,11,27,15,-18,-3,30,-37,0,37,34,-25,54,-7,-35,9,-30,24,-9,17, 
  /* [7][0][][] */ 27,12,24,-21,7,10,-8,-40,0,-11,-22,-18,-3,-81,25,13,-5,-23,-2,-11,22,-6,-58,-23,-18,-3,7,-31,2,21,8,-12,-28,23,-23,-30,-1,-12,-32,10,4,-23,-17,31,-8,15,8,63,2,4,-29,-17,-11,8,-5,-59,18,2,-2,-13,-3,-12,-18,11,-20,50,14,-30,-12,-8,3,22,-13,-8,-12,8,41,3,15,-1,-14,-22,39,6,-27,127,-9,-6,-47,-31,-12,11,-26,-13,-8,14, 
  /* [8][0][][] */ -70,30,-20,-2,32,-30,-10,46,10,62,-11,6,17,48,57,-16,6,32,-88,-5,-13,11,-11,11,-45,-25,31,46,56,-111,-6,9,53,-16,28,36,3,49,-7,63,-22,22,9,-127,-20,-8,10,-5,-42,46,18,63,-111,63,2,17,23,-18,-24,-21,6,-24,22,7,-25,16,28,-24,9,-1,49,78,-19,46,14,21,-6,-55,-15,-51,9,3,16,-4,-47,2,35,-12,-3,55,-17,13,48,-5,-12,-31, 
  /* [9][0][][] */ 16,-61,-30,-28,8,25,-38,-2,29,-17,-8,19,-26,-14,-11,22,-13,12,23,-17,-26,7,-48,-44,43,18,10,-37,-42,-16,-23,-17,-31,40,14,42,-11,42,-24,13,-1,15,-16,-75,14,-5,22,-127,-28,-8,-8,16,-22,20,-4,-2,-53,38,-17,15,3,-9,-4,28,17,110,33,20,16,-14,4,-37,-10,-10,-29,32,34,-25,35,16,-11,-3,14,-38,15,37,-24,-10,-62,27,-40,-7,4,-2,2,3, 
  /* [10][0][][] */ 12,62,-17,16,37,-124,3,-7,1,50,39,3,-25,6,13,-82,15,32,-18,37,-83,-32,27,-1,-65,-15,-44,62,4,-11,1,46,2,-41,21,-9,63,-12,-23,-1,5,58,28,-11,-54,-23,-33,21,-17,-13,-11,-3,-7,-21,-25,-1,7,22,-25,-5,-2,5,-10,8,13,28,46,31,24,-3,19,59,-39,-12,-35,-33,18,25,-41,-4,29,-9,-62,-24,41,-63,108,-8,-5,23,39,20,64,32,-3,-127, 
  /* [11][0][][] */ 44,32,-23,32,-3,11,38,-5,-2,-15,-25,-18,5,2,28,11,-16,-5,-95,-10,-8,15,-30,-18,-44,-36,-2,7,15,13,2,1,-11,0,18,38,8,20,9,10,-6,21,53,-96,20,-31,-2,-6,-127,12,5,-43,21,26,-10,-3,5,-16,14,7,14,-3,-1,6,-56,48,-11,6,23,-9,32,10,-59,-20,-16,24,-3,-16,-37,4,-4,7,89,38,12,-7,-31,-13,-8,13,-14,-19,13,9,-24,12, 
  /* [12][0][][] */ -31,-30,7,10,-16,28,28,22,127,-14,-21,-6,6,15,-38,-30,32,22,13,58,48,30,-17,-22,9,15,34,-32,-90,-3,36,-52,8,-8,-14,-15,10,12,28,-3,-50,-22,13,-12,11,29,0,-11,29,10,-23,24,3,21,19,-6,78,-14,35,16,26,-22,1,-17,-11,31,-37,5,3,13,-9,-28,2,17,-73,10,15,-3,16,-91,12,7,39,42,-16,-6,-12,-9,-7,14,-6,46,-12,-5,13,14, 
  /* [13][0][][] */ 27,3,-18,30,23,-1,8,3,-8,9,17,1,0,-7,10,-24,18,-84,-44,10,-14,-23,28,2,14,15,4,-10,-14,-49,-16,16,4,21,25,46,0,-13,6,17,4,19,28,57,30,19,-10,-127,26,-1,5,4,-20,6,20,1,-8,22,9,11,5,21,-19,4,8,-15,-17,-74,28,24,-2,-28,-11,29,0,29,-36,-18,13,-6,22,-12,-15,19,30,30,11,22,-3,19,18,-3,8,18,-15,-1, 
  /* [14][0][][] */ -104,-53,18,51,3,-15,-54,-20,-13,-3,9,8,71,0,-127,4,80,-20,-16,22,-19,-22,43,21,-114,-13,27,-28,-49,-59,-28,23,-25,3,16,-40,30,33,4,-5,25,35,-18,-25,12,107,88,51,-102,54,24,30,-40,-22,31,5,24,25,43,37,45,29,24,46,-7,-15,-50,34,5,57,-68,-68,-64,10,-19,27,-1,48,78,-12,37,5,40,20,42,29,21,26,34,40,65,-20,-14,17,19,-38, 
  /* [15][0][][] */ 102,-21,53,12,15,86,51,2,-4,54,16,1,-94,-3,-14,49,10,35,56,-11,12,28,-82,35,17,-10,48,2,37,57,-39,-95,20,-28,80,-22,30,-44,-86,-98,-30,45,33,45,2,60,-24,-27,125,-29,-79,33,49,-127,55,-112,-5,-61,21,14,-115,2,30,23,92,-15,-59,45,-2,70,-8,20,42,15,1,-11,8,-42,75,1,19,1,54,76,-18,-13,16,-44,17,12,37,0,-54,65,38,-1, 
};
const TfArray<16, float> quant14_scale = { 16, { 0.018647484481334686, 0.012015939690172672, 0.013809509575366974, 0.010983798652887344, 0.018319727852940559, 0.016797736287117004, 0.011833657510578632, 0.018716733902692795, 0.011323289945721626, 0.011346513405442238, 0.018389340490102768, 0.031915728002786636, 0.01946481317281723, 0.018217938020825386, 0.017897728830575943, 0.013287421315908432, } };
const TfLiteAffineQuantization quant14 = { (TfLiteFloatArray*)&quant14_scale, (TfLiteIntArray*)&g0::quant7_zero, 0 };
const MODEL_SECTION(EI_MODEL_SECTION) ALIGN(16) int32_t tensor_data15[96] = { 9195, -8663, 3001, 56173, -2478, -4651, -11571, 4077, -2613, 370, 2773, -1798, 1884, -6705, 6222, -5322, -1625, 15027, 21764, 2538, 3225, -222, -488, 536, 14804, -732, -1382, -3086, -5263, -8192, 8216, -9809, -201, -3, -302, 12903, 1645, -4074, 17298, 393, -931, 1841, -8579, -8198, -8956, 67455, 84, 16108, 26593, -13264, -57, 9268, 6606, -1221, -5176, 3175, -13810, 754, 2497, -6940, -1390, -1413, -9082, -1770, 1637, 15812, 29172, 27205, -13550, -448, -9074, -969, 51027, 9192, 358, -496, 18369, 34853, -843, -11135, -2164, -3789, 1312, -3256, 1422, 362, 1308, 214, 2541, -2864, 1731, -1594, -263, 953, 145, 49230, };
const TfArray<96, float> quant15_scale = { 96, { 0.00018555951828602701, 0.00015050229558255523, 0.00022014035494066775, 3.8022029912099242e-05, 0.00015234581951517612, 0.00019047333626076579, 0.00032112468034029007, 7.5353214924689382e-05, 0.00015925265324767679, 0.00042583304457366467, 0.00015473744133487344, 0.00029729909147135913, 0.00010600599489407614, 0.00040772330248728395, 0.00015686618280597031, 0.00017019848746713251, 9.9313634564168751e-05, 0.00025823171017691493, 7.8417295299004763e-05, 0.0002691559202503413, 4.5484575821319595e-05, 0.00017648348875809461, 0.00013835674326401204, 0.00037339079426601529, 0.00024220546765718609, 0.00023605678870808333, 0.00013973207387607545, 0.00018661070498637855, 0.00013210639008320868, 0.0001139766100095585, 9.8983975476585329e-05, 0.00018596688460092992, 0.00012534151028376073, 0.00015132961561903358, 0.00019722062279470265, 0.00018101774912793189, 0.00037624555989168584, 0.00012649955169763416, 4.3088330130558461e-05, 0.00016091368161141872, 0.00016471059643663466, 0.00029725022614002228, 0.00039378623478114605, 0.00015071946836542338, 0.00015225674724206328, 4.8327008698834106e-05, 0.00022451678523793817, 0.00020956472144462168, 9.6374249551445246e-05, 0.00017073447816073895, 0.00018342240946367383, 0.00013808772200718522, 0.00023990133195184171, 0.00033913145307451487, 0.00029505105339922011, 0.00049613573355600238, 0.00025253448984585702, 0.00022835456184111536, 9.6824929642025381e-05, 8.8334199972450733e-05, 0.00032081062090583146, 0.00014603725867345929, 0.00032130585168488324, 0.00012522944598458707, 0.00016681081615388393, 0.00017494088388048112, 7.6343421824276447e-05, 6.4560052123852074e-05, 0.00032038229983299971, 0.00018496580014470965, 0.00020311473053880036, 9.7378797363489866e-05, 0.00011062209523515776, 0.00015339022502303123, 0.00016680145927239209, 0.00022640956740360707, 0.00047662586439400911, 4.8100642743520439e-05, 0.00023797056928742677, 0.00015909411013126373, 0.00016121497901622206, 0.00056392996339127421, 0.00015233173326123506, 0.00015010515926405787, 0.00012455701653379947, 9.3466514954343438e-05, 0.00014186163025442511, 0.000176150759216398, 0.00020589491759892553, 0.00011265272769378498, 0.00019133010937366635, 0.00010768888751044869, 0.00014008168363943696, 0.00044974958291277289, 0.0085607133805751801, 8.2306047261226922e-05, } };
const TfLiteAffineQuantization quant15 = { (TfLiteFloatArray*)&quant15_scale, (TfLiteIntArray*)&g0::quant5_zero, 0 };
const MODEL_SECTION(EI_MODEL_SECTION) ALIGN(16) int8_t tensor_data16[1*3*3*96] = { 
  /* [0][0][][] */ -15,7,-19,109,-16,25,-62,-54,17,-7,100,-10,5,-7,-3,55,7,17,-26,1,70,-1,33,-34,1,18,42,47,20,15,24,49,-11,25,12,-14,4,50,-61,-26,20,8,25,18,-84,-55,26,-5,-13,-17,-9,-9,51,6,-10,1,-3,-31,26,-31,31,-4,127,27,-12,-9,12,-52,65,36,3,-6,81,-30,67,4,17,-127,32,65,3,17,127,-11,39,27,-28,-20,33,-5,-17,81,-2,18,-3,11, -48,11,-7,10,51,-8,-10,-127,39,13,-127,-5,-14,-11,5,91,18,-29,-12,-16,75,-96,127,27,-62,-30,-106,-18,25,39,-49,19,119,10,-14,0,-25,127,-55,-127,12,-19,-33,17,47,-127,127,-44,-78,49,48,5,39,-63,33,54,40,42,-105,85,127,35,5,-19,45,-36,-88,-4,37,-31,-17,47,-47,-46,103,-4,-28,-56,-33,64,-64,63,-16,9,-13,47,57,-42,-29,54,-15,74,-127,-34,23,-127, 0,-3,-22,-75,10,20,38,22,-3,0,-2,62,2,-11,-9,7,-11,18,-13,14,7,21,26,-32,-1,-31,10,13,-3,11,47,-75,45,15,9,-23,11,5,-23,-23,9,5,-17,8,23,-33,21,1,6,-3,5,-7,7,6,-6,6,-6,45,2,-6,11,-16,0,-17,-26,-16,26,-49,-103,-6,43,-17,-127,-21,-13,18,10,-10,6,15,-14,24,-40,-4,-42,21,28,35,-26,-18,24,-9,16,6,-2,-48, 
  /* [0][1][][] */ -40,60,-17,40,-83,-12,-10,-44,26,97,-44,-22,-28,-24,-6,65,127,-23,-86,-15,57,-127,-26,16,-35,-48,-127,-6,35,36,-50,28,-127,-75,-56,5,65,-3,-53,47,-20,85,-2,-1,35,-55,-10,-32,127,49,-3,19,44,11,-38,-17,31,11,-127,127,-37,-89,18,127,-60,-34,-84,127,-34,127,-18,52,-31,-55,34,10,-35,-71,127,49,127,36,5,0,127,28,-96,47,-37,-34,-106,40,94,99,27,-60, 127,127,127,127,-44,-127,127,21,127,-127,18,-127,-109,127,127,127,-14,-127,-56,-127,127,21,-62,127,127,127,-55,-127,127,127,-127,127,-9,-127,-127,127,-127,-45,92,109,-127,-127,127,127,127,-121,-105,127,-14,127,-127,-127,-127,127,127,-127,127,-127,-43,42,-108,-26,-67,-67,127,127,-68,126,127,-107,-127,127,-41,127,-127,-127,-127,126,-75,127,-38,127,76,127,-39,-127,-24,-111,-127,-127,-25,-127,-20,-127,-127,115, -23,67,-38,3,127,74,-20,47,5,25,-16,-5,-26,-30,-13,-6,-101,-20,-127,36,35,72,-10,-117,-32,-40,123,73,10,38,74,9,123,-46,127,-3,54,6,-82,13,35,24,-24,1,-22,-55,-12,-42,83,17,-12,38,-4,-3,-75,-16,25,21,122,-93,4,127,0,-34,-112,-27,-75,100,15,-16,114,25,-15,-56,8,49,-30,-7,-42,0,-43,7,40,24,-91,34,127,-51,30,-24,127,-8,-109,34,33,15, 
  /* [0][2][][] */ -4,-36,-22,-62,-4,18,42,29,-5,12,-16,51,28,-35,-7,8,44,3,10,18,-6,27,-19,-27,3,-27,11,5,-9,-7,48,-74,-41,64,-28,-27,32,-33,-62,16,10,9,-36,18,12,-80,-12,-1,-9,7,17,-7,7,2,-24,7,0,44,-47,33,-3,-10,5,17,-6,-11,17,-54,-53,11,-19,-11,-113,-32,0,20,14,-15,56,18,25,21,-38,15,13,27,-25,8,7,25,21,-5,17,38,-6,-34, -27,-7,-27,25,-43,76,-24,64,3,-4,55,-10,127,-7,-18,-14,0,-39,-56,21,-19,76,-45,-114,-45,-48,101,71,15,46,55,-2,-123,58,-18,-24,-28,-24,-127,-6,47,-13,-16,35,-25,-46,-17,-47,-58,30,68,25,-11,-80,29,51,16,28,75,-57,22,-54,-8,1,18,-24,-127,-52,-8,-27,-63,22,35,-51,-29,-5,-46,22,-58,4,52,34,13,12,5,61,-93,127,15,126,-33,-18,111,-21,48,80, -9,-31,-26,27,12,66,-42,14,3,-3,0,14,14,-50,-10,-4,-42,-6,11,16,-18,5,-21,3,-2,19,-5,53,-2,-5,34,28,20,40,16,-24,-6,-25,-34,8,13,-12,23,10,-73,-33,-13,5,-1,-15,-2,-4,-7,11,-17,-7,1,-49,10,-32,-24,55,7,-28,-11,-2,33,-56,45,7,57,-20,29,-57,-19,24,9,14,-5,23,-29,32,84,-12,-18,55,40,-13,105,11,3,-17,9,-24,-6,-52, 
};
const TfArray<96, float> quant16_scale = { 96, { 0.0078862793743610382, 0.0063963476568460464, 0.0093559650704264641, 0.0016159361694008112, 0.0064746974967420101, 0.0080951163545250893, 0.013647798448801041, 0.0032025114633142948, 0.0067682377994060516, 0.018097903579473495, 0.0065763411112129688, 0.012635211460292339, 0.0045052547939121723, 0.017328239977359772, 0.0066668125800788403, 0.0072334352880716324, 0.0042208293452858925, 0.010974847711622715, 0.003332735039293766, 0.011439126916229725, 0.0019330944633111358, 0.0075005483813583851, 0.0058801616542041302, 0.015869108960032463, 0.010293732397258282, 0.010032413527369499, 0.0059386133216321468, 0.0079309549182653427, 0.0056145214475691319, 0.0048440056852996349, 0.0042068189941346645, 0.00790359266102314, 0.0053270142525434494, 0.0064315083436667919, 0.0083818761631846428, 0.0076932539232075214, 0.01599043607711792, 0.005376230925321579, 0.0018312539905309677, 0.0068388315849006176, 0.0070002004504203796, 0.012633134610950947, 0.016735915094614029, 0.0064055770635604858, 0.0064709116704761982, 0.0020538978278636932, 0.0095419632270932198, 0.0089065004140138626, 0.0040959054604172707, 0.007256215438246727, 0.0077954521402716637, 0.0058687282726168633, 0.010195806622505188, 0.014413086697459221, 0.012539668940007687, 0.021085768938064575, 0.010732715018093586, 0.0097050685435533524, 0.0041150595061480999, 0.0037542034406214952, 0.013634450733661652, 0.0062065832316875458, 0.013655498623847961, 0.0053222514688968658, 0.007089459802955389, 0.0074349874630570412, 0.0032445953693240881, 0.0027438022661954165, 0.013616248033940792, 0.0078610461205244064, 0.0086323758587241173, 0.0041385986842215061, 0.0047014388255774975, 0.0065190843306481838, 0.0070890621282160282, 0.0096224062144756317, 0.02025659941136837, 0.0020442772656679153, 0.010113748721778393, 0.0067614996805787086, 0.0068516363389790058, 0.023967022076249123, 0.0064740986563265324, 0.0063794692978262901, 0.0052936733700335026, 0.0039723268710076809, 0.006029119249433279, 0.0074864071793854237, 0.0087505336850881577, 0.0047877407632768154, 0.0081315292045474052, 0.0045767775736749172, 0.0059534716419875622, 0.019114356487989426, 0.36383029818534851, 0.0034980070777237415, } };
const TfLiteAffineQuantization quant16 = { (TfLiteFloatArray*)&quant16_scale, (TfLiteIntArray*)&g0::quant5_zero, 3 };
const MODEL_SECTION(EI_MODEL_SECTION) ALIGN(16) int32_t tensor_data17[96] = { 19917, 1037, 8619, -573, 6572, 4824, 22121, 5883, -1520, 31050, 6506, 1797, 9382, 40271, -407, -3257, 11182, 13238, 3027, -295, -676, 16250, 4665, 3570, 8334, 5603, 6456, 5596, -26, -42, 5438, 13583, 22589, 2531, 7244, -585, 30100, 9454, 920, 4464, 746, 11478, 18167, 4012, 5836, 16119, 14889, 6973, 5356, 3164, 496, -806, 22020, 7927, 12437, 16870, -290, 8856, 3872, 4786, 14883, 7223, 3603, 8809, 6128, 3772, 7107, -707, 21853, 8889, 9199, -1378, -1813, 4021, 2030, 3072, 24234, 12561, 13879, -2088, 4917, -8789, -2247, 754, 6796, 6963, 8401, 8614, 15544, 3407, 8815, 4916, 14894, 23960, -11298, 16715, };
const TfArray<96, float> quant17_scale = { 96, { 0.00013292543007992208, 0.00028357113478705287, 0.00015898510173428804, 0.00095506961224600673, 0.00024769140873104334, 0.00018752976029645652, 0.00014150131028145552, 0.00060884817503392696, 0.00031012180261313915, 5.960192356724292e-05, 0.00022038459428586066, 0.00047344746417365968, 0.00029160929261706769, 0.00011904932034667581, 0.00022196250210981816, 0.0001973633625311777, 0.0001971143065020442, 0.00017031255993060768, 0.00019714987138286233, 0.00043160252971574664, 0.00041774741839617491, 0.00015346345026046038, 0.00029684184119105339, 0.00023446141858585179, 0.00021401925187092274, 0.00037468384834937751, 0.00022609975712839514, 0.00017058297817129642, 0.00047446702956221998, 0.00037548822001554072, 0.00026978549431078136, 0.00013994192704558372, 8.8913067884277552e-05, 0.00046287517761811614, 0.00023359540500678122, 0.00045068288454785943, 7.7908523962832987e-05, 0.00027619570028036833, 0.00051325542153790593, 0.00020562122517731041, 0.00069432437885552645, 0.00016677351959515363, 0.00011827891285065562, 0.00016710028285160661, 0.00019848461670335382, 0.00020268460502848029, 0.00019005060312338173, 0.00021073134848847985, 0.00029311480466276407, 0.00026499485829845071, 0.00034147239057347178, 0.00079541176091879606, 0.00012002934090560302, 0.00019972852896898985, 0.00019054270524065942, 0.00011135980457765982, 0.00043793281656689942, 0.00019242311827838421, 0.00020413027959875762, 0.00034430227242410183, 0.0001146414433605969, 0.00019000815518666059, 0.00027730694273486733, 0.00032238551648333669, 0.00017797503096517175, 0.00029703858308494091, 0.00027532927924767137, 0.00046795009984634817, 0.0001239972043549642, 0.00012894219253212214, 0.00021294871112331748, 0.00032384545193053782, 0.00023002090165391564, 0.000322473089909181, 0.00023290512035600841, 0.00039661370101384819, 9.6716466941870749e-05, 0.00035867560654878616, 0.00011918807285837829, 0.00056954991305246949, 0.00021681339421775192, 0.0002331708965357393, 0.00018104122136719525, 0.00037326585152186453, 0.00023292080732062459, 0.00021961559832561761, 0.00019231786427553743, 0.00016137943021021783, 0.00011243256449233741, 0.00047105475096032023, 0.00015794280625414103, 0.00033597127185203135, 0.00014275415742304176, 0.0001161489199148491, 0.00026021795929409564, 0.00019938701007049531, } };
const TfLiteAffineQuantization quant17 = { (TfLiteFloatArray*)&quant17_scale, (TfLiteIntArray*)&g0::quant5_zero, 0 };
const MODEL_SECTION(EI_MODEL_SECTION) ALIGN(16) int8_t tensor_data18[96*1*1*16] = { 
  /* [0][0][][] */ 30,-2,85,105,56,-16,33,-48,127,21,-39,-82,21,35,-16,-93, 
  /* [1][0][][] */ 27,48,0,-20,104,-5,-25,-5,39,46,-5,127,-5,-6,51,-69, 
  /* [2][0][][] */ 19,-61,-24,2,-46,36,-71,68,-34,-75,-26,47,-3,-127,66,-94, 
  /* [3][0][][] */ 102,96,-6,15,-127,-24,-57,-5,-17,14,94,-72,-43,62,-18,-21, 
  /* [4][0][][] */ 3,-20,28,44,-11,44,-10,54,-49,-25,15,-5,-23,-127,52,-24, 
  /* [5][0][][] */ 51,-45,-17,1,-20,-82,-15,6,-13,25,-127,6,5,-14,-19,12, 
  /* [6][0][][] */ -100,-92,28,127,-78,1,-54,65,-108,-63,-105,-11,-9,110,-55,91, 
  /* [7][0][][] */ -21,16,-45,38,39,-127,-29,36,8,-23,27,-2,0,13,-25,13, 
  /* [8][0][][] */ 6,-32,-20,-2,17,58,-43,-75,-1,19,-58,2,-127,-19,-18,27, 
  /* [9][0][][] */ 42,-46,71,109,61,22,14,-105,106,-108,47,-25,-17,68,-127,39, 
  /* [10][0][][] */ -105,-104,4,-23,83,9,65,54,73,-67,-127,54,107,-56,-90,91, 
  /* [11][0][][] */ 38,-10,-127,13,42,23,-20,31,-17,-34,-4,-2,6,2,-36,1, 
  /* [12][0][][] */ 95,-4,-19,24,-31,-50,-49,-76,16,43,-127,-43,-42,-52,-25,52, 
  /* [13][0][][] */ 98,-50,-39,-83,28,-25,-127,-111,-27,-98,-28,30,15,-98,-11,27, 
  /* [14][0][][] */ -63,45,-111,-28,69,-127,67,-71,48,44,-12,-103,40,94,-25,27, 
  /* [15][0][][] */ 39,-11,65,46,52,-60,-46,1,-3,-86,-103,-8,-127,-33,-27,60, 
  /* [16][0][][] */ -64,65,-12,-4,1,58,31,55,-28,54,127,-4,-12,9,21,-51, 
  /* [17][0][][] */ -17,-4,-60,-44,-37,16,43,91,-33,127,-14,-8,3,74,67,-11, 
  /* [18][0][][] */ -27,115,-87,-18,-11,-45,49,-51,10,127,-112,115,15,-45,41,-115, 
  /* [19][0][][] */ 3,-13,57,23,9,55,6,29,14,12,-47,-9,-127,-1,-21,28, 
  /* [20][0][][] */ 92,-54,-23,-74,-1,26,24,-85,-58,13,-127,-51,41,-13,57,-13, 
  /* [21][0][][] */ 68,-17,127,63,-14,40,43,7,-5,44,-32,16,-20,47,-12,-16, 
  /* [22][0][][] */ 27,-35,43,23,-15,-3,48,127,27,16,12,37,3,76,55,50, 
  /* [23][0][][] */ -22,-10,-85,1,26,-127,-9,35,1,-23,-30,11,-69,-4,-1,34, 
  /* [24][0][][] */ 20,-44,-2,-60,20,-11,-21,-18,24,34,51,54,-24,47,127,28, 
  /* [25][0][][] */ -127,-77,-31,19,47,21,30,-13,-67,18,-78,65,-10,64,10,65, 
  /* [26][0][][] */ -1,-10,72,0,10,28,-36,62,-59,-59,-1,34,7,-127,32,-33, 
  /* [27][0][][] */ -106,45,-52,49,55,-8,1,20,19,-49,127,7,-4,-4,1,-18, 
  /* [28][0][][] */ -9,-3,20,34,-12,-5,6,90,23,5,-45,-9,-127,0,-22,52, 
  /* [29][0][][] */ -3,48,37,-25,26,-10,6,-36,-127,5,-44,2,7,39,-95,12, 
  /* [30][0][][] */ -18,2,-127,-27,35,-44,-4,26,-26,-29,1,-23,-49,-18,-16,22, 
  /* [31][0][][] */ 124,-32,-127,9,65,-23,-25,75,-28,17,-92,12,50,7,-79,60, 
  /* [32][0][][] */ -127,64,21,52,7,108,11,42,5,-6,122,8,-41,10,-32,-22, 
  /* [33][0][][] */ 31,-45,127,-14,-96,21,6,-40,0,57,-12,55,4,18,50,32, 
  /* [34][0][][] */ -16,-74,-50,-105,31,27,0,-34,-19,-37,-9,-127,-26,-7,73,30, 
  /* [35][0][][] */ -2,-15,23,58,61,-22,22,-36,-127,58,-13,17,-22,104,-59,-23, 
  /* [36][0][][] */ -100,28,-34,19,35,63,38,65,31,40,127,-46,18,-6,10,-60, 
  /* [37][0][][] */ -47,4,127,-55,-73,-63,-4,-19,30,15,9,-16,-22,-50,82,8, 
  /* [38][0][][] */ -13,-21,-39,32,43,-70,-68,-3,-31,-27,87,-24,127,18,-22,26, 
  /* [39][0][][] */ -13,-18,36,-35,-11,-62,31,127,-18,-60,-15,-27,34,70,36,57, 
  /* [40][0][][] */ 74,-23,-18,-18,-16,58,-40,-1,6,-14,-9,5,127,14,-11,-17, 
  /* [41][0][][] */ 6,-20,-44,-127,54,-5,-27,-82,26,-28,14,-48,-15,-7,-13,42, 
  /* [42][0][][] */ 48,30,46,92,-101,-17,-127,10,-68,-83,42,-55,-27,127,-77,-5, 
  /* [43][0][][] */ 4,74,-27,127,13,7,63,-77,-19,79,-19,17,-13,-33,67,23, 
  /* [44][0][][] */ -28,-1,-127,19,66,104,-41,37,-33,-18,51,-28,16,-56,-37,5, 
  /* [45][0][][] */ -6,23,-12,-98,-9,1,80,-17,-13,45,-26,20,3,-127,-1,-43, 
  /* [46][0][][] */ -17,58,45,-23,4,27,-63,39,16,-68,-14,2,20,127,42,12, 
  /* [47][0][][] */ 11,-23,4,-25,-20,19,-44,40,-13,-15,-1,21,8,-127,29,7, 
  /* [48][0][][] */ 13,-31,25,-127,-4,-24,-6,22,10,-39,17,-3,23,56,13,74, 
  /* [49][0][][] */ 31,-15,-3,127,78,20,3,50,-52,25,30,29,-9,49,94,1, 
  /* [50][0][][] */ -4,-24,43,-52,-37,99,-18,-59,41,10,117,12,127,-28,17,-84, 
  /* [51][0][][] */ 23,35,21,9,36,8,-38,18,64,-4,-6,127,15,17,43,-61, 
  /* [52][0][][] */ -49,77,127,0,10,-31,4,-46,-40,-22,10,47,34,99,-127,2, 
  /* [53][0][][] */ -2,-10,-25,-127,-50,0,14,-18,-9,23,15,-8,22,-25,39,28, 
  /* [54][0][][] */ 26,26,-24,-51,34,-17,-58,-3,83,-33,-14,-35,-19,127,21,19, 
  /* [55][0][][] */ -26,-37,-67,-37,-23,-53,-25,-127,-23,-81,-31,14,-36,-110,-68,5, 
  /* [56][0][][] */ 45,36,27,50,12,-19,16,127,10,-29,12,-33,83,-6,-37,38, 
  /* [57][0][][] */ 127,-4,107,17,-94,-32,25,-25,-3,14,-97,1,39,-22,83,10, 
  /* [58][0][][] */ 83,79,24,125,-127,11,39,75,7,40,77,10,-50,-57,-17,-46, 
  /* [59][0][][] */ 121,-47,12,-16,-27,-34,12,35,-14,40,-127,-3,6,12,21,10, 
  /* [60][0][][] */ -127,15,-13,-5,5,-1,2,26,27,-2,94,-15,-25,26,25,-19, 
  /* [61][0][][] */ -106,31,15,0,58,10,-52,-75,90,-82,127,-22,39,-66,-46,-28, 
  /* [62][0][][] */ -60,-31,-108,30,60,127,20,90,-10,-50,48,-16,-60,-26,-81,-39, 
  /* [63][0][][] */ -24,21,127,-37,-85,-57,43,-39,11,43,31,3,-6,-47,89,25, 
  /* [64][0][][] */ -1,75,-27,-9,30,-12,55,-127,-41,59,4,13,-26,-115,-6,54, 
  /* [65][0][][] */ -19,0,12,-19,91,36,11,-127,-31,-58,-5,-68,2,-52,48,14, 
  /* [66][0][][] */ -127,-15,-15,0,-47,14,14,-32,-65,-32,-80,37,62,11,51,68, 
  /* [67][0][][] */ -5,-61,8,127,-13,-35,-10,73,32,47,-12,10,14,-38,-64,-30, 
  /* [68][0][][] */ 0,19,-23,127,-46,-10,20,-23,-56,58,32,-5,-12,-72,-40,-23, 
  /* [69][0][][] */ 62,45,50,127,81,2,78,-104,7,90,6,89,6,-8,15,-21, 
  /* [70][0][][] */ -25,-5,-6,-122,125,-4,8,4,94,-44,76,-51,4,84,45,127, 
  /* [71][0][][] */ -14,43,10,102,34,-127,-23,88,38,-86,0,-11,9,-40,-76,42, 
  /* [72][0][][] */ -127,-52,-24,60,26,56,-40,3,-29,-26,-71,46,61,-2,15,102, 
  /* [73][0][][] */ 4,-26,-31,77,-1,-32,-10,-6,67,10,-21,-5,20,127,-74,-62, 
  /* [74][0][][] */ 40,-50,-13,-40,-50,-2,66,-2,-69,7,-106,11,-127,-29,14,54, 
  /* [75][0][][] */ -31,-19,-39,127,-29,5,-9,-30,-44,26,-47,-19,7,-56,5,-37, 
  /* [76][0][][] */ -6,-7,-16,53,23,14,-25,-127,15,-119,7,26,-34,-11,17,-35, 
  /* [77][0][][] */ 127,-9,12,35,-22,-10,-14,13,24,3,-25,29,21,-11,-47,28, 
  /* [78][0][][] */ -20,-8,76,6,2,12,-39,52,29,-18,-38,-13,13,127,23,-19, 
  /* [79][0][][] */ -2,25,41,11,19,45,-51,-36,0,-41,87,-31,127,-25,-32,-43, 
  /* [80][0][][] */ -127,-75,-65,69,-8,39,-1,-35,-60,2,-45,4,37,-42,-5,65, 
  /* [81][0][][] */ 72,27,-106,61,127,127,-22,-46,-5,-94,-19,-92,-15,-31,-109,53, 
  /* [82][0][][] */ 91,112,-17,32,-127,5,-67,-26,-62,-23,122,-75,-68,68,-19,-51, 
  /* [83][0][][] */ 127,40,12,-32,2,-17,-14,29,29,13,75,-43,-61,-33,-37,-78, 
  /* [84][0][][] */ 48,-61,-124,-7,23,62,28,-127,-32,-58,36,-23,-55,2,-18,-3, 
  /* [85][0][][] */ 15,-26,-52,-61,-43,-31,70,124,-37,127,-41,-39,48,73,69,-20, 
  /* [86][0][][] */ 127,-13,-12,-10,-12,-45,-5,-18,-17,-1,-92,10,-5,8,0,28, 
  /* [87][0][][] */ -17,21,-11,-67,-51,62,-56,40,0,-35,41,13,34,-127,16,31, 
  /* [88][0][][] */ 14,-12,-89,11,127,59,-18,-101,31,-101,21,-86,-62,-13,32,-54, 
  /* [89][0][][] */ 42,16,13,-127,38,-6,-43,98,72,-65,-25,-7,11,-5,10,-19, 
  /* [90][0][][] */ 8,0,-10,31,80,-20,91,-85,86,127,-3,20,23,1,-10,-37, 
  /* [91][0][][] */ 46,8,-83,-5,-12,-127,-1,-7,-11,-7,-47,-10,50,-30,-13,41, 
  /* [92][0][][] */ 9,1,127,13,1,12,-10,85,-60,34,-65,71,44,72,10,25, 
  /* [93][0][][] */ 127,-50,-26,-24,1,-37,6,23,-24,16,-104,-14,-6,33,-25,67, 
  /* [94][0][][] */ 1,-7,38,75,108,-14,-10,38,23,-13,-1,42,-26,127,-27,-68, 
  /* [95][0][][] */ -98,38,22,45,30,46,10,-11,20,-5,127,-9,-25,25,-6,-34, 
};
const TfArray<96, float> quant18_scale = { 96, { 0.00048730385606177151, 0.0010395701974630356, 0.00058283848920837045, 0.0035012797452509403, 0.00090803531929850578, 0.00068748305784538388, 0.00051874300697818398, 0.0022320339921861887, 0.0011369048152118921, 0.00021850031043868512, 0.00080792867811396718, 0.0017356557073071599, 0.0010690380586311221, 0.00043643414392136037, 0.00081371329724788666, 0.00072353298310190439, 0.00072261993773281574, 0.00062436488224193454, 0.00072275032289326191, 0.001582252443768084, 0.0015314596239477396, 0.00056259613484144211, 0.0010882205097004771, 0.00085953425150364637, 0.00078459334326907992, 0.0013735889224335551, 0.00082888040924444795, 0.0006253562169149518, 0.0017393934540450573, 0.0013765377225354314, 0.00098903209436684847, 0.00051302631618455052, 0.00032595481025055051, 0.0016968977870419621, 0.00085635943105444312, 0.0016522009391337633, 0.00028561221552081406, 0.0010125319240614772, 0.0018815913936123252, 0.00075380626367405057, 0.0025453893467783928, 0.00061139080207794905, 0.00043360982090234756, 0.00061258871573954821, 0.00072764349170029163, 0.00074304064037278295, 0.00069672445533797145, 0.00077253993367776275, 0.0010745571926236153, 0.00097146967891603708, 0.0012518358416855335, 0.0029159749392420053, 0.00044002689537592232, 0.00073220365447923541, 0.00069852848537266254, 0.00040824440657161176, 0.0016054592560976744, 0.0007054220768623054, 0.00074834044789895415, 0.0012622101930901408, 0.00042027488234452903, 0.00069656880805268884, 0.0010166056454181671, 0.0011818634811788797, 0.0006524554337374866, 0.0010889418190345168, 0.0010093555320054293, 0.0017155024688690901, 0.00045457304804585874, 0.0004727013292722404, 0.0007806687499396503, 0.0011872155591845512, 0.00084325531497597694, 0.0011821845546364784, 0.00085382885299623013, 0.0014539835974574089, 0.00035456201294437051, 0.001314902794547379, 0.00043694279156625271, 0.0020879667717963457, 0.000794836669228971, 0.00085480319103226066, 0.00066369608975946903, 0.0013683905126526952, 0.00085388636216521263, 0.00080510956468060613, 0.00070503621827811003, 0.00059161608805879951, 0.00041217714897356927, 0.001726884045638144, 0.00057901744730770588, 0.0012316687498241663, 0.00052333594067022204, 0.00042580129229463637, 0.00095395761309191585, 0.00073095166590064764, } };
const TfLiteAffineQuantization quant18 = { (TfLiteFloatArray*)&quant18_scale, (TfLiteIntArray*)&g0::quant5_zero, 0 };
const MODEL_SECTION(EI_MODEL_SECTION) ALIGN(16) int32_t tensor_data19[16] = { -41634, -702, 3355, -6218, -1783, -9682, -14479, -42679, 8870, 32409, 30805, -5455, 556, -20978, 31871, -47792, };
const TfArray<16, float> quant19_scale = { 16, { 0.00059826223878189921, 0.00080605089897289872, 0.0010314440587535501, 0.0010187071748077869, 0.00074804498581215739, 0.00093438406474888325, 0.00097675458528101444, 0.00056371232494711876, 0.00057529250625520945, 0.00060643447795882821, 0.00080408935900777578, 0.00053593836491927505, 0.00098566676024347544, 0.0014313068240880966, 0.00050600443501025438, 0.00067545933416113257, } };
const TfLiteAffineQuantization quant19 = { (TfLiteFloatArray*)&quant19_scale, (TfLiteIntArray*)&g0::quant7_zero, 0 };
const MODEL_SECTION(EI_MODEL_SECTION) ALIGN(16) int8_t tensor_data20[16*1*1*48] = { 
  /* [0][0][][] */ -15,2,-16,13,18,-5,2,104,-56,17,38,-12,12,-11,-11,10,24,-22,-11,-12,57,-8,13,127,-22,89,0,-10,32,-18,33,-18,-16,48,32,-55,19,45,23,-13,-99,-21,20,41,38,25,-126,-44, 
  /* [1][0][][] */ -34,-8,28,11,-35,9,2,62,-60,-39,11,-45,-26,-1,-7,-6,-16,107,-14,19,0,0,-34,-15,24,-32,19,24,-18,-81,-36,21,-19,-4,36,-5,0,-39,6,15,-14,-30,127,9,17,-8,16,-8, 
  /* [2][0][][] */ -28,-9,-13,-34,-1,-61,3,-18,3,14,12,26,18,6,-11,9,-14,-16,-22,-19,-3,2,1,-127,-10,72,-8,5,-5,-17,7,-8,-8,50,4,-1,19,8,25,5,-40,4,-18,-2,-7,-3,16,3, 
  /* [3][0][][] */ -9,37,-3,-27,-1,0,2,-6,-18,-6,-2,41,-127,8,-6,0,2,5,-13,-2,-28,9,4,16,-5,-15,8,27,-8,18,8,20,2,7,15,20,-13,20,34,5,16,5,25,-25,-1,-10,8,15, 
  /* [4][0][][] */ 33,-28,10,10,29,36,21,-23,-29,5,-8,-21,-3,16,-12,11,25,-9,-79,8,-8,1,12,65,9,-30,7,57,4,-74,19,9,16,-39,30,-127,15,32,0,16,-21,23,14,-27,-4,-20,15,9, 
  /* [5][0][][] */ 30,5,-26,60,6,-3,12,34,3,-9,35,9,4,47,-6,3,-31,22,36,9,10,-3,6,-23,7,-63,6,-25,-11,-5,-1,21,75,-127,4,33,-18,-15,17,-1,-91,63,28,0,-10,3,-101,-16, 
  /* [6][0][][] */ 28,-1,10,5,-10,0,0,-12,-6,8,5,8,-19,8,1,-1,-10,-13,127,8,7,4,21,-34,0,3,25,-10,-9,-3,-2,14,2,-14,32,-40,7,-44,71,10,1,-4,-4,4,-13,-2,9,-14, 
  /* [7][0][][] */ -34,-18,-1,33,-16,76,-7,42,-6,31,-12,127,82,6,12,1,-4,-26,-10,-22,-30,-4,-16,72,-9,-19,-56,-34,-15,-23,-22,-26,4,2,-25,6,17,-66,98,7,19,23,-70,-74,16,-5,-5,-1, 
  /* [8][0][][] */ -47,-51,0,2,-11,4,-3,28,-4,-63,-7,39,51,2,-3,8,-4,60,-27,11,-45,16,-4,-16,-2,-12,14,47,-5,115,-1,31,-4,10,-26,-127,-117,71,30,24,24,-8,109,-17,5,26,24,35, 
  /* [9][0][][] */ -24,2,-7,37,18,-44,2,-7,70,-50,11,63,-56,-8,20,1,-12,23,-38,-16,63,1,-3,-19,-20,11,46,-36,15,-1,10,-5,-18,19,84,-114,-11,-127,-111,-3,-42,18,60,21,-12,16,-15,-45, 
  /* [10][0][][] */ -18,-7,-23,-127,43,87,12,-2,-3,28,13,13,46,-29,-48,17,33,-40,54,-28,32,-33,34,52,-32,-107,7,-33,49,34,46,-34,-25,-69,21,-3,13,-46,7,-36,-28,-63,-3,10,28,6,20,-33, 
  /* [11][0][][] */ -6,62,-16,77,25,-76,-103,-31,13,87,-38,-3,-3,48,5,-70,19,54,10,-15,-61,-101,18,3,11,-55,18,-22,53,-48,28,-111,37,-21,-50,-100,92,23,4,-127,1,78,103,-71,-27,-59,33,26, 
  /* [12][0][][] */ 127,-11,-8,15,12,17,3,85,22,-17,-61,-13,1,10,-12,-5,-7,8,-1,0,12,-10,7,20,-6,10,-12,5,3,15,6,0,2,-59,-8,9,-19,-10,-35,-5,-14,-74,0,-115,-53,-5,77,-12, 
  /* [13][0][][] */ 9,1,0,2,4,-12,1,1,-6,15,3,18,-6,6,3,-1,3,2,5,3,10,-13,9,-3,-2,1,17,127,12,-3,8,2,-2,-1,-40,22,11,-2,7,-14,-15,-6,7,5,-3,-1,-11,-9, 
  /* [14][0][][] */ 55,-20,54,-64,59,25,31,-74,-46,-43,0,127,-69,-9,59,13,39,26,-57,58,31,24,60,-8,35,61,-26,-102,24,-26,48,21,-11,73,-118,-52,-43,39,86,14,-36,6,45,3,5,0,3,-35, 
  /* [15][0][][] */ -4,-51,-60,-33,58,30,58,-59,-19,24,-7,-39,70,33,-93,51,44,46,74,-86,-108,-23,59,-21,-85,49,30,66,64,56,56,-44,26,59,98,127,-5,-99,-8,-32,94,61,119,-56,5,-37,-27,79, 
};
const TfArray<4, int> tensor_dimension20 = { 4, { 16,1,1,48 } };
const TfArray<16, float> quant20_scale = { 16, { 0.025426143780350685, 0.034257162362337112, 0.04383637011051178, 0.043295055627822876, 0.031791910529136658, 0.039711322635412216, 0.04151206836104393, 0.023957774043083191, 0.024449931457638741, 0.025773465633392334, 0.034173797816038132, 0.022777380421757698, 0.041890837252140045, 0.060830537229776382, 0.021505188196897507, 0.028707019984722137, } };
const TfLiteAffineQuantization quant20 = { (TfLiteFloatArray*)&quant20_scale, (TfLiteIntArray*)&g0::quant7_zero, 0 };
const MODEL_SECTION(EI_MODEL_SECTION) ALIGN(16) int32_t tensor_data21[48] = { 1736, 37793, -2043, 56590, 4387, 138473, -1161, 45012, 5328, 30447, 27324, 8272, 5394, 29422, 897, -3725, -949, 1743, 1678, -1490, 1712, -2361, -535, -17588, -4956, 43712, 127334, 94380, 3309, 3319, -2615, 110, 26477, -941, 28883, -9187, 45490, 1305, 49055, 644, -728, 56583, -1164, 1267, 45715, -109, 5295, 45813, };
const TfArray<1, int> tensor_dimension21 = { 1, { 48 } };
const TfArray<48, float> quant21_scale = { 48, { 8.5369327280204743e-05, 3.4386754123261198e-05, 0.00016466111992485821, 4.4964774133404717e-05, 0.00012766294821631163, 5.3601837862515822e-05, 0.00013677618699148297, 0.00013414950808510184, 7.3043040174525231e-05, 4.6947254304541275e-05, 5.1970535423606634e-05, 7.5115262006875128e-05, 3.7411045923363417e-05, 2.9773273126920685e-05, 0.0001652391511015594, 0.00015682642697356641, 0.00017475646745879203, 5.9963658713968471e-05, 0.00011600314610404894, 0.0001642729330342263, 7.1540933276992291e-05, 0.00018468000052962452, 8.8648397650104016e-05, 0.00012012651131954044, 0.00010594844934530556, 0.00010378922888776287, 2.882135595427826e-05, 8.0141326179727912e-05, 0.00012696369958575815, 0.00011400550283724442, 0.00010103645035997033, 0.00015174188592936844, 4.611516123986803e-05, 0.00012240810610819608, 3.0021066777408123e-05, 6.7922010202892125e-05, 0.00012874612002633512, 8.9141118223778903e-05, 0.00011912756599485874, 7.4149131251033396e-05, 0.00012057107232976705, 0.00010412208212073892, 0.0001044680320774205, 9.6209347248077393e-05, 2.8484819267760031e-05, 0.00017988099716603756, 8.1545957073103637e-05, 2.4887465770007111e-05, } };
const TfArray<48, int> quant21_zero = { 48, { 0,0,0,0,0,0,0,0,0,0,0,0,0,0,0,0,0,0,0,0,0,0,0,0,0,0,0,0,0,0,0,0,0,0,0,0,0,0,0,0,0,0,0,0,0,0,0,0 } };
const TfLiteAffineQuantization quant21 = { (TfLiteFloatArray*)&quant21_scale, (TfLiteIntArray*)&quant21_zero, 0 };
const MODEL_SECTION(EI_MODEL_SECTION) ALIGN(16) int8_t tensor_data22[1*3*3*48] = { 
  /* [0][0][][] */ 68,-95,97,71,52,-33,109,-67,60,-92,-82,47,52,-41,-72,-89,103,73,50,77,65,-71,-83,52,-32,-42,-60,-63,-66,61,-63,-114,-12,42,72,65,-64,54,-49,-23,50,-75,60,63,-96,10,77,-34, 80,-95,127,86,-76,-70,-57,-87,96,-103,-61,73,80,-112,-98,90,-37,92,86,127,84,-111,53,72,-52,-84,-66,-78,56,81,-30,-127,-86,80,85,82,-81,84,-82,-16,76,-94,84,90,-75,-127,94,-105, 36,-48,69,38,19,-42,-49,-39,45,-33,4,35,30,-80,-57,-2,-54,34,35,69,33,-51,33,26,-29,-50,-44,-23,32,31,90,-89,-83,45,38,35,-30,39,-37,-11,42,-40,35,45,-8,-9,36,-74, 
  /* [0][1][][] */ 94,-109,-41,91,54,-84,127,-92,86,-117,-71,82,84,-112,-14,-127,127,107,75,-37,80,107,-127,76,74,-76,-92,-99,-127,88,-67,-9,-85,70,106,96,-87,80,-81,88,85,-100,88,91,-91,106,95,-92, 127,-127,-63,127,-127,-127,-93,-127,127,-127,-127,127,127,-127,-24,95,-66,127,127,-51,127,127,69,127,127,-127,-127,-127,53,127,-27,16,-127,127,127,127,-127,127,-127,127,127,-127,127,127,-127,-11,127,-127, 65,-80,-34,69,37,-66,-50,-63,58,-44,-63,57,50,-54,-18,9,-62,50,60,-29,56,65,52,62,65,-69,-63,-45,37,55,127,14,-62,72,48,51,-49,61,-59,55,61,-57,55,63,-66,-67,61,-56, 
  /* [0][2][][] */ 46,-48,-46,54,26,-57,65,-43,43,-73,-8,41,55,-71,83,-80,71,49,35,-28,24,-10,-76,30,-24,-48,-48,-49,-72,31,-41,90,-78,40,47,45,-29,37,-42,-87,49,-53,41,46,-20,16,41,-76, 76,-71,-48,82,-55,-66,-74,-68,53,-79,-70,61,74,-47,127,32,-46,58,64,-40,54,-16,43,65,-48,-68,-77,-60,32,62,-25,116,-59,65,58,57,-50,62,-66,-105,69,-67,61,63,-84,50,63,-51, 45,-45,-29,52,27,-23,-19,-36,16,-25,-54,30,33,3,70,23,-36,21,28,-30,30,0,41,41,-24,-34,-50,-25,33,34,59,66,-1,36,15,24,-24,32,-29,-56,28,-35,26,30,-66,9,30,-1, 
};
const TfArray<4, int> tensor_dimension22 = { 4, { 1,3,3,48 } };
