/*
 * Copyright (c) 2026 EdgeImpulse Inc.
 *
 * Generated by Edge Impulse and licensed under the applicable Edge Impulse
 * Terms of Service. Community and Professional Terms of Service
 * (https://edgeimpulse.com/legal/terms-of-service) or Enterprise Terms of
 * Service (https://edgeimpulse.com/legal/enterprise-terms-of-service),
 * according to your product plan subscription (the “License”).
 *
 * This software, documentation and other associated files (collectively referred
 * to as the “Software”) is a single SDK variation generated by the Edge Impulse
 * platform and requires an active paid Edge Impulse subscription to use this
 * Software for any purpose.
 *
 * You may NOT use this Software unless you have an active Edge Impulse subscription
 * that meets the eligibility requirements for the applicable License, subject to
 * your full and continued compliance with the terms and conditions of the License,
 * including without limitation any usage restrictions under the applicable License.
 *
 * If you do not have an active Edge Impulse product plan subscription, or if use
 * of this Software exceeds the usage limitations of your Edge Impulse product plan
 * subscription, you are not permitted to use this Software and must immediately
 * delete and erase all copies of this Software within your control or possession.
 * Edge Impulse reserves all rights and remedies available to enforce its rights.
 *
 * Unless required by applicable law or agreed to in writing, the Software is
 * distributed on an "AS IS" BASIS, WITHOUT WARRANTIES OR CONDITIONS OF ANY KIND,
 * either express or implied. See the License for the specific language governing
 * permissions, disclaimers and limitations under the License.
 */
// Generated on: 26.05.2026 02:14:55

#include <stdio.h>
#include <stdlib.h>
#include "edge-impulse-sdk/tensorflow/lite/c/builtin_op_data.h"
#include "edge-impulse-sdk/tensorflow/lite/c/common.h"
#include "edge-impulse-sdk/tensorflow/lite/micro/micro_mutable_op_resolver.h"
#include "edge-impulse-sdk/porting/ei_classifier_porting.h"

#if EI_CLASSIFIER_PRINT_STATE
#if defined(__cplusplus) && EI_C_LINKAGE == 1
extern "C" {
    extern void ei_printf(const char *format, ...);
}
#else
extern void ei_printf(const char *format, ...);
#endif
#endif

#define STRINGIZE(x) #x
#define STRINGIZE_VALUE_OF(x) STRINGIZE(x)

#if defined (__GNUC__)  /* GNU compiler */
#define ALIGN(X) __attribute__((aligned(X)))
#define DEFINE_SECTION(x) __attribute__((section(x)))
#elif defined (_MSC_VER)
#define ALIGN(X) __declspec(align(X))
#elif defined (__TASKING__) /* TASKING Compiler */
#define ALIGN(X) __align(X)
#define DEFINE_SECTION(x) __attribute__((section(x)))
#elif defined (__ARMCC_VERSION) /* Arm Compiler */
#define ALIGN(X) __ALIGNED(x)
#define DEFINE_SECTION(x) __attribute__((section(x)))
#elif defined (__ICCARM__) /* IAR Compiler */
#define ALIGN(x) __attribute__((aligned(x)))
#define DEFINE_SECTION(x) __attribute__((section(x)))
#elif defined (__clang__) /* LLVM/Clang Compiler */
#define ALIGN(X) __ALIGNED(x)
#define DEFINE_SECTION(x) __attribute__((section(x)))
#endif

#if defined(EI_MODEL_SECTION) && (defined(__GNUC__) || defined(__clang__))
#define MODEL_SECTION(X) __attribute__((section(STRINGIZE_VALUE_OF(X))))
#else
#define MODEL_SECTION(X)
#endif

#ifndef EI_MAX_SCRATCH_BUFFER_COUNT
#ifndef CONFIG_IDF_TARGET_ESP32S3
#define EI_MAX_SCRATCH_BUFFER_COUNT 14
#else
#define EI_MAX_SCRATCH_BUFFER_COUNT 28
#endif // CONFIG_IDF_TARGET_ESP32S3
#endif // EI_MAX_SCRATCH_BUFFER_COUNT

#ifndef EI_MAX_OVERFLOW_BUFFER_COUNT
#define EI_MAX_OVERFLOW_BUFFER_COUNT 10
#endif // EI_MAX_OVERFLOW_BUFFER_COUNT

using namespace tflite;
using namespace tflite::ops;
using namespace tflite::ops::micro;

namespace {

#if defined(EI_CLASSIFIER_ALLOCATION_STATIC_HIMAX) || defined(EI_CLASSIFIER_ALLOCATION_STATIC_HIMAX_GNU)
constexpr int kTensorArenaSize = 154944;
#else
constexpr int kTensorArenaSize = 153920;
#endif

#if defined(EI_CLASSIFIER_ALLOCATION_STATIC)
#if defined (EI_TENSOR_ARENA_LOCATION)
uint8_t tensor_arena[kTensorArenaSize] ALIGN(16) DEFINE_SECTION(STRINGIZE_VALUE_OF(EI_TENSOR_ARENA_LOCATION));
#else
uint8_t tensor_arena[kTensorArenaSize] ALIGN(16);
#endif
#elif defined(EI_CLASSIFIER_ALLOCATION_STATIC_HIMAX)
#pragma Bss(".tensor_arena")
uint8_t tensor_arena[kTensorArenaSize] ALIGN(16);
#pragma Bss()
#elif defined(EI_CLASSIFIER_ALLOCATION_STATIC_HIMAX_GNU)
uint8_t tensor_arena[kTensorArenaSize] ALIGN(16) __attribute__((section(".tensor_arena")));
#else
#define EI_CLASSIFIER_ALLOCATION_HEAP 1
uint8_t* tensor_arena = NULL;
#endif

static uint8_t* tensor_boundary;
static uint8_t* current_location;

template <int SZ, class T> struct TfArray {
  int sz; T elem[SZ];
};

enum used_operators_e {
  OP_CONV_2D, OP_DEPTHWISE_CONV_2D, OP_ADD, OP_SOFTMAX,  OP_LAST
};

struct TensorInfo_t { // subset of TfLiteTensor used for initialization from constant memory
  TfLiteAllocationType allocation_type;
  TfLiteType type;
  void* data;
  TfLiteIntArray* dims;
  size_t bytes;
  TfLiteQuantization quantization;
};

typedef struct {
  TfLiteTensor tensor;
  int16_t index;
} TfLiteTensorWithIndex;

typedef struct {
  TfLiteEvalTensor tensor;
  int16_t index;
} TfLiteEvalTensorWithIndex;

TfLiteContext ctx{};
static const int MAX_TFL_TENSOR_COUNT = 4;
static TfLiteTensorWithIndex tflTensors[MAX_TFL_TENSOR_COUNT];
static const int MAX_TFL_EVAL_COUNT = 4;
static TfLiteEvalTensorWithIndex tflEvalTensors[MAX_TFL_EVAL_COUNT];
TfLiteRegistration registrations[OP_LAST];

namespace g0 {
const TfArray<4, int> tensor_dimension0 = { 4, { 1,96,96,3 } };
const TfArray<1, float> quant0_scale = { 1, { 0.0039215688593685627, } };
const TfArray<1, int> quant0_zero = { 1, { -128 } };
const TfLiteAffineQuantization quant0 = { (TfLiteFloatArray*)&quant0_scale, (TfLiteIntArray*)&quant0_zero, 0 };
const MODEL_SECTION(EI_MODEL_SECTION) ALIGN(8) int32_t tensor_data1[3] = { 14942, -23146, -23666, };
const TfArray<1, int> tensor_dimension1 = { 1, { 3 } };
const TfArray<3, float> quant1_scale = { 3, { 0.00034209521254524589, 0.00024426917661912739, 0.00023878108186181635, } };
const TfArray<3, int> quant1_zero = { 3, { 0,0,0 } };
const TfLiteAffineQuantization quant1 = { (TfLiteFloatArray*)&quant1_scale, (TfLiteIntArray*)&quant1_zero, 0 };
const MODEL_SECTION(EI_MODEL_SECTION) ALIGN(16) int8_t tensor_data2[3*1*1*32] = { 
  /* [0][0][][] */ 46,32,127,-42,-73,-9,20,13,-23,58,15,27,-27,-44,74,-10,-33,42,60,73,-69,-27,29,-53,-97,46,-63,-35,78,24,-16,66, 
  /* [1][0][][] */ 64,-42,-79,27,-17,127,-22,-9,123,-72,-1,-115,-59,101,36,-49,91,-48,-6,-92,-113,24,114,78,47,26,7,-7,-74,-56,-3,-76, 
  /* [2][0][][] */ -46,74,-88,79,88,-45,-33,116,95,28,127,-43,-98,-92,78,122,-86,-56,-5,-112,75,123,-68,-94,34,-74,-15,-112,0,-79,86,-45, 
};
const TfArray<4, int> tensor_dimension2 = { 4, { 3,1,1,32 } };
const TfArray<3, float> quant2_scale = { 3, { 0.0046539902687072754, 0.0033231284469366074, 0.0032484664116054773, } };
const TfLiteAffineQuantization quant2 = { (TfLiteFloatArray*)&quant2_scale, (TfLiteIntArray*)&g0::quant1_zero, 0 };
const MODEL_SECTION(EI_MODEL_SECTION) ALIGN(16) int32_t tensor_data3[32] = { 217, 170, 633, -193, -35, -77, 200, -29, -125, 514, -18, 1905, -489, -290, -162, -22, -187, -359, -316, -443, -336, -62, -173, -138, 247, 837, -598, 30, 435, 64, -244, 1846, };
const TfArray<1, int> tensor_dimension3 = { 1, { 32 } };
const TfArray<32, float> quant3_scale = { 32, { 5.3697654948337004e-05, 4.234708467265591e-05, 4.1815794247668236e-05, 4.3758831452578306e-05, 4.7422174247913063e-05, 4.9969450628850609e-05, 4.5732071157544851e-05, 4.4124841224402189e-05, 5.2296567446319386e-05, 6.0070444305893034e-05, 4.3712345359381288e-05, 5.092464925837703e-05, 4.697785698226653e-05, 4.5118678826838732e-05, 4.5269691327121109e-05, 4.5661407057195902e-05, 4.5332075387705117e-05, 4.2771887819981202e-05, 4.209704275126569e-05, 4.2090458009624854e-05, 4.0538525354349986e-05, 4.8151345254154876e-05, 4.4931606680620462e-05, 4.8941343266051263e-05, 5.4280371841741726e-05, 4.7967259888537228e-05, 5.1198374421801418e-05, 5.9078476624563336e-05, 4.1126921132672578e-05, 4.5423690608004108e-05, 4.1278184653492644e-05, 5.5624550441280007e-05, } };
const TfArray<32, int> quant3_zero = { 32, { 0,0,0,0,0,0,0,0,0,0,0,0,0,0,0,0,0,0,0,0,0,0,0,0,0,0,0,0,0,0,0,0 } };
const TfLiteAffineQuantization quant3 = { (TfLiteFloatArray*)&quant3_scale, (TfLiteIntArray*)&quant3_zero, 0 };
const MODEL_SECTION(EI_MODEL_SECTION) ALIGN(16) int8_t tensor_data4[32*1*1*96] = { 
  /* [0][0][][] */ -38,-46,95,6,65,-23,-65,-101,52,-80,-81,-1,43,17,-28,50,-42,-17,-68,-26,-49,-79,7,90,-127,13,73,-26,99,-20,-9,-86,78,-48,-57,60,-84,-64,-122,31,63,-61,-78,84,46,-80,85,-16,22,-41,-43,88,-56,-38,-72,110,21,55,90,-87,-46,69,-44,53,-14,20,59,85,18,76,72,-92,89,-63,18,74,-68,13,-42,29,51,24,75,7,-40,-27,-63,89,29,102,-16,-118,18,12,21,14, 
  /* [1][0][][] */ -54,38,-69,1,-72,70,44,15,90,-109,-103,117,57,-29,33,65,111,-41,55,89,-46,1,39,33,44,18,-39,116,3,-18,102,-66,55,108,-24,-1,47,68,-2,-62,-59,13,-23,-103,-34,26,-21,-50,-23,-106,91,51,14,85,-79,-70,23,99,54,83,-69,118,-76,-82,-67,33,84,46,93,22,18,17,-116,78,-50,50,68,-45,-38,70,-81,68,-41,-127,30,118,-68,-79,84,77,108,14,75,106,7,-17, 
  /* [2][0][][] */ 38,44,-27,111,33,-59,100,119,-99,98,-27,111,72,-10,106,-103,-54,-29,56,12,-112,0,127,33,41,85,111,37,-67,53,89,111,-77,-16,-77,-94,-68,97,123,-26,-121,-78,28,14,-73,127,-32,-74,106,6,96,-111,-33,60,28,17,-89,74,-48,16,-40,84,-69,34,91,55,66,87,-80,81,-7,-87,29,-50,27,54,-64,-11,14,9,36,-86,-25,-51,10,-99,-19,-31,81,117,-21,-5,-46,-107,-47,-65, 
  /* [3][0][][] */ 79,0,27,-35,-112,45,-106,23,39,12,64,-3,98,99,73,-4,107,105,-67,73,127,-87,-68,-111,-47,-90,-70,105,48,-89,82,13,-56,-33,-26,-25,-102,-17,25,59,-18,-86,-100,-9,70,27,-40,-81,65,-82,53,17,87,31,98,-88,-105,-119,-123,-62,-71,19,-1,95,59,-36,-62,-19,-23,-75,1,114,27,-106,73,-57,38,91,98,-75,-79,-123,60,96,26,54,-47,-118,-66,46,24,-97,108,-77,-88,42, 
  /* [4][0][][] */ 57,107,-23,42,-54,-10,33,2,57,66,-8,73,20,-29,-13,-65,-14,4,-43,26,116,-81,80,29,-31,-8,60,-58,-52,-9,-68,-53,65,106,-9,-113,-47,4,-102,45,-36,-44,-76,-92,26,85,46,57,25,-56,-19,-58,-77,44,-76,5,43,-74,7,14,18,-70,-11,-55,-47,47,3,-33,-2,-109,-72,-56,-36,-23,118,43,46,-17,-4,-44,10,-49,-63,-26,-3,71,86,-7,-90,-70,58,39,22,127,-109,-35, 
  /* [5][0][][] */ 83,-84,61,58,51,-107,22,40,87,-99,-2,-59,28,88,22,36,55,56,-82,118,37,42,15,-26,-127,-50,-9,-79,53,36,19,-96,-23,1,-50,22,-98,-32,26,23,-75,-42,35,81,-31,26,30,-44,-89,105,22,42,39,15,31,-4,102,57,-48,-34,44,-60,47,-39,-19,88,-27,33,62,3,98,-53,-30,68,-30,-65,26,-43,11,70,98,44,30,108,-68,74,0,37,68,-81,95,78,-6,5,65,-62, 
  /* [6][0][][] */ 13,-41,120,82,-65,-49,5,67,-3,-67,8,-72,73,60,118,-106,45,6,7,58,-75,-102,111,62,-33,-79,-3,-39,-22,-127,52,-69,-77,-107,-20,-99,3,39,-97,77,82,58,27,-10,-100,95,-87,-36,-71,6,-29,-64,62,-48,83,-29,9,-12,-62,114,-106,14,47,-84,-43,61,105,-48,79,3,-99,-1,50,-68,-73,-27,-83,-84,-47,-24,31,-20,36,-37,-61,-80,-34,-98,79,88,98,10,-48,-55,66,-17, 
  /* [7][0][][] */ 122,74,-54,-46,-104,103,-16,-5,115,-5,-93,29,50,-85,44,67,53,19,4,112,63,34,-6,87,-80,93,41,46,-86,59,-26,27,21,25,45,70,-110,93,-10,-25,99,-68,74,60,47,-12,112,-106,52,-79,-127,-59,-28,86,22,22,116,-84,-6,-58,20,-16,94,-115,-71,-56,66,25,-124,2,69,93,91,-19,71,50,-74,52,-96,41,91,-45,-3,-81,82,37,-105,84,88,6,94,52,-57,-26,-24,-85, 
  /* [8][0][][] */ 14,26,-49,-84,55,12,-62,-26,3,27,36,86,13,-34,-76,-61,-54,81,-65,50,37,-23,65,90,-127,79,40,57,-51,24,-75,85,83,-27,35,-9,92,5,-23,61,70,90,-96,-102,-13,-23,-13,90,18,-66,-55,15,-50,-6,-24,-80,48,102,-83,83,112,28,57,107,-19,-38,-21,89,-81,35,37,11,74,44,12,11,-26,85,68,59,34,69,-80,-63,20,38,65,-34,41,-29,-68,83,-59,-80,-43,47, 
  /* [9][0][][] */ 2,15,94,53,65,-82,-23,-75,43,63,6,55,-26,-54,-54,0,12,5,-47,-58,-6,85,-69,-66,127,-2,-1,24,-4,-40,-58,105,33,4,23,-4,-42,21,-4,-23,44,-39,52,-38,74,28,-64,51,38,4,-48,-35,57,-54,-38,72,49,-43,22,11,-76,105,42,-67,-36,25,89,36,-15,83,70,-64,-5,79,-81,-58,-64,-77,-19,75,34,25,58,23,-15,-64,36,8,66,28,-17,90,89,19,53,-23, 
  /* [10][0][][] */ -54,88,73,-71,-43,93,108,21,38,20,25,-55,92,82,-36,7,-32,83,-96,-54,-7,28,55,-65,17,48,-114,-121,-59,33,-99,-90,82,100,99,44,-47,14,-34,36,-29,121,-121,-44,-99,-66,8,-56,-1,-28,16,21,58,23,-58,-42,-95,-10,19,-47,12,66,127,38,114,-77,-96,-19,1,-42,-86,-54,94,20,-69,99,-22,62,67,18,78,-9,72,94,-102,71,101,-32,45,9,4,-82,-53,-34,-65,-88, 
  /* [11][0][][] */ 104,32,41,122,112,75,77,77,112,127,-32,103,-6,-51,87,-24,-20,-73,94,-7,16,107,56,-56,-11,-66,-1,90,79,-2,46,30,-80,-35,62,54,-16,82,19,-39,-6,102,-26,58,3,-20,-68,-49,81,99,106,41,-54,-66,36,19,-60,-50,26,-31,-92,121,47,-23,45,109,-1,21,114,75,-65,-64,42,111,-57,89,-57,68,-11,80,-83,-1,-59,-44,74,-51,28,0,-84,17,33,-89,-62,-8,-9,-21, 
  /* [12][0][][] */ 0,50,-61,-7,58,-2,-44,22,-78,44,-26,2,-48,-1,34,-85,-104,-42,-57,-83,11,-21,3,77,-68,-59,78,-103,71,-2,-44,99,-90,-75,-52,2,-16,-79,-25,26,94,24,-113,-48,-28,-87,-47,95,-52,-127,-78,82,18,-8,-86,68,-30,-69,42,48,39,93,-25,38,87,19,-53,92,34,80,24,53,63,100,-27,-17,-48,20,-119,-91,-66,81,32,0,-45,16,36,93,-98,-109,70,33,78,-24,19,61, 
  /* [13][0][][] */ 104,-65,93,77,91,91,71,43,63,-100,5,-37,98,70,55,-48,-116,-62,-81,63,68,-34,106,-56,-96,51,9,19,-68,-64,86,28,56,97,-13,43,-88,-31,1,67,-61,68,-58,3,-40,33,-6,-32,43,127,-26,-91,-98,28,98,-57,-42,26,-17,-80,-13,110,-70,41,-51,-63,-97,89,-24,-18,85,-3,-85,45,-83,-48,-81,54,74,-63,55,-80,95,39,-78,-97,84,116,-5,-45,-73,61,118,-67,73,-6, 
  /* [14][0][][] */ -84,-93,81,63,60,-54,-18,-112,-75,-40,64,79,-34,-90,-88,-89,-55,-58,-6,24,-44,28,-8,55,-110,-68,-33,26,-112,-127,-77,39,93,-27,-41,-4,85,111,32,-109,-5,-105,35,80,64,-106,61,-81,105,30,64,31,78,-27,-15,12,-60,5,37,76,-25,-81,-43,63,-101,-11,69,-107,-83,-86,-97,89,-8,78,45,-74,43,-109,50,26,44,-24,-119,-37,-111,-93,-120,103,101,5,81,-56,74,96,-22,35, 
  /* [15][0][][] */ 27,-15,-42,72,58,-84,63,-92,61,-10,-63,20,94,3,-80,-109,86,13,-79,-2,53,21,69,108,79,58,37,78,2,27,54,-96,0,11,-76,-34,-69,117,110,-61,23,113,-52,-28,23,-85,-25,-71,-6,-103,-18,29,-98,-91,-47,-29,66,52,-50,104,-42,-71,12,83,-35,90,-63,3,-70,-8,64,-58,22,-50,70,-106,-22,54,101,75,-77,44,-88,-75,-116,-30,-84,26,87,64,-93,-48,44,127,-119,89, 
  /* [16][0][][] */ -72,-4,96,-69,65,104,-56,29,41,49,-106,67,0,-40,-59,-51,104,79,49,102,113,70,-37,44,-65,61,-59,64,-77,38,49,7,-84,72,68,78,-28,47,-59,-65,20,-46,70,87,59,110,89,-14,-48,-78,17,120,-31,112,64,66,32,94,65,13,127,105,39,84,61,17,-42,93,47,103,-24,-9,34,99,52,82,14,92,-104,-7,22,-64,59,34,15,97,101,20,82,20,-20,115,81,-46,-66,38, 
  /* [17][0][][] */ 29,-115,18,76,-12,-109,-74,-106,33,-98,79,44,95,54,-122,42,24,48,102,101,-102,-22,7,-59,31,58,-88,16,99,-71,-44,66,-29,-31,30,3,-57,97,-95,-41,-101,-48,-28,-15,1,4,83,-119,84,91,-21,18,-31,71,91,-85,-127,78,-87,-121,27,-98,69,81,-95,-82,35,-117,-119,-13,100,22,9,-122,-64,55,102,-56,33,-63,0,-16,-85,-109,-123,67,74,-42,11,71,-108,-123,-20,90,6,6, 
  /* [18][0][][] */ -89,95,105,-41,-1,-104,-112,2,-7,71,-114,-53,-39,28,56,-63,14,-31,81,-23,96,-53,15,-86,35,-103,-22,107,22,37,-6,42,38,-32,-105,-114,-40,29,-39,60,-48,-8,-42,-15,-121,12,20,-11,10,-24,70,27,-114,-1,-2,83,-38,29,-16,-127,82,103,19,36,-63,-124,-38,103,71,-64,-77,104,-102,-43,-98,-111,53,49,-8,-68,-64,-12,-33,-71,97,-42,64,65,-116,-80,-59,111,84,-51,46,-11, 
  /* [19][0][][] */ 15,24,71,33,61,-90,90,88,85,-66,23,-27,-98,27,-62,54,67,-114,109,52,-29,75,-63,7,79,-86,23,-73,-99,-127,-71,43,75,-90,27,-4,1,-75,-60,-108,39,-123,-88,6,-93,25,72,-101,-35,20,-44,39,-37,9,3,-14,18,92,4,-34,49,-56,96,57,-74,-9,-33,-7,-15,51,68,-55,-69,-123,-60,-88,-29,-121,8,100,51,-121,-35,72,-94,-13,0,-11,84,23,-9,61,-39,108,64,-51, 
  /* [20][0][][] */ -26,79,69,100,-108,113,18,51,16,2,-105,18,-11,85,36,-91,-55,-42,-41,-65,20,-49,-82,-76,83,-88,-115,55,15,6,-56,114,101,38,-32,39,43,-44,-14,-126,-98,-38,-111,-122,-42,-89,-84,106,61,-123,-127,26,48,106,48,-22,105,73,94,90,102,-53,-91,-39,-38,-86,-53,3,-112,-100,-58,87,-74,-115,41,20,99,82,111,115,81,-12,90,-50,51,113,-22,57,17,86,48,60,6,59,-21,-25, 
  /* [21][0][][] */ 90,73,45,-97,68,-83,67,4,1,-69,-65,52,5,35,-50,-86,-91,-22,19,15,108,-46,61,-73,29,-83,-28,57,6,-12,-13,-31,8,19,-105,-122,91,93,-111,-27,-1,15,13,-22,-87,-80,-62,85,-17,-68,-19,88,29,63,-82,21,-37,53,-61,103,66,-80,30,-6,70,25,-35,-57,-127,-23,60,83,37,-44,73,52,-99,-30,56,95,17,84,46,-66,19,-82,58,-81,-82,70,107,-115,-41,-42,43,-50, 
  /* [22][0][][] */ 43,-53,-74,-112,66,-74,91,58,-94,85,-76,-94,111,-103,-113,-91,35,82,-112,-30,94,-85,27,27,52,-13,-118,92,-57,-92,-66,-106,59,64,27,27,0,-12,-56,-121,3,-14,0,94,59,-105,88,-21,-54,-92,24,-18,-57,-77,-53,44,7,-27,-59,-35,116,-87,-65,-120,-75,20,-127,-52,107,100,-27,2,-73,15,72,-92,35,-54,56,96,109,-91,-64,-113,76,82,92,-28,-46,38,-101,55,31,20,-19,102, 
  /* [23][0][][] */ 37,-95,-1,35,104,-98,-1,-100,37,-70,75,53,13,-94,-1,-31,77,-31,-109,88,80,-76,91,-35,-31,-23,71,11,68,79,63,-38,-28,33,31,29,93,-23,-127,0,-102,-7,2,-91,-84,-74,87,15,65,-80,-72,-20,78,-56,-60,70,-71,-12,85,40,-79,-82,-43,-5,36,34,-109,-100,40,-19,110,-75,11,-39,-46,-86,72,-19,79,91,-50,-25,13,-71,78,3,100,-4,-82,43,79,-9,92,-77,-12,68, 
  /* [24][0][][] */ -44,-29,-77,-111,-105,-127,-66,-51,24,91,74,16,80,58,-21,-96,-58,29,13,-32,78,-62,-37,-30,13,6,57,42,84,-29,15,-65,-11,13,6,42,-36,-58,81,-12,-51,-84,90,22,31,-11,43,61,-79,-62,-30,1,40,52,66,-36,-22,64,-13,4,83,3,61,85,-62,73,-39,-77,-106,50,-68,-27,-25,47,90,83,27,-54,-90,-64,-68,-55,-47,-86,7,60,-2,-100,19,-80,-15,-109,-2,3,-70,43, 
  /* [25][0][][] */ -79,-58,-11,28,127,-64,-76,80,50,-64,-16,36,73,6,-63,6,-57,58,29,-89,48,98,3,-40,57,-24,-65,73,96,-101,53,95,95,-102,104,96,112,-58,3,-1,-76,95,-65,32,109,55,53,36,-84,103,-68,3,53,-31,-33,58,-35,39,-64,81,99,65,39,59,9,90,9,18,-58,46,-27,-107,35,-45,44,51,90,79,28,30,48,62,-65,83,-49,-32,-83,-58,-31,-33,104,-1,-97,-55,-9,-11, 
  /* [26][0][][] */ 40,-102,-36,-21,-64,20,-20,-22,-90,-116,77,70,-47,-46,-9,-19,88,23,-83,27,12,48,74,0,13,65,1,31,13,127,-82,10,-10,-58,-82,-55,-64,61,-44,86,-90,80,45,15,-74,71,-45,78,-19,79,50,86,9,-40,-14,-83,90,61,37,14,1,-95,61,13,99,-20,-59,43,-80,69,76,80,62,-35,-77,-2,67,-100,-89,33,-24,71,65,-35,59,-4,-43,21,-70,86,11,70,-49,113,69,84, 
  /* [27][0][][] */ 14,7,-29,-70,-79,-16,-54,-9,31,90,28,-57,12,44,60,-16,49,-11,46,-50,-68,5,-16,-17,-73,50,-76,0,59,127,-10,3,56,52,-48,-29,-47,-47,-81,63,-68,11,28,29,74,31,47,73,71,116,60,-62,-60,-60,-1,-9,86,-17,-49,-53,-47,-25,-29,53,44,-27,-83,74,55,19,-80,3,38,-8,-5,-55,33,-43,63,74,66,-12,77,-26,-47,-55,-24,34,-38,-2,-39,-30,46,11,78,57, 
  /* [28][0][][] */ 75,-7,120,69,-86,-32,-87,-39,-33,-51,72,98,-62,-86,15,121,108,111,2,65,-39,42,-104,-64,-81,90,-101,-23,-37,-65,-8,1,-107,16,109,75,43,-118,46,38,103,40,-88,67,-122,-12,9,58,31,-39,-95,-12,-78,17,89,29,62,-7,127,71,-10,-1,-107,3,90,90,-1,106,-64,35,-93,-55,78,67,2,-84,-89,-54,-78,44,-86,-81,119,-40,67,-122,74,-71,-115,-68,-1,-49,-36,70,-80,-73, 
  /* [29][0][][] */ 49,52,70,-43,-75,21,-111,19,90,-1,-81,-106,97,-99,-36,-40,-94,93,39,-83,-81,-29,54,6,3,10,-43,-20,-97,2,104,18,45,5,-70,-35,-5,97,0,89,44,96,-34,88,9,107,-53,-24,17,-17,62,-98,66,-91,113,42,-96,39,-34,105,-127,102,-103,-61,-49,-55,52,80,113,-71,19,-78,94,90,53,31,104,-56,-28,30,-7,-76,-20,-68,64,109,39,81,-45,92,60,95,-98,10,9,62, 
  /* [30][0][][] */ 25,-74,-71,30,-102,23,-74,-20,112,-18,-7,-45,-104,14,53,11,-9,32,94,-108,42,-111,-122,8,-118,19,-78,115,-15,-113,-99,3,-87,-79,-127,-59,12,-24,-8,19,87,-83,-20,98,101,-48,103,56,-77,77,17,-108,96,-58,-17,100,-85,-58,-85,-59,-110,-7,-77,-30,-112,-96,-105,89,-65,108,49,-37,-93,103,40,-95,-62,-78,-85,-68,25,27,-110,-24,-117,25,-115,110,-41,-127,75,56,-37,-8,7,-77, 
  /* [31][0][][] */ 66,-58,96,122,39,84,-11,-33,-8,23,-28,-43,62,-79,26,127,-18,-51,80,-14,34,78,16,118,114,-57,49,66,-32,-56,65,120,14,39,-27,8,122,-7,-2,-70,63,-44,15,76,34,-29,-19,47,73,55,46,-36,-37,-35,-34,10,-92,51,102,126,-76,59,39,-75,69,119,18,-62,84,-62,-87,-8,-55,-13,18,57,-52,7,67,68,-51,-28,17,40,79,89,-50,31,3,-13,-18,-52,-6,85,20,3, 
};
const TfArray<4, int> tensor_dimension4 = { 4, { 32,1,1,96 } };
const TfArray<32, float> quant4_scale = { 32, { 0.0022821503225713968, 0.0017997510731220245, 0.0017771712737157941, 0.0018597503658384085, 0.0020154423546046019, 0.0021237016189843416, 0.0019436130532994866, 0.0018753057811409235, 0.0022226041182875633, 0.0025529938284307718, 0.0018577746814116836, 0.002164297504350543, 0.0019965588580816984, 0.0019175438210368156, 0.0019239619141444564, 0.0019406097708269954, 0.001926613156683743, 0.0018178052268922329, 0.0017891243332996964, 0.0017888444708660245, 0.0017228872748091817, 0.0020464321132749319, 0.0019095932366326451, 0.0020800069905817509, 0.002306915819644928, 0.0020386085379868746, 0.0021759308874607086, 0.0025108351837843657, 0.0017478941008448601, 0.0019305067835375667, 0.0017543227877467871, 0.0023640433792024851, } };
const TfLiteAffineQuantization quant4 = { (TfLiteFloatArray*)&quant4_scale, (TfLiteIntArray*)&g0::quant3_zero, 0 };
const MODEL_SECTION(EI_MODEL_SECTION) ALIGN(16) int32_t tensor_data5[96] = { -2155, 3364, 12760, 2429, -4494, -3047, 17759, 1890, 2307, -1503, 9257, -245, -9345, 2205, 14652, 8286, 16095, 5415, -4837, -4301, 4740, 25789, 22564, 15636, 1633, 1013, 4706, 3245, 2470, -4530, 5773, -2018, -287, 5502, 31, 803, 8286, 4331, -1463, 4517, 7534, 4744, 5257, 13541, 4143, 4618, 2040, 9421, 5908, -4448, -6468, 307, -292, -1710, 1801, -19, 248, -1025, -4454, 12946, -1031, 1411, -1100, -1673, -4258, 7644, 27681, 1786, -2559, 810, 1369, 2345, 1620, -1023, 598, 12122, -490, 17053, 14338, -849, 8801, 1477, -608, 1202, 16371, 9716, 4743, 1169, 6309, 5257, -395, -7160, 549, -2012, -1907, -2173, };
const TfArray<1, int> tensor_dimension5 = { 1, { 96 } };
const TfArray<96, float> quant5_scale = { 96, { 0.00029242620803415775, 0.00047706349869258702, 0.00018769403686746955, 0.00037492788396775723, 0.00023448542924597859, 0.00048707635141909122, 0.00018755048222374171, 0.00038210512138903141, 0.00026299888850189745, 0.00041630773921497166, 0.00021227022807579488, 0.0002716768067330122, 0.00027651607524603605, 0.0012575651053339243, 0.00021226797252893448, 0.00014371935685630888, 0.00011526876915013418, 0.00026546750450506806, 0.00040061312029138207, 0.00038868433330208063, 0.00012852199142798781, 0.0001064048265106976, 0.00013613734336104244, 0.00010577549983281642, 0.00015776780492160469, 0.00047693203669041395, 0.00063768180552870035, 0.00033855720539577305, 0.00021058786660432816, 0.00042881301487796009, 0.00025859521701931953, 0.00037516659358516335, 0.00018018472474068403, 0.00020992541976738721, 0.00041315690032206476, 0.00027920544380322099, 0.00023029613657854497, 0.00025350425858050585, 0.00033793880720622838, 0.00038784625940024853, 0.00016515277093276381, 0.00054458912927657366, 0.00029118300881236792, 0.00017144305456895381, 0.00046848240890540183, 0.0002230501122539863, 0.00025082149659283459, 0.00022099385387264192, 0.00023549290199298412, 0.00027977465651929379, 0.00024536260752938688, 0.00022058452304918319, 0.00053295231191441417, 0.00019730380154214799, 0.00043526425724849105, 0.00033564516343176365, 0.00039629335515201092, 0.00027132531977258623, 0.00034616570337675512, 0.0001424452057108283, 0.00071759929414838552, 0.00047747045755386353, 0.00023863569367676973, 0.00046921760076656938, 0.00043581076897680759, 0.0002573688980191946, 7.9640900366939604e-05, 0.0002124922611983493, 0.00044556029024533927, 0.00038986268918961287, 0.00026935036294162273, 0.00020492111798375845, 0.00082102010492235422, 0.00039462302811443806, 0.00029632597579620779, 0.0001805537031032145, 0.00030587334185838699, 0.00010966885020025074, 0.00012715042976196855, 0.0002253372804261744, 0.00016544526442885399, 0.00020920723909512162, 0.0001460333151044324, 0.00021258098422549665, 0.00011325789819238707, 0.0002409771695965901, 0.00048657468869350851, 0.00022886227816343307, 0.00011251950490986928, 0.00039461904088966548, 0.00024974936968646944, 0.00027758534997701645, 0.0003199619532097131, 0.00052344327559694648, 0.0003294695052318275, 0.00019915863231290132, } };
const TfArray<96, int> quant5_zero = { 96, { 0,0,0,0,0,0,0,0,0,0,0,0,0,0,0,0,0,0,0,0,0,0,0,0,0,0,0,0,0,0,0,0,0,0,0,0,0,0,0,0,0,0,0,0,0,0,0,0,0,0,0,0,0,0,0,0,0,0,0,0,0,0,0,0,0,0,0,0,0,0,0,0,0,0,0,0,0,0,0,0,0,0,0,0,0,0,0,0,0,0,0,0,0,0,0,0 } };
const TfLiteAffineQuantization quant5 = { (TfLiteFloatArray*)&quant5_scale, (TfLiteIntArray*)&quant5_zero, 0 };
const MODEL_SECTION(EI_MODEL_SECTION) ALIGN(16) int8_t tensor_data6[96*1*1*16] = { 
  /* [0][0][][] */ -8,93,-6,-127,-49,-35,-49,-80,-36,15,-7,68,15,-65,-28,66, 
  /* [1][0][][] */ -11,14,-55,-16,-40,-37,23,-67,39,59,-81,36,-2,-7,54,-127, 
  /* [2][0][][] */ -17,32,-33,59,62,35,-65,-63,122,-58,-11,-16,-19,127,-72,45, 
  /* [3][0][][] */ 27,-61,4,-79,22,-24,-21,-14,125,-38,93,41,-14,45,-5,127, 
  /* [4][0][][] */ -94,93,3,71,-20,-35,23,87,-19,59,-4,-31,-127,-14,-3,62, 
  /* [5][0][][] */ 20,33,104,4,11,46,-101,68,-38,65,-46,16,22,-48,-127,34, 
  /* [6][0][][] */ 72,-70,117,-127,31,-12,-56,94,-79,-85,35,-1,-17,80,-12,61, 
  /* [7][0][][] */ 19,122,-20,-49,90,10,-20,-49,127,82,-27,42,17,-15,62,44, 
  /* [8][0][][] */ 16,-82,9,-86,18,-55,23,-56,17,62,55,-11,10,127,83,61, 
  /* [9][0][][] */ 14,-20,0,127,54,-2,34,-50,-38,80,29,-19,-16,-44,-23,-5, 
  /* [10][0][][] */ -12,49,-59,-127,16,-17,7,43,20,-43,6,-58,7,-43,-7,32, 
  /* [11][0][][] */ 13,-1,34,-22,71,-20,95,-53,-90,61,-19,53,-9,127,-60,-22, 
  /* [12][0][][] */ 77,-5,-94,-1,59,-41,9,-2,42,45,-59,-34,-53,127,-32,37, 
  /* [13][0][][] */ -8,3,-16,9,-1,-127,-6,21,-7,-6,2,7,13,-1,11,16, 
  /* [14][0][][] */ 12,-23,104,-14,70,23,-127,-98,10,-46,58,16,14,-52,-35,-31, 
  /* [15][0][][] */ -93,52,-1,-40,7,13,127,51,-16,28,91,-48,8,80,45,3, 
  /* [16][0][][] */ 42,85,122,79,-25,-12,110,95,-127,26,-107,-52,37,6,15,-75, 
  /* [17][0][][] */ -29,-85,-13,23,-64,-30,-50,18,-127,-25,0,-57,1,36,51,-28, 
  /* [18][0][][] */ -4,44,12,81,55,28,26,-9,88,62,-15,-48,4,127,65,21, 
  /* [19][0][][] */ 31,-11,20,22,78,2,-95,-64,-127,-54,-68,-92,-26,-89,38,11, 
  /* [20][0][][] */ 85,-20,-52,-53,6,-84,23,43,-95,41,-127,-36,23,5,22,-4, 
  /* [21][0][][] */ 17,7,60,0,17,28,21,54,25,-105,127,9,-30,97,26,54, 
  /* [22][0][][] */ 0,39,-64,127,-67,-13,101,88,-39,39,-42,21,7,-6,39,33, 
  /* [23][0][][] */ 127,-10,58,-112,38,-26,3,45,-27,35,-28,-11,10,-47,-114,50, 
  /* [24][0][][] */ -127,33,10,-33,4,94,23,-34,-12,6,110,-8,-95,16,72,-38, 
  /* [25][0][][] */ 26,29,15,10,8,-1,55,-41,-15,-127,-26,-30,-8,-37,19,29, 
  /* [26][0][][] */ -42,13,-10,9,-56,-15,-45,-41,-127,-49,6,-60,10,127,-47,46, 
  /* [27][0][][] */ 0,22,17,60,34,-30,-20,-26,52,13,-29,6,3,127,-4,14, 
  /* [28][0][][] */ 13,71,69,68,127,-2,36,45,-85,-27,-31,-23,10,102,38,-35, 
  /* [29][0][][] */ 8,11,9,9,21,-18,12,51,-33,-15,-30,-127,12,-23,-11,7, 
  /* [30][0][][] */ -39,82,-48,78,-31,-5,34,-127,-22,41,4,-12,57,30,66,81, 
  /* [31][0][][] */ -44,-21,-18,-62,-4,6,-24,-96,25,54,-3,-127,-37,-27,10,6, 
  /* [32][0][][] */ -109,-74,-6,51,41,23,-16,18,-24,-38,-127,53,63,-1,71,72, 
  /* [33][0][][] */ 3,-43,-39,-17,-99,-22,-82,10,42,26,-4,-45,37,-109,127,37, 
  /* [34][0][][] */ 56,1,58,19,37,11,-34,84,-88,-47,55,3,14,-17,-15,127, 
  /* [35][0][][] */ -45,72,-74,31,9,-19,52,-121,87,72,-101,-4,-4,5,58,-127, 
  /* [36][0][][] */ 8,27,-3,97,-6,19,127,43,-32,65,-37,4,-14,15,-56,-10, 
  /* [37][0][][] */ 32,-15,32,-76,-1,-4,-40,-46,-73,-11,-9,13,-20,-127,53,-43, 
  /* [38][0][][] */ 76,99,-20,-45,127,-5,51,-39,110,83,-28,-20,25,-25,60,10, 
  /* [39][0][][] */ -30,69,-18,-127,-9,-5,-36,28,29,-78,-37,-32,23,66,36,42, 
  /* [40][0][][] */ 47,-24,39,-97,12,-14,-14,-50,-127,-6,-24,-10,-21,-112,71,-59, 
  /* [41][0][][] */ -5,-25,-46,-25,0,-33,19,-4,-36,12,-56,-2,-127,0,34,40, 
  /* [42][0][][] */ 120,127,-27,-20,-64,-56,-10,-73,19,23,124,-82,-58,62,99,-118, 
  /* [43][0][][] */ -83,127,-86,1,99,-27,127,-77,92,87,-28,-27,52,-126,-93,-88, 
  /* [44][0][][] */ -61,-13,20,-54,56,-5,-97,-127,-12,-1,13,-10,8,-31,76,-67, 
  /* [45][0][][] */ -63,61,-127,-38,42,-91,29,-109,32,26,9,-96,32,22,55,-52, 
  /* [46][0][][] */ 5,6,-30,-80,-13,3,30,-24,-127,-17,-1,-4,4,-125,65,-26, 
  /* [47][0][][] */ 29,43,23,-19,127,-20,-20,26,-71,57,-18,26,12,18,122,-31, 
  /* [48][0][][] */ -127,-98,-21,31,51,23,6,-16,8,-11,-99,61,54,1,85,34, 
  /* [49][0][][] */ -2,-15,71,41,86,-21,41,57,-127,-64,-37,-78,20,89,45,-63, 
  /* [50][0][][] */ 9,-18,-95,-4,46,-127,-39,-15,16,-13,-2,-61,47,-36,-18,-25, 
  /* [51][0][][] */ 38,41,27,21,16,-17,6,31,-127,41,-30,-105,12,-88,-15,107, 
  /* [52][0][][] */ 4,71,-2,65,48,13,25,23,73,79,-23,-40,28,127,54,9, 
  /* [53][0][][] */ 12,-53,-16,-24,-91,-9,-80,14,31,24,-1,-47,19,-120,127,30, 
  /* [54][0][][] */ 42,-6,-43,17,127,67,-119,-40,-69,-13,-22,-87,-11,-18,-18,-58, 
  /* [55][0][][] */ 35,-22,7,4,44,-23,-64,-127,-9,-83,-33,25,-15,-14,5,-18, 
  /* [56][0][][] */ -11,7,17,-32,-16,-37,-87,70,-24,127,-18,-5,26,0,6,13, 
  /* [57][0][][] */ 1,28,-55,-7,-33,-43,127,78,-23,27,-20,-24,20,27,95,3, 
  /* [58][0][][] */ 29,23,-127,43,95,120,-25,49,-102,-23,18,12,-32,24,8,-20, 
  /* [59][0][][] */ -81,59,111,16,-80,-51,118,127,19,10,29,0,3,12,72,2, 
  /* [60][0][][] */ 20,14,-59,-6,21,-127,-6,26,-46,-20,-25,-52,41,-2,7,-4, 
  /* [61][0][][] */ 4,6,33,127,82,31,13,9,-78,-23,26,28,-16,15,30,-51, 
  /* [62][0][][] */ -35,127,10,-55,-38,-26,-57,70,-27,-80,-101,-55,-6,-91,-52,-12, 
  /* [63][0][][] */ -48,34,-32,127,-57,10,-69,-42,-84,-70,-47,-65,14,80,30,42, 
  /* [64][0][][] */ 8,4,11,59,9,17,3,85,49,-5,-21,-78,-14,-127,56,-24, 
  /* [65][0][][] */ -28,-45,6,-117,58,-22,71,-49,24,44,49,-127,-18,-8,-16,-65, 
  /* [66][0][][] */ 16,-33,102,-25,16,33,-12,104,64,-127,119,99,-26,123,28,60, 
  /* [67][0][][] */ 0,60,-23,-127,4,2,-69,21,101,-115,-24,-23,30,107,80,63, 
  /* [68][0][][] */ -34,38,127,8,10,-5,-8,0,-37,1,-9,-36,26,-28,82,-39, 
  /* [69][0][][] */ 127,91,2,-6,-89,-45,-46,-24,11,10,101,-68,-67,70,60,-95, 
  /* [70][0][][] */ 42,12,-66,-17,-21,21,62,127,-49,78,-47,-22,22,61,-20,36, 
  /* [71][0][][] */ 19,-12,-3,0,-7,-75,0,25,-45,24,-92,20,-127,-4,55,41, 
  /* [72][0][][] */ 22,22,-127,-5,8,7,19,71,-47,-36,-2,-23,20,-9,-8,12, 
  /* [73][0][][] */ -38,21,34,-3,41,-51,-78,-127,-1,-65,15,-20,20,-48,52,-26, 
  /* [74][0][][] */ 19,21,36,125,8,-23,-101,95,-87,21,-72,65,20,-127,39,-95, 
  /* [75][0][][] */ 23,16,-42,6,6,-20,13,-14,117,25,-27,14,-7,127,-42,4, 
  /* [76][0][][] */ -2,-14,-1,22,10,-6,-8,53,17,-27,-10,-127,-6,-3,-3,10, 
  /* [77][0][][] */ 16,27,-19,127,-66,5,88,125,-16,37,-34,35,-15,-15,-2,11, 
  /* [78][0][][] */ 29,3,23,-127,29,-44,-34,62,-7,-36,-21,-25,24,110,24,52, 
  /* [79][0][][] */ -7,-99,-73,-74,-85,-1,34,-84,127,25,30,49,-3,59,46,-46, 
  /* [80][0][][] */ -23,11,84,-90,17,-61,25,-81,-99,70,-91,-127,41,103,68,-21, 
  /* [81][0][][] */ -31,47,-127,23,61,-125,-9,61,-9,-41,48,-3,26,-3,11,4, 
  /* [82][0][][] */ 115,-15,-3,16,16,-127,-24,18,-21,-16,-112,-17,116,23,-2,29, 
  /* [83][0][][] */ -63,77,-116,-88,-41,-29,41,-113,50,45,-58,-127,23,77,70,104, 
  /* [84][0][][] */ -48,26,91,-40,-12,-12,82,-127,-9,90,16,-76,42,49,70,-27, 
  /* [85][0][][] */ -56,127,29,-122,-85,-35,-22,4,-75,16,-103,26,2,-2,-94,-23, 
  /* [86][0][][] */ -7,7,-35,3,-19,-34,127,19,-14,-22,-12,-6,17,31,80,-28, 
  /* [87][0][][] */ -27,-37,0,-104,17,-28,46,-21,0,15,-1,-127,-8,12,5,-36, 
  /* [88][0][][] */ 103,1,24,-24,30,-92,23,32,-87,23,-127,-48,16,25,84,26, 
  /* [89][0][][] */ 34,-42,-42,-64,15,-12,-41,-10,-39,13,51,-51,127,-24,38,-56, 
  /* [90][0][][] */ -9,-62,37,-61,72,7,-73,97,75,-100,-37,-10,-9,126,22,-127, 
  /* [91][0][][] */ -24,-16,-15,-46,32,-29,-36,-89,-10,70,-23,-127,-49,-16,-24,42, 
  /* [92][0][][] */ -30,21,40,19,6,-127,13,-1,-1,-21,3,-25,13,-18,22,6, 
  /* [93][0][][] */ 25,-48,127,-12,-61,73,29,-29,-15,38,-71,11,-32,4,39,-9, 
  /* [94][0][][] */ 7,-6,-7,-27,28,-6,-9,3,-33,1,15,-60,127,-9,38,-45, 
  /* [95][0][][] */ 127,95,-4,37,-82,-19,-57,1,-33,-4,75,-62,-21,20,70,-76, 
};
const TfArray<4, int> tensor_dimension6 = { 4, { 96,1,1,16 } };
const TfArray<96, float> quant6_scale = { 96, { 0.00082373933400958776, 0.0013438466703519225, 0.00052871787920594215, 0.0010561394738033414, 0.00066052516922354698, 0.0013720520073547959, 0.0005283135105855763, 0.0010763570899143815, 0.00074084510561078787, 0.0011727028759196401, 0.00059794686967507005, 0.00076529005309566855, 0.00077892187982797623, 0.0035424523521214724, 0.00059794052504003048, 0.00040484502096660435, 0.00032470215228386223, 0.00074779900023713708, 0.001128492527641356, 0.0010948901763185859, 0.0003620353527367115, 0.00029973319033160806, 0.00038348714588209987, 0.00029796044691465795, 0.00044441825593821704, 0.001343476353213191, 0.001796294585801661, 0.00095368636539205909, 0.00059320783475413918, 0.0012079292209818959, 0.000728440354578197, 0.0010568118887022138, 0.0005075648077763617, 0.00059134175535291433, 0.0011638272553682327, 0.00078649760689586401, 0.00064872432267293334, 0.00071409961674362421, 0.00095194438472390175, 0.0010925293900072575, 0.0004652210627682507, 0.0015340604586526752, 0.00082023738650605083, 0.00048294026055373251, 0.0013196744257584214, 0.00062831287505105138, 0.00070654245791956782, 0.00062252057250589132, 0.000663363141939044, 0.00078810099512338638, 0.00069116527447476983, 0.00062136753695085645, 0.0015012805815786123, 0.00055578775936737657, 0.0012261017691344023, 0.00094548345077782869, 0.0011163240997120738, 0.00076429999899119139, 0.00097511889180168509, 0.00040125582017935812, 0.0020214151591062546, 0.0013449930120259523, 0.000672216119710356, 0.0013217454543337226, 0.0012276412453502417, 0.00072498596273362637, 0.00022434152197092772, 0.00059857231099158525, 0.0012551047839224339, 0.0010982095263898373, 0.00075873668538406491, 0.00057724508224055171, 0.0023127426393330097, 0.0011116189416497946, 0.00083472463302314281, 0.00050860416376963258, 0.00086161878425627947, 0.00030892767244949937, 0.00035817176103591919, 0.00063475564820691943, 0.00046604502131231129, 0.00058931868989020586, 0.00041136323125101626, 0.00059882225468754768, 0.00031903770286589861, 0.00067881186259910464, 0.0013706388417631388, 0.00064468523487448692, 0.00031695771031081676, 0.0011116077657788992, 0.00070352241164073348, 0.00078193395165726542, 0.00090130517492070794, 0.0014744944637641311, 0.00092808710178360343, 0.00056101265363395214, } };
const TfLiteAffineQuantization quant6 = { (TfLiteFloatArray*)&quant6_scale, (TfLiteIntArray*)&g0::quant5_zero, 0 };
const MODEL_SECTION(EI_MODEL_SECTION) ALIGN(16) int32_t tensor_data7[16] = { -12401, 14930, -21544, -6692, -22786, 5774, 20945, -45735, -8612, 20875, 16285, 18013, -8736, 18349, -11131, 17351, };
const TfArray<1, int> tensor_dimension7 = { 1, { 16 } };
const TfArray<16, float> quant7_scale = { 16, { 0.00067296536872163415, 0.00039630196988582611, 0.00021410698536783457, 0.00029777837335132062, 0.0003752612101379782, 0.00039010413456708193, 0.00041132312617264688, 0.00029469921719282866, 0.00035655696410685778, 0.00030781480018049479, 0.00078135618241503835, 0.00063779531046748161, 0.00049282616237178445, 0.00023615871032234281, 0.00057262496557086706, 0.00045703374780714512, } };
const TfArray<16, int> quant7_zero = { 16, { 0,0,0,0,0,0,0,0,0,0,0,0,0,0,0,0 } };
const TfLiteAffineQuantization quant7 = { (TfLiteFloatArray*)&quant7_scale, (TfLiteIntArray*)&quant7_zero, 0 };
const MODEL_SECTION(EI_MODEL_SECTION) ALIGN(16) int8_t tensor_data8[16*1*1*96] = { 
  /* [0][0][][] */ -25,2,6,-28,25,-11,-40,1,20,5,-4,3,-7,1,-22,11,10,6,-13,-7,11,-25,-5,0,10,11,6,127,29,-30,44,-7,-1,4,8,5,-10,14,-59,0,-3,7,8,30,-2,8,18,-4,31,12,3,3,11,-17,-5,67,13,12,-21,-33,-3,29,9,-35,-48,-59,-23,41,12,2,18,-23,-17,-42,-17,-20,-14,29,1,10,-9,-20,23,24,-10,-10,-13,-93,3,-13,7,0,49,-28,-22,-12, 
  /* [1][0][][] */ 56,-81,-71,-71,127,-19,66,55,-1,-83,-46,-44,21,-16,-51,49,-63,23,24,31,14,71,-8,-67,-11,-39,-20,-62,19,2,-53,58,-43,15,16,-28,21,-42,39,28,-25,67,-47,-44,-59,73,27,-2,22,-96,23,-63,-26,46,56,-1,-37,-5,-10,-34,40,-9,20,-62,-100,106,4,2,-15,-35,-3,10,24,-113,-64,0,47,-66,56,13,-27,-4,21,1,-54,-18,-34,2,38,-55,-28,16,14,-4,25,119, 
  /* [2][0][][] */ -13,62,-88,-8,58,79,39,46,-3,-123,-2,13,1,14,35,5,34,-19,-45,53,4,-58,57,21,72,61,-9,-14,49,-38,56,-64,39,48,-16,75,-127,-30,60,43,22,-68,34,36,19,-17,-7,94,-20,30,-56,18,73,7,-21,80,8,-7,-19,-10,19,8,-1,12,38,-11,-20,-26,-47,-15,-14,-60,4,-64,43,52,52,61,22,-16,40,-57,0,-15,-11,61,48,84,-9,36,17,-23,10,-32,-59,-13, 
  /* [3][0][][] */ 62,13,72,-28,37,-40,36,-22,-14,-57,12,-38,11,35,35,76,0,-5,13,-6,127,-13,28,22,38,-27,-9,15,38,1,-20,49,-80,17,34,2,-10,-24,57,31,-71,-26,54,19,27,53,-20,-59,-52,-48,-23,44,-8,-91,-12,26,-103,46,30,26,23,68,-18,-44,44,62,0,-43,49,-31,3,-59,79,-32,62,-20,24,-11,61,31,-25,-48,21,-21,-13,44,31,66,6,47,19,34,17,86,29,-36, 
  /* [4][0][][] */ 48,-14,20,-12,127,48,37,-42,-39,-84,-25,-39,-53,22,20,71,42,-80,-59,75,-20,1,36,-4,-4,-51,15,-17,29,-10,82,-61,91,25,-6,26,70,22,116,29,-20,38,-23,-21,-15,-39,2,17,51,-13,-41,3,-11,-3,-3,-23,14,-17,-51,23,22,60,45,30,58,53,-2,-8,-44,-24,56,64,55,-69,-27,-33,47,46,110,-52,-29,-31,-10,-24,-50,-6,68,90,-36,64,7,-34,16,12,32,-25, 
  /* [5][0][][] */ 3,-12,-25,13,9,-19,51,-38,-16,-50,-3,13,-7,34,8,5,-1,0,4,-5,22,-20,-49,58,16,-5,13,-70,7,17,18,14,-2,17,10,-25,26,29,35,20,4,-16,25,2,-5,22,4,12,-11,-19,-6,1,-22,-7,-12,-40,-6,0,-34,15,63,8,-17,38,12,52,11,48,16,59,12,17,37,11,2,53,-20,-3,13,-2,-3,-12,-10,8,4,12,9,127,-1,45,12,-2,11,19,-44,4, 
  /* [6][0][][] */ 21,-71,-2,-47,-19,10,44,29,21,0,-6,-82,-17,24,-21,30,6,-18,-18,-2,-42,37,-5,19,-21,7,-13,-16,-29,17,28,-4,47,9,52,-17,-3,-24,53,-79,-13,65,25,-33,5,-2,-25,19,-20,16,-26,79,-10,-48,-26,-26,21,-64,-5,-3,5,65,10,-75,53,-14,18,-33,-1,-6,127,-5,-21,-2,-21,30,-55,-17,49,-7,25,62,9,-12,-33,-27,36,26,-3,8,33,-34,-8,-6,-36,-8, 
  /* [7][0][][] */ 4,127,58,-4,127,37,7,-25,-29,-9,21,-14,-18,21,8,18,11,-50,10,41,37,-15,40,2,-9,30,19,-12,-3,-21,13,38,39,-19,-51,2,11,16,-104,70,-49,6,5,14,6,-40,30,-28,-44,-11,57,8,26,-69,-30,36,54,20,-8,9,-18,-30,5,-10,-70,69,-48,-78,-15,-15,2,70,-64,-39,-9,9,37,63,43,2,-39,-46,4,20,-25,68,-33,-48,-35,-4,-50,-59,-47,-9,34,5, 
  /* [8][0][][] */ -2,-10,44,46,-127,-34,91,-34,27,70,76,30,-26,32,35,1,-28,12,27,-4,-50,-44,-117,87,10,-37,74,12,38,-4,5,9,65,8,16,23,-25,-17,56,48,8,-30,42,53,-69,27,36,9,-95,1,-16,36,-71,-22,-37,86,-22,-74,-107,-48,19,-41,-34,3,17,79,-1,-84,19,-30,-39,-23,81,73,79,-5,0,-57,-24,1,-85,13,-37,-13,51,29,75,91,26,-10,54,64,6,-1,40,0, 
  /* [9][0][][] */ -9,-74,12,24,62,85,-54,-34,10,-23,64,71,-45,30,67,-91,7,-53,13,1,-47,-70,11,-22,-6,61,-5,42,-22,-1,-23,3,26,25,-119,53,-5,43,-75,35,21,-101,5,72,-29,-30,-85,-30,30,52,-24,-64,60,1,-12,-26,-22,60,-35,-10,0,-49,-32,127,-89,-25,-7,-38,-8,30,-56,-67,19,2,37,30,39,-65,-5,5,42,-14,4,36,9,-38,4,28,11,-26,-30,42,-56,7,10,-42, 
  /* [10][0][][] */ -29,-22,-49,-30,-31,-4,93,-26,40,5,30,34,21,1,9,-6,-5,27,-32,-20,-10,21,9,35,-1,-20,8,-100,31,-49,59,-40,-1,29,16,11,-1,20,56,7,18,-21,16,-39,2,18,29,27,1,20,-39,-25,-39,-1,-7,-49,19,11,-5,-43,25,4,-12,1,-31,84,1,-43,19,-47,5,-27,-4,-13,14,47,13,36,-5,7,-36,-3,-8,15,11,-30,3,127,4,17,14,26,22,-35,42,-38, 
  /* [11][0][][] */ -102,30,-14,15,14,-69,-5,-14,-63,-16,-17,36,23,35,-31,-15,40,-9,-49,-44,20,-43,-22,12,84,39,73,2,-13,-12,-52,-1,-3,52,-9,18,-26,33,-1,5,-19,-42,-4,32,86,30,52,42,37,55,-22,51,11,-75,21,10,-92,-27,-58,-56,-21,-19,-4,35,0,-30,12,-25,34,20,-5,33,-6,3,52,1,-29,82,-124,51,-13,-24,-70,-68,127,60,51,-1,-4,52,-16,-65,-17,54,-24,-14, 
  /* [12][0][][] */ 21,-10,-22,-12,49,37,-13,-9,-14,19,14,-22,15,-28,35,0,-30,-15,12,-11,-10,4,-23,28,-23,17,-15,84,-20,46,-19,16,-20,12,9,5,-2,-27,29,22,3,10,5,0,-7,-22,25,-10,1,-19,19,-38,-6,-5,-4,-18,-12,-4,24,13,-6,-10,-4,32,28,-73,25,57,-38,-127,-4,50,-13,11,13,64,-7,-14,-1,-6,-22,33,-31,-1,20,-41,-2,-45,-2,2,5,1,-35,17,-16,34, 
  /* [13][0][][] */ -59,48,-28,-26,-64,-10,-13,12,-26,-17,28,2,88,-14,-30,13,-27,43,-73,-2,10,20,51,-62,57,1,5,-38,4,-12,-53,-75,-82,-47,-1,-14,18,-4,58,-7,-42,110,7,12,54,18,-9,-22,42,-34,27,57,55,-30,70,-47,-12,41,41,22,14,37,-31,2,1,-7,4,26,-3,-1,9,-127,23,-36,-94,3,61,13,-42,-31,60,-11,-6,-43,22,-55,82,-11,-13,2,-16,24,46,-33,-21,27, 
  /* [14][0][][] */ -40,39,-3,-68,41,16,-41,38,-96,30,2,4,-20,-65,-92,-14,-103,-25,67,23,26,12,22,-110,-39,22,-56,-25,-7,-8,-30,9,-52,-39,26,6,-3,-2,7,-4,-7,108,-74,-30,-35,-9,-5,-20,127,-39,37,-33,45,42,-90,26,4,37,-102,20,1,23,57,32,-20,32,-9,30,-67,46,54,40,15,-7,-33,30,72,-94,-45,-93,25,-29,10,32,20,-93,-46,-10,-41,8,33,51,7,21,26,-8, 
  /* [15][0][][] */ -24,-95,-22,-57,8,-16,-11,-72,-23,21,11,-31,68,-10,42,0,-94,17,-42,22,-38,35,-69,-56,-22,-29,16,-14,-19,16,88,-105,-20,25,8,-11,0,-7,-102,21,38,-49,-15,39,-16,-36,44,14,51,8,0,-127,-11,62,-12,1,27,-18,0,67,7,26,42,-9,26,2,-4,11,-18,11,-2,32,-36,-3,-18,-38,-47,0,11,8,-34,42,-5,80,-2,-56,-31,-43,-38,61,26,72,-29,-4,4,-3, 
};
const TfArray<4, int> tensor_dimension8 = { 4, { 16,1,1,96 } };
const TfArray<16, float> quant8_scale = { 16, { 0.028601028025150299, 0.016842832788825035, 0.0090995468199253082, 0.012655580416321754, 0.015948601067066193, 0.01657942496240139, 0.017481232061982155, 0.012524716556072235, 0.015153670683503151, 0.013082128949463367, 0.033207636326551437, 0.027106299996376038, 0.020945111289620399, 0.010036745108664036, 0.024336559697985649, 0.019423933699727058, } };
const TfLiteAffineQuantization quant8 = { (TfLiteFloatArray*)&quant8_scale, (TfLiteIntArray*)&g0::quant7_zero, 0 };
const MODEL_SECTION(EI_MODEL_SECTION) ALIGN(16) int32_t tensor_data9[96] = { 19599, 58440, 61, -1273, 16272, -6778, -468, -2385, 6539, 12040, -4499, 25, 316, 5157, 5177, -9626, -3831, -478, -1116, 12393, -9960, 17338, -4375, 9270, 16618, 18, -4873, 18630, 16933, -20718, 753, 22381, 22556, -10220, 1977, 742, -612, -986, 3374, -8925, -6057, -1414, -8630, 723, 29034, -2667, 11439, -2679, -14172, 104, -260, -110, -5038, 21803, -4160, 15023, 19721, -348, 37259, 309, -9565, -550, 2088, -371, -481, 10300, -1852, -2865, -3542, 3857, -65, -4994, 1177, -348, -3218, -4924, -40, -2105, 43207, -8114, -5205, -11810, -952, 1170, 65568, -11790, -14367, -27657, -9095, 10416, -3497, 46886, -228, -748, -3591, 577, };
const TfArray<96, float> quant9_scale = { 96, { 0.00011890595487784594, 9.8741242254618555e-05, 0.00010453072900418192, 0.00021404992730822414, 0.00021729702712036669, 0.00012252907617948949, 5.0678241677815095e-05, 0.00010159721568925306, 0.00023692299146205187, 0.00020146586757618934, 0.00024492689408361912, 0.0001122996472986415, 0.00026550184702500701, 0.000218490298721008, 0.00034845573827624321, 0.0001734308316372335, 0.00023513576888944954, 0.00022957200417295098, 0.00019729234918486327, 9.088250226341188e-05, 8.1127465819008648e-05, 5.0234473746968433e-05, 0.00015069724759086967, 8.439950761385262e-05, 6.6704618802759796e-05, 9.558431338518858e-05, 0.00016445010260213166, 0.00016220382531173527, 7.6546632044482976e-05, 0.00040752970380708575, 0.00035409186966717243, 0.000230989302508533, 0.00011411612649681047, 0.00015173621068242937, 0.00024641194613650441, 0.00051402457756921649, 0.0003925503115169704, 0.00018022689619101584, 0.00021030870266258717, 8.6755608208477497e-05, 0.00020478677470237017, 0.00025072458083741367, 0.00032989963074214756, 0.00016473926370963454, 0.00037804633029736578, 0.00010099764767801389, 9.7046089649666101e-05, 0.00026158499531447887, 0.00068032502895221114, 0.00011007668945239857, 0.00055235187755897641, 0.0001563171244924888, 0.00010594150808174163, 0.00012889817298855633, 0.00021587411174550653, 0.00012417566904332489, 0.00013995532935950905, 0.0003988733806181699, 4.6596262109233066e-05, 0.00016252108616754413, 0.00026657924172468483, 0.00029287106008268893, 0.00010130038572242483, 0.00015872437506914139, 0.00013214033970143646, 0.0001553246402181685, 0.00027933387900702655, 0.00077537447214126587, 0.00020761314954143018, 0.00011238400475122035, 0.00020229957590345293, 0.00010073838348034769, 0.00027228938415646553, 0.00015677102783229202, 0.00021735773771069944, 0.00038775859866291285, 0.00011505939619382843, 0.00010000268230214715, 5.7750392443267629e-05, 0.00016433282871730626, 0.00024509342620149255, 0.00023142105783335865, 0.00016322219744324684, 0.00029091254691593349, 5.4047970479587093e-05, 0.00011753766739275306, 8.7662730948068202e-05, 0.00053497648332268, 0.00019817359861917794, 0.00011430390441091731, 0.00032766294316388667, 2.2556991098099388e-05, 0.00013554285396821797, 0.00010662512067938223, 0.0003409604832995683, 0.00031653055339120328, } };
const TfLiteAffineQuantization quant9 = { (TfLiteFloatArray*)&quant9_scale, (TfLiteIntArray*)&g0::quant5_zero, 0 };
const MODEL_SECTION(EI_MODEL_SECTION) ALIGN(16) int8_t tensor_data10[1*3*3*96] = { 
  /* [0][0][][] */ -51,-72,-9,127,22,78,91,-51,-15,-18,-14,3,-29,0,37,1,-8,-42,27,19,24,-127,127,6,-76,7,54,-30,-119,-127,40,23,13,33,61,-15,-30,-9,28,-6,-15,31,-107,77,25,-66,38,45,-20,56,-22,22,12,-7,17,49,-97,-49,-67,-21,-12,-2,8,41,66,-27,75,15,-12,13,20,127,27,24,22,-4,-11,20,127,-6,-14,17,-29,18,124,23,-66,-14,-2,-35,-13,-36,0,-27,-17,27, 127,-123,74,105,-44,127,56,-107,70,4,-18,127,127,-103,-13,17,11,127,127,-112,127,-71,81,76,-117,-114,-67,-34,-58,48,-58,-23,-89,54,-127,-82,-42,-14,-52,64,-1,127,127,85,-52,-107,-112,-50,-17,-127,47,86,74,-33,46,80,-48,41,-71,-115,-45,-44,-64,69,71,-61,30,29,-80,30,-17,93,118,127,13,15,0,63,-31,55,68,127,127,-23,-6,75,-98,127,-124,-103,7,-127,-91,-127,-37,104, -79,-15,30,-85,15,-22,71,-4,82,-35,-27,21,-19,-5,-8,-10,-9,-15,9,-5,-18,-104,32,-3,-127,107,6,-54,108,52,-15,7,1,17,12,-29,-6,34,21,13,26,14,-119,68,20,-18,37,17,-16,17,-13,8,0,1,-1,21,-71,5,-42,51,1,42,31,1,-6,-40,-32,24,7,2,-3,39,9,-24,-6,3,-14,-2,-86,4,-22,-20,-15,0,-108,7,-32,-22,-56,25,-24,-40,28,-28,-14,4, 
  /* [0][1][][] */ -65,-73,74,-33,-50,102,11,127,-50,-22,-1,-117,26,-115,79,26,-3,-58,-18,89,49,-57,50,50,-100,-7,127,-22,-26,65,126,-103,-127,95,-83,-57,-34,32,-27,94,-48,-24,-5,48,-47,127,-22,66,14,100,20,-2,14,-55,29,30,127,123,-76,-87,127,-32,-38,127,69,-38,-15,1,127,40,127,99,-38,101,-4,11,15,15,-30,10,-50,122,-79,108,3,30,-48,32,77,-127,-29,-10,127,-69,-22,2, 70,127,57,-112,127,82,82,40,-127,127,127,-41,-66,-127,-127,127,127,-61,-127,-49,95,83,-120,127,-107,-96,-43,127,-127,110,-127,-127,-89,127,105,127,127,-127,-107,127,-64,-95,109,-127,-127,-32,-127,-127,127,-113,88,43,127,127,127,-127,102,-127,-127,127,20,-80,-127,-101,-127,127,-127,127,-119,-127,-107,-82,-127,-80,127,127,-127,127,-75,127,127,26,-42,-127,58,127,95,49,127,13,127,0,-68,30,127,-127, -54,-12,-49,36,-57,-95,39,-20,17,-35,-28,93,2,96,14,12,-5,64,-6,127,3,-86,-40,6,-90,114,-71,-18,-67,-17,18,-65,-69,45,6,-17,-27,45,-65,42,127,-3,-39,32,-39,-57,17,48,8,122,-6,8,-28,-72,3,17,97,1,-1,22,-37,127,92,-50,-42,13,38,-8,-71,122,-18,-84,-3,-53,-17,-18,28,14,75,-39,-74,-38,62,12,-46,-23,68,24,16,62,-41,10,-41,86,-26,-1, 
  /* [0][2][][] */ -68,2,-4,-17,11,-44,65,29,52,-29,-38,-6,19,21,-27,1,-9,61,9,0,-59,-63,7,-10,-25,-62,31,-66,79,39,26,26,19,-9,-11,-46,-5,34,1,-1,-15,-4,-68,101,5,28,7,39,-14,-28,7,-21,31,-1,8,11,-66,27,-15,10,18,-2,-22,-6,1,-44,-45,16,-29,17,25,29,11,-21,29,-1,17,7,-78,-14,-11,-10,20,14,-127,4,24,-44,-59,-53,-25,-50,12,51,-18,-10, 124,33,-127,-31,-73,-25,50,34,-69,-30,-21,-106,-74,119,-14,45,-2,-47,-8,-124,74,-45,-34,2,-118,127,-56,23,-37,-21,-8,-5,-62,18,28,6,-23,-27,127,53,12,-13,66,-37,-37,75,-69,-39,-32,-5,-127,-127,-38,-26,3,35,-64,-6,9,39,-9,-20,10,-50,-53,37,66,-27,116,111,-24,-68,10,-54,11,0,98,7,49,20,10,-98,-50,3,2,15,127,39,-61,36,-16,-119,43,71,-9,27, -54,12,-18,26,15,-68,-127,12,-13,-10,-17,9,17,-20,18,4,-10,-13,6,16,-48,-65,18,-1,19,-97,17,6,-46,-39,-7,18,44,-18,-7,-22,-34,3,46,-41,24,0,-50,-36,4,67,21,22,-8,-3,9,-9,30,7,-6,-9,-60,-14,-5,-38,-14,9,85,-13,33,0,-1,28,5,7,-4,19,-19,18,1,10,37,0,75,-13,4,-8,-5,-19,72,-3,45,-40,61,40,-16,-57,-5,-3,-13,-16, 
};
const TfArray<4, int> tensor_dimension10 = { 4, { 1,3,3,96 } };
const TfArray<96, float> quant10_scale = { 96, { 0.0050535029731690884, 0.0041965027339756489, 0.0044425558298826218, 0.0090971216559410095, 0.0092351231724023819, 0.005207485519349575, 0.0021538252476602793, 0.0043178815394639969, 0.0100692268460989, 0.0085622994229197502, 0.010409392416477203, 0.0047727348282933235, 0.011283827945590019, 0.0092858374118804932, 0.01480936910957098, 0.0073708100244402885, 0.0099932700395584106, 0.0097568100318312645, 0.0083849243819713593, 0.0038625062443315983, 0.0034479172900319099, 0.0021349650342017412, 0.0064046331681311131, 0.0035869788844138384, 0.0028349463827908039, 0.0040623331442475319, 0.0069891293533146381, 0.0068936622701585293, 0.0032532317563891411, 0.017320012673735619, 0.015048904344439507, 0.0098170451819896698, 0.0048499354161322117, 0.0064487890340387821, 0.01047250721603632, 0.021846042945981026, 0.016683388501405716, 0.0076596429571509361, 0.0089381197467446327, 0.0036871132906526327, 0.0087034376338124275, 0.01065579429268837, 0.014020733535289764, 0.0070014186203479767, 0.016066968441009521, 0.0042924000881612301, 0.0041244588792324066, 0.011117362417280674, 0.028913812711834908, 0.0046782591380178928, 0.023474954068660736, 0.0066434778273105621, 0.004502513911575079, 0.0054781720973551273, 0.009174649603664875, 0.0052774655632674694, 0.005948101170361042, 0.016952117905020714, 0.0019803410395979881, 0.0069071459583938122, 0.011329617351293564, 0.012447020038962364, 0.0043052663095295429, 0.006745785940438509, 0.0056159640662372112, 0.0066012972965836525, 0.011871689930558205, 0.032953415066003799, 0.0088235586881637573, 0.0047763199545443058, 0.0085977315902709961, 0.0042813811451196671, 0.011572298593819141, 0.0066627683117985725, 0.0092377038672566414, 0.016479739919304848, 0.004890024196356535, 0.0042501138523221016, 0.0024543916806578636, 0.0069841453805565834, 0.010416470468044281, 0.0098353950306773186, 0.0069369431585073471, 0.012363783083856106, 0.0022970386780798435, 0.0049953507259488106, 0.0037256658542901278, 0.022736500948667526, 0.0084223775193095207, 0.0048579159192740917, 0.013925675302743912, 0.00095867208437994123, 0.0057605709880590439, 0.0045315674506127834, 0.014490820467472076, 0.013452548533678055, } };
const TfLiteAffineQuantization quant10 = { (TfLiteFloatArray*)&quant10_scale, (TfLiteIntArray*)&g0::quant5_zero, 3 };
const MODEL_SECTION(EI_MODEL_SECTION) ALIGN(16) int32_t tensor_data11[96] = { 1597, 5873, 12461, 16665, 20958, -3728, -1806, 5076, 34682, -5455, 8975, 3894, 7567, 11276, 28589, 2333, 2189, 7651, 18306, 5322, -348, 621, 18185, -1493, 6867, 20, 9715, 9777, 6087, 33810, 47186, 14049, 6558, -805, 13560, 3524, 1696, 3578, 19142, -733, 8991, 7788, 47135, -3562, 25487, 10317, 5659, 15444, 57902, 12631, -462, 7444, -2897, -37, -2774, 10210, -197, 19424, 5913, 8606, 4486, 18146, 5929, 6355, 8987, 9431, 3958, -8108, 6077, -4178, 6201, 9339, 19583, 6296, -3490, -5696, 8203, 23, 2537, -691, 17874, 14643, 5117, 20413, 2338, -241, 12289, 74339, 10399, 14220, 6197, 72, 8580, 8344, 4197, 11802, };
const TfArray<96, float> quant11_scale = { 96, { 0.00024876644602045417, 0.00025208696024492383, 0.00014993008517194539, 0.00013575848424807191, 0.00014419968647416681, 0.00027908745687454939, 0.00044247653568163514, 0.00031558561022393405, 6.7669468990061432e-05, 0.00024265804677270353, 0.00029982908745296299, 0.00021640455815941095, 0.0001660199195612222, 0.00020196018158458173, 8.4400962805375457e-05, 0.00026725951465778053, 0.00024178028979804367, 0.00015039891877677292, 0.00012143667117925361, 0.00020607761689461768, 0.00028654566267505288, 0.00051990401698276401, 0.00011111083586001769, 0.0005126601317897439, 0.00037521141348406672, 0.00024764525005593896, 0.00022302269644569606, 0.0001421256602043286, 0.00028451409889385104, 0.00010320967703592032, 5.9582867834251374e-05, 0.0001762581814546138, 0.00024537561694160104, 0.00030787562718614936, 0.00014724636275786906, 0.00015296126366592944, 0.00028997755725868046, 0.00042071574716828763, 0.00013209915778134018, 0.00076550134690478444, 0.00020674972620327026, 0.0001986201386898756, 5.7754790759645402e-05, 0.00030693743610754609, 0.00012696873454842716, 0.00015078765864018351, 0.00029016932239755988, 0.00016944916569627821, 7.1697962994221598e-05, 0.00016352374223060906, 0.00024285419203806669, 0.00023152888752520084, 0.00035477298661135137, 0.00029444537358358502, 0.00035596374073065817, 0.00011397713387850672, 0.00023791912826709449, 9.5092640549410135e-05, 0.00035394020960666239, 0.00017734283755999058, 0.00035201336140744388, 7.9277095210272819e-05, 0.00024469889467582107, 0.00016222074918914586, 0.00027058846899308264, 0.00020225776825100183, 0.00030904379673302174, 0.00016470387345179915, 0.00027635725564323366, 0.00019049295224249363, 0.00018542779434937984, 0.00016382029571104795, 0.00010429754911456257, 0.00015850718773435801, 0.00045928027248010039, 0.00023948845046106726, 0.00020701084577012807, 0.00038106611464172602, 0.00030119487200863659, 0.00044368600356392562, 0.00011716090375557542, 0.00011421624367358163, 0.00016717260587029159, 9.5286690338980407e-05, 0.00048725254600867629, 0.00026233101380057633, 0.00018379325047135353, 5.0642338464967906e-05, 0.00013782861060462892, 0.00015477171109523624, 0.00020314207358751446, 0.0002865720889531076, 0.00017875287448987365, 0.00019234418869018555, 0.00026433687889948487, 0.00014353354345075786, } };
const TfLiteAffineQuantization quant11 = { (TfLiteFloatArray*)&quant11_scale, (TfLiteIntArray*)&g0::quant5_zero, 0 };
const MODEL_SECTION(EI_MODEL_SECTION) ALIGN(16) int8_t tensor_data12[96*1*1*16] = { 
  /* [0][0][][] */ -60,126,21,58,7,81,2,31,46,31,-35,102,5,-127,31,-69, 
  /* [1][0][][] */ 31,46,-11,-19,35,-9,127,-91,-19,67,-9,-42,-3,-28,4,25, 
  /* [2][0][][] */ -94,31,-17,-32,38,6,28,30,-36,-6,127,7,-59,-38,36,-26, 
  /* [3][0][][] */ -92,38,50,14,-70,2,17,96,-26,39,-127,20,-9,-87,-55,-84, 
  /* [4][0][][] */ -21,1,77,77,-8,127,-15,20,35,-37,40,21,30,-11,-122,-44, 
  /* [5][0][][] */ -16,-15,47,-5,-12,-10,3,33,-76,127,-11,-125,-14,-16,-42,-32, 
  /* [6][0][][] */ -11,10,35,-8,51,89,-17,-53,-36,12,63,-32,127,-44,-2,-28, 
  /* [7][0][][] */ 29,-13,127,17,-38,-40,7,-16,-54,65,-87,-32,2,-7,35,-24, 
  /* [8][0][][] */ 40,-3,24,47,-11,111,76,6,11,-3,30,-105,-49,-18,-127,-92, 
  /* [9][0][][] */ 49,-87,49,57,20,-23,-16,-11,97,-19,73,15,-54,19,-127,-45, 
  /* [10][0][][] */ -36,-90,14,-12,-82,6,-13,24,84,127,38,-41,-18,52,54,-12, 
  /* [11][0][][] */ 12,-69,27,-84,27,-27,-80,-127,-9,34,0,-8,10,-28,58,-56, 
  /* [12][0][][] */ -6,32,16,-29,-57,-1,-83,-28,-59,-70,-43,-8,22,127,52,14, 
  /* [13][0][][] */ -1,-78,-49,46,11,-29,1,-40,80,7,16,-22,42,3,127,39, 
  /* [14][0][][] */ 19,-32,47,28,46,38,7,84,12,65,15,-26,30,19,-66,127, 
  /* [15][0][][] */ 15,-48,7,71,15,9,111,14,4,-127,14,-16,-14,0,-6,-29, 
  /* [16][0][][] */ 17,-45,-35,27,22,-17,41,-62,84,51,82,9,-3,127,75,105, 
  /* [17][0][][] */ -70,3,34,57,100,58,32,15,88,-37,53,-99,9,-9,-127,-30, 
  /* [18][0][][] */ -26,-15,-46,8,-104,-44,10,35,-61,-2,-12,-49,29,-127,39,-10, 
  /* [19][0][][] */ 72,-22,113,-46,59,83,-111,127,103,-67,22,-13,-63,79,-24,78, 
  /* [20][0][][] */ 61,7,94,-85,6,41,-19,71,-14,-85,85,-34,-33,5,-52,127, 
  /* [21][0][][] */ -103,-49,27,-43,-16,38,-104,-23,-28,72,15,11,-127,-31,46,-15, 
  /* [22][0][][] */ 19,-19,43,-37,-8,-48,10,23,-127,42,0,-83,-1,-7,93,-23, 
  /* [23][0][][] */ 20,8,19,-3,27,20,-12,-15,-1,-39,58,-47,127,-12,-3,-47, 
  /* [24][0][][] */ -37,14,32,-127,-18,15,66,10,-53,17,10,-120,-9,-107,105,-10, 
  /* [25][0][][] */ -126,4,81,-51,-3,-60,-108,-13,-40,-23,-118,-26,-66,-122,-17,-127, 
  /* [26][0][][] */ 30,-26,27,-121,127,-19,-19,-8,93,-77,48,-27,-24,59,14,56, 
  /* [27][0][][] */ 127,-46,38,-19,-7,-47,-18,-58,-3,16,-125,38,11,-16,1,57, 
  /* [28][0][][] */ -91,-44,-127,-57,55,-32,100,-62,9,48,-90,-21,38,6,-64,41, 
  /* [29][0][][] */ -70,-49,-2,127,13,16,3,-39,-26,3,-120,80,-1,-52,20,-16, 
  /* [30][0][][] */ 47,-18,118,-34,77,50,-10,48,-22,-81,44,-61,11,-20,-127,108, 
  /* [31][0][][] */ 26,-79,-3,-31,1,-23,50,-44,6,57,127,2,-21,69,74,104, 
  /* [32][0][][] */ -4,76,-33,36,-127,15,-74,-32,-51,-24,-10,77,4,55,29,56, 
  /* [33][0][][] */ 41,-14,38,127,28,1,16,-12,-63,26,51,-15,0,19,4,77, 
  /* [34][0][][] */ 75,4,29,5,73,-75,-127,-6,-87,92,-47,35,-59,-27,31,4, 
  /* [35][0][][] */ 82,27,-15,20,63,-127,-55,-70,11,-11,-107,-14,54,24,-48,21, 
  /* [36][0][][] */ 17,-30,-127,0,31,17,-36,23,-56,-24,-3,11,15,-4,-4,0, 
  /* [37][0][][] */ 6,15,127,-8,-40,11,7,-81,11,64,-10,8,23,0,7,-16, 
  /* [38][0][][] */ -91,44,-37,49,49,63,-5,-96,9,-42,127,15,-19,-3,-30,-57, 
  /* [39][0][][] */ -19,-17,24,33,26,-10,-127,36,22,32,4,-26,-8,-11,3,4, 
  /* [40][0][][] */ 21,25,-34,127,-6,53,42,25,-63,-26,-22,6,50,17,-50,31, 
  /* [41][0][][] */ -4,21,-62,-34,-17,-11,127,70,-22,67,-20,-11,7,68,22,-8, 
  /* [42][0][][] */ -13,-18,-24,-45,0,-30,-127,38,7,-107,39,36,-81,9,-72,-27, 
  /* [43][0][][] */ -24,30,59,-53,34,33,-83,-58,-11,-17,-52,-39,-127,9,17,-5, 
  /* [44][0][][] */ -7,-29,1,-14,10,-16,2,-48,127,39,20,53,7,79,4,33, 
  /* [45][0][][] */ -50,-93,-13,-127,21,-32,-58,55,21,-65,-47,-18,85,94,-42,118, 
  /* [46][0][][] */ -23,8,-59,123,-76,-25,17,-92,-127,90,-45,-36,14,14,-10,-54, 
  /* [47][0][][] */ 9,-11,-101,127,36,77,-35,-46,10,63,83,117,-51,-19,32,-3, 
  /* [48][0][][] */ 16,-28,31,-127,19,0,-5,-35,19,102,85,-10,0,98,75,62, 
  /* [49][0][][] */ -36,29,93,91,-7,35,-127,-71,75,-68,-74,16,-10,-36,-115,-72, 
  /* [50][0][][] */ 29,80,24,-105,101,11,-13,67,127,-30,-52,-17,9,-58,-31,-17, 
  /* [51][0][][] */ 8,-29,4,-10,37,-6,-12,-127,11,-71,43,-27,1,-25,39,17, 
  /* [52][0][][] */ 24,15,-29,7,13,-44,-70,71,-90,127,-57,-77,88,78,-27,-44, 
  /* [53][0][][] */ -5,83,44,-69,-18,16,30,-32,-70,-55,-20,80,-12,-127,-87,-13, 
  /* [54][0][][] */ 3,11,15,39,52,-29,14,-29,2,28,-16,-25,-9,127,-42,-17, 
  /* [55][0][][] */ -110,127,58,-30,-2,-34,-11,36,-76,37,49,-24,15,-36,114,-28, 
  /* [56][0][][] */ 39,-8,27,-81,46,-25,-39,107,56,-29,-16,127,-24,16,51,69, 
  /* [57][0][][] */ -76,-32,53,124,-9,-7,23,127,-17,-4,-37,-32,-41,103,5,-40, 
  /* [58][0][][] */ 30,107,28,-120,-4,52,-2,27,124,26,15,104,22,-127,67,97, 
  /* [59][0][][] */ 10,45,79,-127,-85,-3,23,24,15,14,50,-80,11,-91,-80,-17, 
  /* [60][0][][] */ 41,9,74,-39,-49,127,43,-41,4,44,-43,-29,43,16,51,-4, 
  /* [61][0][][] */ -1,40,-32,-12,-44,29,127,80,-24,61,46,-11,-15,106,21,-30, 
  /* [62][0][][] */ 24,15,30,25,-51,23,-21,10,-43,-6,-14,-91,-9,-127,45,-24, 
  /* [63][0][][] */ 5,-49,17,-87,28,11,-127,-108,-55,103,9,13,44,-1,43,-52, 
  /* [64][0][][] */ -52,1,9,19,60,-6,-29,-127,14,-82,23,-28,-5,-52,26,9, 
  /* [65][0][][] */ -127,36,27,-65,-5,57,27,-24,-66,19,28,-14,1,9,-27,-17, 
  /* [66][0][][] */ 48,25,41,-18,-38,6,-43,18,-41,-6,75,-49,-22,41,-127,-4, 
  /* [67][0][][] */ 23,29,-44,75,60,-47,-88,-90,10,-127,-52,-11,-99,41,-75,-3, 
  /* [68][0][][] */ 30,-25,-33,58,-57,-58,-12,-70,-4,-1,42,-3,-25,17,127,-36, 
  /* [69][0][][] */ -69,39,-77,49,-74,-127,9,109,73,11,44,62,123,84,39,-28, 
  /* [70][0][][] */ 7,9,-42,-50,-68,16,127,77,-20,69,-32,2,38,70,22,-2, 
  /* [71][0][][] */ 19,19,-32,-40,34,-22,3,50,-23,-55,-12,-16,23,-127,56,-9, 
  /* [72][0][][] */ 1,15,22,27,22,-44,-33,-127,-16,33,-34,14,69,31,120,61, 
  /* [73][0][][] */ -51,-127,-17,-62,-75,-18,11,-34,-13,-3,-47,-15,-9,-67,72,-51, 
  /* [74][0][][] */ -48,32,73,102,-36,-3,-127,107,21,12,-28,-28,28,-19,5,-14, 
  /* [75][0][][] */ -61,5,-3,1,18,127,73,94,-33,12,13,-34,-109,87,29,11, 
  /* [76][0][][] */ 25,18,-13,-32,46,-127,-121,-101,-67,-21,-29,-51,26,-21,75,-66, 
  /* [77][0][][] */ -27,-15,-31,-16,-38,18,-14,-39,127,11,-41,4,-20,35,22,-57, 
  /* [78][0][][] */ -58,-127,-12,117,90,31,0,37,-31,-71,-119,51,93,4,92,83, 
  /* [79][0][][] */ 36,-25,32,-63,127,-3,60,21,49,28,-2,27,-10,-30,15,-48, 
  /* [80][0][][] */ 11,-54,65,-103,38,-22,33,-10,-55,-12,8,-60,-16,127,-58,49, 
  /* [81][0][][] */ -1,-40,23,-6,-14,23,-81,-5,-6,-55,-49,-55,41,66,-127,67, 
  /* [82][0][][] */ -75,-40,-18,-127,-10,-33,23,-70,-25,-37,3,-113,-9,-118,-63,51, 
  /* [83][0][][] */ 28,1,-29,-75,-66,15,-21,23,-100,-5,-12,-96,17,-127,5,94, 
  /* [84][0][][] */ 127,19,-14,31,-70,-22,-36,14,-21,-3,64,-17,-49,0,72,-56, 
  /* [85][0][][] */ -9,-29,-8,-19,16,6,-38,88,-90,-127,-76,3,-30,39,69,-125, 
  /* [86][0][][] */ -30,27,28,-22,-61,100,-20,110,-127,-83,75,-4,-67,-101,-60,-15, 
  /* [87][0][][] */ 126,-9,12,-28,-55,-58,35,75,-18,15,-127,20,70,5,53,18, 
  /* [88][0][][] */ 15,72,-19,8,-30,-27,-23,-17,92,63,2,55,-18,-74,127,-101, 
  /* [89][0][][] */ 64,22,-93,14,2,-7,32,-112,96,63,52,-28,-50,-6,-39,-127, 
  /* [90][0][][] */ -10,-3,6,-89,-111,-11,127,-21,65,-80,26,-74,65,-14,-40,1, 
  /* [91][0][][] */ -10,-22,5,-127,-81,-5,5,-2,-70,62,57,55,25,-23,57,97, 
  /* [92][0][][] */ 1,8,5,-17,34,-47,-95,-127,29,-72,5,-67,-58,-20,14,-21, 
  /* [93][0][][] */ 65,14,18,-127,-43,-16,-8,62,31,-105,76,-30,-30,103,-33,31, 
  /* [94][0][][] */ -76,55,-64,35,100,-127,-15,-9,22,-37,64,-3,-47,13,-34,-18, 
  /* [95][0][][] */ 2,120,10,-127,22,-22,3,38,30,-27,-41,-101,-10,31,-45,8, 
};
const TfArray<96, float> quant12_scale = { 96, { 0.00083438941510394216, 0.00084552675252780318, 0.00050288165220990777, 0.00045534857781603932, 0.00048366124974563718, 0.00093608931638300419, 0.0014841138618066907, 0.0010585080599412322, 0.0002269706892548129, 0.00081390119157731533, 0.0010056589962914586, 0.00072584417648613453, 0.00055684865219518542, 0.0006773961940780282, 0.00028308990295045078, 0.0008964171283878386, 0.00081095710629597306, 0.00050445413216948509, 0.0004073116579093039, 0.00069120648549869657, 0.00096110498998314142, 0.0017438139766454697, 0.0003726776922121644, 0.0017195172840729356, 0.0012584994547069073, 0.00083062879275530577, 0.00074804213363677263, 0.00047670476487837732, 0.00095429091015830636, 0.00034617635537870228, 0.00019984734535682946, 0.00059118890203535557, 0.00082301622023805976, 0.0010326480260118842, 0.0004938801284879446, 0.00051304855151101947, 0.000972615962382406, 0.001411125878803432, 0.0004430747649166733, 0.0025675739161670208, 0.00069346080999821424, 0.00066619331482797861, 0.00019371577946003526, 0.0010295012034475803, 0.00042586680501699448, 0.00050575804198160768, 0.00097325915703549981, 0.00056835071882233024, 0.00024048268096521497, 0.00054847623687237501, 0.00081455911276862025, 0.00077657279325649142, 0.001189946779049933, 0.00098760146647691727, 0.0011939406394958496, 0.00038229156052693725, 0.00079800636740401387, 0.00031895094434730709, 0.0011871535098180175, 0.00059482693905010819, 0.0011806907132267952, 0.00026590391644276679, 0.0008207464125007391, 0.00054410583106800914, 0.00090758281294256449, 0.00067839433904737234, 0.0010365661000832915, 0.00055243453243747354, 0.00092693197075277567, 0.00063893385231494904, 0.0006219447823241353, 0.00054947088938206434, 0.00034982518991455436, 0.00053165014833211899, 0.0015404754085466266, 0.00080327002797275782, 0.00069433666067197919, 0.0012781367404386401, 0.0010102400556206703, 0.0014881705865263939, 0.00039297027979046106, 0.00038309357478283346, 0.00056071492144837976, 0.00031960182241164148, 0.001634297426789999, 0.00087988644372671843, 0.00061646231915801764, 0.00016985984984785318, 0.00046229199506342411, 0.00051912094932049513, 0.00068136036861687899, 0.00096119358204305172, 0.00059955636970698833, 0.00064514309633523226, 0.00088661437621340156, 0.00048142694868147373, } };
const TfLiteAffineQuantization quant12 = { (TfLiteFloatArray*)&quant12_scale, (TfLiteIntArray*)&g0::quant5_zero, 0 };
const MODEL_SECTION(EI_MODEL_SECTION) ALIGN(16) int32_t tensor_data13[16] = { -9404, -3104, -11645, 22790, 21320, 2057, -14192, 3112, 14065, 5286, 23410, 25158, -13286, 6860, 24325, -23356, };
const TfArray<16, float> quant13_scale = { 16, { 0.00050804147031158209, 0.00031714618671685457, 0.00036565214395523071, 0.00026433510356582701, 0.00037923618219792843, 0.00032191842910833657, 0.00029822258511558175, 0.0003835618554148823, 0.00022987311240285635, 0.00032871970324777067, 0.00036841767723672092, 0.00071526627289131284, 0.00044848740799352527, 0.00047127492143772542, 0.00042708110413514078, 0.00035111821489408612, } };
const TfLiteAffineQuantization quant13 = { (TfLiteFloatArray*)&quant13_scale, (TfLiteIntArray*)&g0::quant7_zero, 0 };
const MODEL_SECTION(EI_MODEL_SECTION) ALIGN(16) int8_t tensor_data14[16*1*1*96] = { 
  /* [0][0][][] */ -11,23,14,18,64,65,-43,-11,34,17,14,5,-6,15,19,56,27,1,-16,8,79,-56,21,-19,-19,-22,-31,-84,-2,-16,36,40,127,-23,16,11,-2,-16,-29,16,-33,23,29,-19,28,-21,-17,38,-16,26,4,3,-45,-16,6,-5,69,39,-2,-32,-51,46,8,-1,24,10,63,-6,5,9,-4,-9,-54,-25,-30,14,-18,-84,15,-38,34,-1,-59,-45,43,-8,1,32,-5,13,5,-46,25,27,0,111, 
  /* [1][0][][] */ 46,-79,14,66,-31,-60,8,-54,-36,-108,-11,50,18,-71,-34,-46,-84,-17,17,44,-31,-107,-39,10,127,-46,-69,18,-21,93,0,59,11,-14,-74,-1,-14,-21,45,-24,32,-69,68,-37,-34,-7,45,2,39,17,5,-61,80,-82,16,-1,13,1,-5,-84,49,-84,42,-39,-27,-70,20,36,29,52,-38,12,-68,14,8,75,48,82,33,2,53,-1,-85,33,-108,73,14,53,-48,0,32,33,4,-62,5,-14, 
  /* [2][0][][] */ 17,5,22,-17,19,-7,-10,33,52,-13,12,34,-23,15,48,9,7,-16,7,-2,-33,-49,-13,-50,-17,-4,-4,35,6,21,73,-18,15,-40,-15,50,14,127,-12,-18,-15,-29,-13,27,-30,-50,-54,22,21,14,-6,-20,27,6,-4,-28,-8,12,10,17,2,16,47,90,30,-45,24,-26,3,4,-11,17,-34,24,-24,-10,26,62,4,10,14,69,16,-9,-7,-3,27,13,20,1,14,-48,-37,8,5,44, 
  /* [3][0][][] */ -22,-12,-12,49,40,-11,4,21,-11,10,7,17,-16,-10,46,-14,56,-36,11,-1,-8,4,-19,-1,2,19,6,11,24,-37,41,-22,19,-21,-20,32,9,5,-7,47,14,-72,27,-30,14,7,-15,17,-127,36,1,19,-104,-3,-14,-19,27,11,1,39,0,15,5,-1,-24,-76,-30,23,38,26,-26,11,-44,3,-15,-7,-32,-31,30,-44,18,-8,30,56,33,39,46,4,25,-3,-3,5,-13,8,-18,-26, 
  /* [4][0][][] */ -15,-12,23,-75,-4,-33,-49,7,-26,-29,-23,-14,-7,66,24,6,36,-10,16,-11,-18,32,79,27,-16,2,15,34,14,-13,-7,-6,-19,-21,-18,17,24,-42,-13,11,28,-5,-92,-30,32,2,-14,11,12,97,12,-33,-17,-2,11,8,11,-30,35,58,7,1,18,-4,31,-121,25,-17,-34,13,-21,15,-6,5,-3,-5,-4,52,55,-5,27,10,127,-28,23,-39,-5,8,94,13,3,38,-56,11,-8,-42, 
  /* [5][0][][] */ -29,-12,22,-8,-19,-23,18,119,69,-5,-12,-42,-36,32,30,17,-21,-34,-1,-15,-57,-16,-3,-34,11,18,8,110,69,9,51,72,-32,14,-6,3,-49,-73,-31,12,-28,-30,-39,-1,62,8,-3,27,24,7,6,18,-35,-10,-5,13,-32,-13,-13,48,-61,44,-17,-17,8,0,-36,28,2,48,1,9,29,19,29,-30,-2,22,3,114,3,-50,15,32,-2,-26,48,-36,29,-37,40,-95,-56,-19,-5,-127, 
  /* [6][0][][] */ -32,-11,16,-78,-19,-16,-14,34,-2,15,5,19,42,-28,-16,-27,21,-72,1,37,5,21,1,26,95,-13,-10,-13,15,-7,0,6,-7,5,-13,7,34,-21,-2,66,-4,-25,-83,-18,-11,13,13,-127,27,43,3,21,-6,-25,-14,-29,29,-3,-30,10,24,42,7,17,40,59,24,-23,-13,18,23,-20,49,-16,64,17,-43,19,18,22,-4,-12,34,-41,4,47,17,-39,47,0,-45,13,-16,19,-11,13, 
  /* [7][0][][] */ 16,3,27,-22,0,9,-5,-35,-9,-20,-16,-21,-1,-75,31,11,7,-33,-5,-5,24,-13,-61,-11,-20,-12,-7,-40,-11,18,-3,-10,-33,29,-5,-32,10,-11,-31,5,-2,-27,-27,28,-10,18,-8,60,-14,0,-29,-22,-22,4,-11,-68,7,5,-3,-16,-4,-3,-15,-7,-10,53,18,-30,-11,-11,0,30,-15,-19,-23,15,31,1,2,-5,-29,-28,36,-7,-27,127,-15,-21,-50,-13,-3,11,-7,4,-15,12, 
  /* [8][0][][] */ -73,47,-35,-6,52,-39,0,53,24,92,-8,-5,-6,55,70,-26,-5,31,-74,24,-7,29,-8,18,-32,-1,20,56,72,-103,-23,35,61,-14,28,20,-8,45,-12,80,-14,24,-4,-127,-35,-2,17,-2,-37,22,0,64,-107,70,23,23,17,-24,-29,2,-6,-10,2,42,-14,15,30,-15,1,28,39,100,-17,45,40,10,-2,-75,0,-61,-6,-8,14,-5,-71,-20,29,-44,23,27,-21,11,37,-28,-25,-28, 
  /* [9][0][][] */ 8,-59,-50,-30,27,20,-11,29,30,-24,3,2,-21,-15,-13,22,13,-11,29,-12,-38,-11,-22,-16,45,10,22,-32,-24,-28,-34,1,-25,22,45,36,6,66,-3,5,-17,29,-36,-70,10,4,36,-127,-22,-1,-12,38,-15,11,-25,-20,-29,31,-23,8,-11,19,-7,40,15,98,41,38,29,-29,1,-8,-11,4,-17,19,43,-23,16,13,-47,14,7,-42,27,30,-24,-32,-41,30,-36,-25,6,4,-16,-15, 
  /* [10][0][][] */ 17,40,-16,18,44,-116,-12,-19,-4,56,36,-7,-14,16,6,-96,8,21,-25,37,-77,-23,25,-8,-67,-7,-50,74,16,1,2,67,14,-32,8,-1,78,-35,-20,5,9,56,22,-9,-67,-8,-38,22,-11,-17,-6,-11,-13,-21,-9,24,9,-2,-39,-8,5,12,-22,32,4,32,45,42,22,14,30,36,-32,-5,-43,-25,20,16,-27,-4,36,-18,-67,-18,40,-65,112,4,-1,-2,23,12,58,9,-12,-127, 
  /* [11][0][][] */ 55,28,-2,35,-3,8,50,4,-1,-8,-30,-20,-15,4,25,4,-6,-8,-80,-13,-9,8,-16,-16,-49,-22,-7,1,3,18,-6,5,-3,18,19,42,5,28,2,19,-8,25,44,-101,31,-40,-11,-4,-127,2,6,-41,27,18,-11,-3,-10,-2,-4,5,11,3,-11,11,-34,45,-20,9,22,0,23,12,-66,-13,1,10,-2,-24,-54,6,-17,1,94,33,14,-9,-23,-25,1,30,-17,-13,7,18,-21,6, 
  /* [12][0][][] */ -30,-9,15,5,-1,49,29,25,127,-3,-16,14,4,11,-33,-32,25,34,7,75,39,35,0,-17,4,9,27,-38,-85,8,27,-49,15,-14,3,-14,-13,9,43,-8,-32,-18,5,2,24,48,0,-11,38,23,-30,15,-9,-1,8,-11,75,3,23,21,13,-25,12,-29,6,19,-36,-6,9,-8,-11,-21,11,-2,-70,-7,21,-21,16,-77,12,23,36,37,-25,-19,-18,-17,5,19,-29,54,-21,-8,22,23, 
  /* [13][0][][] */ 25,1,-36,13,27,-3,-3,-1,7,14,27,6,4,-5,10,-27,23,-82,-53,14,4,-17,29,29,15,14,-4,-18,-14,-49,-7,18,-16,17,14,41,15,-11,4,12,-10,19,18,62,19,42,-5,-127,32,2,3,0,-14,1,3,1,-15,10,22,12,3,11,-17,3,0,-12,-15,-72,20,15,-21,-48,6,22,-4,26,-34,-22,27,-5,44,-11,-17,36,18,42,9,22,-10,7,7,4,9,10,-16,8, 
  /* [14][0][][] */ -81,-51,-5,32,12,0,-48,14,-33,-7,-4,8,72,-5,-127,6,96,21,-6,13,3,4,63,17,-118,1,46,-53,-41,-69,-14,33,-11,28,28,-65,40,64,-2,-16,28,57,-8,-22,1,99,107,26,-79,84,13,19,-52,-16,20,-13,11,15,32,29,37,18,-14,70,-1,4,-50,45,7,49,-50,-93,-43,29,4,19,17,51,60,-5,32,31,22,26,33,52,27,47,37,28,69,-8,-20,21,12,-27, 
  /* [15][0][][] */ 85,-14,45,-8,-4,78,10,-16,-1,54,15,-2,-65,-9,-13,33,2,35,40,5,21,40,-58,40,4,-8,35,-27,12,15,-38,-65,3,-43,56,-3,28,-37,-84,-83,-21,33,10,40,2,62,-19,-19,79,-28,-60,16,30,-127,55,-71,23,-57,26,10,-92,-20,26,-2,95,-17,-50,33,-10,56,-9,18,42,2,2,-17,22,-47,55,-21,-1,12,28,65,-7,-3,-8,-38,13,8,19,13,-48,38,39,-5, 
};
const TfArray<16, float> quant14_scale = { 16, { 0.021591762080788612, 0.013478712178766727, 0.015540216118097305, 0.011234241537749767, 0.016117537394165993, 0.013681532815098763, 0.012674460187554359, 0.016301378607749939, 0.0097696073353290558, 0.013970587402582169, 0.015657750889658928, 0.030398815870285034, 0.019060714170336723, 0.020029183477163315, 0.018150946125388145, 0.014922523871064186, } };
const TfLiteAffineQuantization quant14 = { (TfLiteFloatArray*)&quant14_scale, (TfLiteIntArray*)&g0::quant7_zero, 0 };
const MODEL_SECTION(EI_MODEL_SECTION) ALIGN(16) int32_t tensor_data15[96] = { 9443, -9927, 2989, 57201, -2712, -4750, -11288, 3289, -2750, 664, 3300, -2124, 2950, -6442, 6583, -5684, 193, 15490, 25506, 2079, 5262, -1986, -170, -406, 15727, 313, -771, -2474, -5645, -8583, 8133, -9334, 809, -1229, -1078, 12284, 975, -3877, 19390, -68, -1197, 2256, -9593, -8299, -8120, 60727, -910, 16446, 24737, -12568, -428, 8727, 7331, -521, -5253, 2769, -13541, 592, 2045, -6794, -1385, -622, -9185, -1774, 1294, 15871, 29752, 26222, -13110, 124, -6538, -1510, 52894, 10115, 313, 60, 19102, 35457, -499, -8558, -3027, -2139, 1073, -3674, 355, -719, 2440, -404, 3046, -3178, 1303, -1662, -702, 225, 248, 46650, };
const TfArray<96, float> quant15_scale = { 96, { 0.00017038277292158455, 0.00012285717821214348, 0.00020100836991332471, 3.7147696275496855e-05, 0.00014233609545044601, 0.00019947972032241523, 0.00032979052048176527, 7.0225971285253763e-05, 0.00015006371540948749, 0.00036001179250888526, 0.00015221172361634672, 0.00031939541804604232, 0.00010264075535815209, 0.00045229811803437769, 0.00014494988135993481, 0.00017843692330643535, 0.0001000775009742938, 0.00029139273101463914, 6.385332380887121e-05, 0.00032266537891700864, 4.0183655073633417e-05, 0.00017271738033741713, 0.00014825272955931723, 0.00032295827986672521, 0.00022907243692316115, 0.00021616919548250735, 0.00012774232891388237, 0.00017498873057775199, 0.00013832104741595685, 0.00010469429980730638, 0.00010127509449375793, 0.00019072047143708915, 0.0001323357573710382, 0.00014312534767668694, 0.00019016688747797161, 0.00019107860862277448, 0.00036933860974386334, 0.00013845990179106593, 3.8500311347888783e-05, 0.0001701118890196085, 0.00020049637532792985, 0.00033242590143345296, 0.00037749734474346042, 0.00015877887199167162, 0.00015709838771726936, 5.6765173212625086e-05, 0.0002315978636033833, 0.00020540136029012501, 0.00010321769514121115, 0.00016877218149602413, 0.00013135457993485034, 0.00014554840163327754, 0.0002380519435973838, 0.00032599500264041126, 0.00027630323893390596, 0.00041962289833463728, 0.0002620631130412221, 0.00022713241924066097, 0.00010426164953969419, 8.2306170952506363e-05, 0.00034138944465667009, 0.00013384556223172694, 0.00035688458592630923, 0.00011694933346007019, 0.00016897954628802836, 0.0001775742566678673, 7.5176329119130969e-05, 6.6318192693870515e-05, 0.00031514297006651759, 0.00019298805273137987, 0.00020987808238714933, 0.00011555708624655381, 0.00010794823174364865, 0.00015879647980909795, 0.00014780180936213583, 0.00022732927754987031, 0.00049035658594220877, 4.8619553126627579e-05, 0.00025316741084679961, 0.00022673180501442403, 0.00016175743076018989, 0.00097314512822777033, 0.00016168841102626175, 0.00016335035616066307, 0.00012247786798980087, 0.00010024861694546416, 0.00013914689770899713, 0.00019585309200920165, 0.00021005742019042373, 0.00011979315604548901, 0.00019807186617981642, 0.00011442482355050743, 0.00013677976676262915, 0.00046311540063470602, 0.0050002187490463257, 8.3641542005352676e-05, } };
const TfLiteAffineQuantization quant15 = { (TfLiteFloatArray*)&quant15_scale, (TfLiteIntArray*)&g0::quant5_zero, 0 };
const MODEL_SECTION(EI_MODEL_SECTION) ALIGN(16) int8_t tensor_data16[1*3*3*96] = { 
  /* [0][0][][] */ -16,6,-19,114,-16,25,-63,-54,19,-6,97,-10,3,-8,-1,53,0,18,-31,2,72,3,33,-34,-1,16,41,46,22,14,24,51,-4,26,13,-15,3,53,-67,-27,22,8,26,19,-84,-50,27,-4,-14,-21,-7,-6,49,7,-11,0,-2,-33,26,-29,28,-4,127,27,-11,-11,14,-53,65,36,-5,-3,74,-29,73,4,16,-127,30,60,5,12,127,-12,36,28,-32,-18,33,-5,-14,80,0,18,-2,11, -47,11,-6,10,53,-7,-9,-127,39,14,-127,-6,-18,-10,5,94,18,-28,-12,-14,81,-98,127,29,-62,-34,-107,-18,28,40,-50,21,120,11,-14,-2,-23,127,-57,-127,13,-19,-30,17,45,-127,127,-44,-78,55,49,7,38,-64,30,54,37,43,-103,86,127,33,6,-21,44,-38,-93,-5,38,-31,-19,51,-47,-45,106,-5,-32,-59,-31,58,-59,59,-11,11,-14,47,55,-40,-31,52,-16,74,-127,-32,22,-127, -1,-5,-22,-73,9,17,39,21,-1,0,-1,63,-1,-10,-7,5,-15,20,-10,18,7,22,25,-33,-2,-33,12,15,-3,10,48,-74,46,19,10,-24,14,8,-21,-21,11,4,-16,11,22,-34,24,1,5,-4,6,-4,5,7,-6,7,-10,46,2,-6,11,-20,1,-15,-25,-16,24,-51,-106,-7,40,-14,-127,-21,-12,16,10,-10,8,8,-13,24,-37,-3,-41,22,29,37,-25,-15,23,-10,20,6,-3,-47, 
  /* [0][1][][] */ -38,56,-17,41,-84,-14,-11,-44,27,96,-46,-21,-30,-25,-6,65,127,-23,-98,-15,57,-127,-24,17,-33,-51,-127,-3,35,34,-49,29,-127,-78,-57,4,67,-2,-59,47,-17,84,2,-1,36,-50,-8,-31,127,44,-4,19,44,10,-37,-16,28,9,-127,127,-33,-91,21,127,-57,-35,-84,124,-36,127,-23,56,-32,-53,39,9,-37,-73,127,50,127,38,4,-2,127,29,-100,49,-35,-35,-105,39,98,101,29,-59, 127,127,127,127,-45,-127,127,24,127,-127,17,-127,-108,127,127,127,-16,-127,-74,-127,127,23,-61,127,127,127,-58,-127,127,127,-127,127,-13,-127,-126,127,-127,-45,110,110,-127,-127,127,127,127,-110,-103,127,-14,127,-127,-127,-127,127,127,-127,127,-127,-41,39,-105,-26,-67,-69,127,127,-68,127,127,-108,-127,127,-42,127,-127,-127,-127,125,-74,127,-35,127,78,127,-38,-127,-25,-107,-127,-127,-24,-127,-22,-127,-127,116, -23,62,-38,4,127,72,-20,47,7,26,-16,-4,-28,-28,-13,-6,-107,-21,-127,39,31,75,-11,-118,-34,-44,124,72,8,37,76,9,116,-48,127,-5,56,8,-97,13,38,24,-23,2,-20,-50,-10,-42,82,15,-12,39,-5,-3,-74,-16,22,23,124,-94,2,127,2,-37,-110,-26,-76,102,15,-17,107,26,-20,-55,11,46,-31,-8,-42,-3,-41,9,43,23,-88,33,127,-48,30,-22,127,-8,-112,33,34,15, 
  /* [0][2][][] */ -4,-38,-21,-59,-4,17,41,28,-5,10,-18,54,25,-34,-8,11,45,2,11,20,-7,29,-16,-24,3,-25,11,5,-14,-9,49,-78,-39,71,-27,-26,33,-33,-64,17,11,9,-34,17,11,-72,-12,-1,-9,2,17,-6,8,1,-22,8,2,48,-50,32,-1,-11,6,19,-4,-12,19,-55,-54,10,-23,-12,-109,-35,2,20,14,-18,54,16,27,20,-40,13,13,27,-29,13,7,24,22,-4,20,39,-6,-34, -28,-8,-28,27,-43,79,-24,62,3,-6,55,-11,127,-6,-20,-15,-1,-37,-64,26,-16,78,-42,-111,-46,-50,102,68,8,43,54,-4,-127,64,-15,-25,-28,-26,-127,-3,46,-14,-15,34,-27,-37,-17,-47,-61,29,67,26,-11,-82,29,50,19,30,78,-58,21,-58,-6,3,20,-24,-127,-54,-10,-26,-61,19,32,-50,-29,-6,-45,21,-57,3,51,34,15,9,6,59,-98,127,12,122,-31,-15,111,-21,46,77, -8,-34,-26,28,13,62,-42,15,7,-4,2,15,13,-48,-11,-10,-44,-5,26,19,-22,4,-21,4,-3,16,-5,52,-7,-5,34,29,21,45,22,-25,-7,-24,-37,8,14,-10,21,10,-73,-24,-13,5,-2,-14,-1,-5,-8,9,-20,-5,1,-47,10,-34,-23,50,12,-31,-9,-3,36,-53,45,7,51,-23,25,-55,-19,23,9,13,-6,25,-26,38,85,-14,-16,53,39,-10,106,11,3,-15,5,-23,-5,-50, 
};
const TfArray<96, float> quant16_scale = { 96, { 0.0072412677109241486, 0.0052214297465980053, 0.0085428552702069283, 0.0015787770971655846, 0.0060492842458188534, 0.0084778880700469017, 0.014016096480190754, 0.0029846038669347763, 0.006377707701176405, 0.015300501137971878, 0.0064689982682466507, 0.013574304990470409, 0.0043622320517897606, 0.019222669303417206, 0.0061603700742125511, 0.0075835688039660454, 0.0042532938532531261, 0.012384191155433655, 0.0027137661818414927, 0.013713277876377106, 0.0017078053206205368, 0.0073404884897172451, 0.0063007408753037453, 0.013725726865231991, 0.0097355786710977554, 0.0091871907934546471, 0.0054290490224957466, 0.0074370210058987141, 0.0058786445297300816, 0.004449507687240839, 0.0043041915632784367, 0.0081056198105216026, 0.0056242696009576321, 0.0060828272253274918, 0.0080820927396416664, 0.0081208404153585434, 0.015696890652179718, 0.0058845458552241325, 0.0016362632159143686, 0.0072297551669180393, 0.0085210958495736122, 0.014128100126981735, 0.016043636947870255, 0.0067481021396815777, 0.0066766813397407532, 0.002412519883364439, 0.0098429089412093163, 0.0087295575067400932, 0.0043867519125342369, 0.0071728178299963474, 0.005582569632679224, 0.0061858068220317364, 0.010117207653820515, 0.01385478675365448, 0.011742887087166309, 0.017833972349762917, 0.011137682013213634, 0.0096531277522444725, 0.0044311201199889183, 0.0034980121999979019, 0.014509051106870174, 0.0056884363293647766, 0.015167594887316227, 0.0049703465774655342, 0.0071816304698586464, 0.0075469058938324451, 0.0031949938274919987, 0.0028185232076793909, 0.013393576256930828, 0.0082019921392202377, 0.008919818326830864, 0.0049111759290099144, 0.0045877997763454914, 0.0067488504573702812, 0.0062815765850245953, 0.0096614938229322433, 0.020840154960751534, 0.0020663309842348099, 0.010759615339338779, 0.0096361013129353523, 0.0068746907636523247, 0.041358668357133865, 0.0068717570975422859, 0.0069423899985849857, 0.0052053090184926987, 0.0042605660855770111, 0.0059137432835996151, 0.0083237560465931892, 0.008927440270781517, 0.0050912089645862579, 0.0084180543199181557, 0.0048630549572408199, 0.0058131399564445019, 0.019682403653860092, 0.21250928938388824, 0.0035547653678804636, } };
const TfLiteAffineQuantization quant16 = { (TfLiteFloatArray*)&quant16_scale, (TfLiteIntArray*)&g0::quant5_zero, 3 };
const MODEL_SECTION(EI_MODEL_SECTION) ALIGN(16) int32_t tensor_data17[96] = { 18902, 1426, 7486, -561, 5360, 6474, 24905, 6772, -1210, 23071, 6153, 2030, 9072, 52461, -100, -3281, 13875, 15288, 2151, -458, -974, 15428, 5038, 3070, 9171, 6709, 5560, 5463, -30, 42, 7878, 12527, 22751, 2480, 9637, -1214, 33256, 6336, 1004, 7307, 761, 14548, 15882, 5446, 4725, 13438, 20643, 8051, 6159, 3463, 380, -1037, 21402, 7219, 10140, 17967, -382, 11512, 3171, 4771, 17147, 7624, 3644, 6264, 7118, 5756, 7464, -903, 20925, 9334, 13179, -1851, -1851, 3449, 1742, 3553, 26588, 15219, 15025, -3173, 6611, -7031, -2582, 822, 7299, 7555, 9660, 6569, 16534, 4536, 10909, 6074, 19649, 24570, -10645, 23076, };
const TfArray<96, float> quant17_scale = { 96, { 0.00013782606401946396, 0.00022617960348725319, 0.0001788424706319347, 0.0009831662755459547, 0.00029497052310034633, 0.00014504669525194913, 0.00012748196604661644, 0.00051844632253050804, 0.00036542906309477985, 7.7057404268998653e-05, 0.00023003225214779377, 0.0003961737675126642, 0.0003089671372435987, 9.0272624220233411e-05, 0.0002703881764318794, 0.00019434603746049106, 0.00015521135355811566, 0.00015001723659224808, 0.00019481255731079727, 0.00039300994831137359, 0.00030738665373064578, 0.00016006336954887956, 0.00027742725796997547, 0.00023625655740033835, 0.00018911089864559472, 0.0003169652190990746, 0.00025954199372790754, 0.00015914546384010464, 0.00043615556205622852, 0.00034790296922437847, 0.0001884126104414463, 0.00014841787924524397, 8.6064770584926009e-05, 0.00043603355879895389, 0.00017337448662146926, 0.00029356725281104445, 6.8854584242217243e-05, 0.0003954145940952003, 0.00042644015047699213, 0.0001338374859187752, 0.00060284545179456472, 0.00012891151709482074, 0.00013586011482402682, 0.00013106183905620128, 0.00023106409935280681, 0.00023907292052172124, 0.00013601432146970183, 0.00018857052782550454, 0.00024361591204069555, 0.00024662326904945076, 0.00035917316563427448, 0.00063964666333049536, 0.00012489619257394224, 0.0002176023117499426, 0.00023093105119187385, 0.00010236955858999863, 0.00032895963522605598, 0.00015051667287480086, 0.00023574456281494349, 0.00034427063656039536, 0.00010021928756032139, 0.00018167050438933074, 0.00027273397427052259, 0.0004363847547210753, 0.00014609062054660171, 0.0002045315777650103, 0.00026056941715069115, 0.0004045817768201232, 0.00012929561489727348, 0.00012115485878894106, 0.00015439168782904744, 0.00026524113491177559, 0.00024347570433747023, 0.00039086537435650826, 0.00026308192173019052, 0.00034637108910828829, 8.8036023953463882e-05, 0.00029610414640046656, 0.00010977867350447923, 0.00038502991083078086, 0.00015980120224412531, 0.00029491863097064197, 0.00017494009807705879, 0.00033000344410538673, 0.00021444869344122708, 0.00020004053658340126, 0.00016135805344674736, 0.00020743544155266136, 0.0001055167886079289, 0.00035807213862426579, 0.00012927941861562431, 0.00026572681963443756, 0.0001086986594600603, 0.00011388881830498576, 0.00027547150966711342, 0.00014313048450276256, } };
const TfLiteAffineQuantization quant17 = { (TfLiteFloatArray*)&quant17_scale, (TfLiteIntArray*)&g0::quant5_zero, 0 };
const MODEL_SECTION(EI_MODEL_SECTION) ALIGN(16) int8_t tensor_data18[96*1*1*16] = { 
  /* [0][0][][] */ 17,-8,100,65,56,7,23,-27,127,12,-54,-90,20,55,4,-92, 
  /* [1][0][][] */ 53,101,-16,-19,127,-8,-20,0,53,57,-13,119,-24,-25,82,-84, 
  /* [2][0][][] */ 0,-27,-5,-14,-34,47,-71,45,-70,-63,-9,63,-62,-127,63,-113, 
  /* [3][0][][] */ 100,74,1,12,-127,-17,-46,-4,-33,25,88,-46,-43,61,-18,-18, 
  /* [4][0][][] */ 3,-23,56,44,-12,65,-14,42,-57,-27,35,5,-38,-127,7,-18, 
  /* [5][0][][] */ 63,-52,-16,-2,-19,-90,-16,22,-27,31,-127,13,16,-16,-7,19, 
  /* [6][0][][] */ -127,-83,15,116,-81,-5,-28,100,-126,-82,-66,-51,72,124,35,72, 
  /* [7][0][][] */ -18,16,-65,38,48,-127,-46,37,21,-43,31,-6,-6,8,-41,4, 
  /* [8][0][][] */ -8,-35,-16,-12,21,39,-42,-56,-19,23,-44,8,-127,-16,-9,14, 
  /* [9][0][][] */ 1,-52,36,102,54,24,-4,-100,127,-85,1,-28,22,37,-70,46, 
  /* [10][0][][] */ -113,-34,-13,-24,126,41,8,19,83,-35,-117,31,82,-97,-127,46, 
  /* [11][0][][] */ 65,-29,-127,38,52,40,2,76,-36,-48,-31,11,-15,13,-36,-4, 
  /* [12][0][][] */ 88,-63,-18,-17,-64,-64,-43,-29,2,24,-127,-46,-79,-59,34,66, 
  /* [13][0][][] */ 110,-24,-34,-86,34,-56,-127,-93,-42,-97,-46,37,25,-51,19,40, 
  /* [14][0][][] */ -76,55,-127,-61,51,-125,83,-58,24,76,-13,-88,35,102,-11,51, 
  /* [15][0][][] */ 54,-7,52,63,54,-71,-41,-11,14,-53,-85,-9,-127,-47,-21,50, 
  /* [16][0][][] */ -62,55,-8,-20,-22,66,51,83,-32,47,127,-69,47,4,-2,-66, 
  /* [17][0][][] */ -24,-4,-32,-39,-22,37,39,84,-24,127,-5,20,-31,80,47,-9, 
  /* [18][0][][] */ -3,127,-24,6,25,30,31,-75,51,115,-62,103,-18,-32,16,-68, 
  /* [19][0][][] */ 10,-31,37,19,9,29,0,14,31,16,-31,4,-127,17,-26,35, 
  /* [20][0][][] */ 102,-93,-2,-81,-11,34,36,-100,-48,19,-127,-88,63,-6,78,-10, 
  /* [21][0][][] */ 37,-16,127,17,-9,36,34,18,-14,31,2,15,-14,62,18,-7, 
  /* [22][0][][] */ 29,-10,32,20,-17,-9,31,127,18,-1,21,3,7,53,26,23, 
  /* [23][0][][] */ -45,5,-96,11,56,-127,14,30,-2,-44,-13,17,-54,-12,11,43, 
  /* [24][0][][] */ 18,-48,10,-83,16,-4,-34,-5,18,22,67,69,-19,66,127,43, 
  /* [25][0][][] */ -127,-107,-21,-4,30,-2,22,-34,-51,-17,-69,27,11,48,47,48, 
  /* [26][0][][] */ 5,2,40,6,-1,8,-53,62,-73,-64,-24,59,18,-127,27,2, 
  /* [27][0][][] */ -109,50,-48,33,55,9,-2,25,44,-32,127,10,-32,22,-7,-18, 
  /* [28][0][][] */ -8,-8,28,37,-2,-2,2,77,31,3,-33,-8,-127,-3,-30,47, 
  /* [29][0][][] */ -20,69,26,-45,28,-24,18,-25,-127,10,-40,-3,16,19,-86,13, 
  /* [30][0][][] */ -19,1,-127,-39,37,-49,-11,31,-15,-24,9,-47,-65,-32,9,26, 
  /* [31][0][][] */ 127,-37,-109,8,43,-14,-17,76,-29,23,-84,-12,40,-4,-69,36, 
  /* [32][0][][] */ -127,48,40,44,-8,99,22,49,23,5,117,0,-33,-1,-8,-8, 
  /* [33][0][][] */ 21,-41,127,-11,-98,5,8,-9,3,17,-52,18,3,22,63,48, 
  /* [34][0][][] */ -57,-67,-47,-127,-4,2,-1,-51,-20,-40,-10,-76,-45,1,30,44, 
  /* [35][0][][] */ 0,-44,11,80,85,-60,15,-43,-127,41,-14,38,-51,123,-69,-44, 
  /* [36][0][][] */ -97,19,-38,24,-4,42,70,127,26,33,127,-70,43,29,2,-60, 
  /* [37][0][][] */ -36,-14,127,-38,-66,-65,-2,-17,13,2,9,-12,-27,-30,19,33, 
  /* [38][0][][] */ -14,-37,-28,12,38,-67,-71,-23,-22,-21,71,-21,127,1,2,28, 
  /* [39][0][][] */ -21,-65,28,-50,-18,-84,3,127,-27,-59,-3,-43,1,99,50,45, 
  /* [40][0][][] */ 59,-9,-18,-23,-19,26,-17,14,12,-28,9,11,127,7,-8,1, 
  /* [41][0][][] */ -23,-16,-39,-127,36,10,-25,-89,2,-21,41,-54,15,-38,-6,33, 
  /* [42][0][][] */ 56,-6,24,118,-54,-22,-86,32,-33,-48,43,-29,-27,127,-20,-14, 
  /* [43][0][][] */ 7,76,-26,127,9,22,86,-77,-41,85,4,18,-6,-57,71,13, 
  /* [44][0][][] */ -22,-16,-127,2,60,71,-54,45,-51,-40,41,-22,23,-53,-34,6, 
  /* [45][0][][] */ 3,2,-13,-88,-8,10,109,-21,10,37,-1,-15,-8,-127,15,-46, 
  /* [46][0][][] */ 0,97,74,-55,2,62,-74,95,62,-76,-29,10,8,127,59,-16, 
  /* [47][0][][] */ 13,-20,3,-27,-34,25,-32,45,-21,-15,2,19,10,-127,36,9, 
  /* [48][0][][] */ 29,-34,35,-127,9,-9,-21,13,25,-37,17,11,18,86,4,51, 
  /* [49][0][][] */ 15,-16,-15,127,79,43,3,57,-73,17,40,35,-9,34,124,9, 
  /* [50][0][][] */ -15,-15,67,-13,0,122,-20,-46,51,-17,127,19,108,-2,9,-95, 
  /* [51][0][][] */ 39,37,32,-4,21,-5,-47,19,80,-9,14,127,-6,35,51,-61, 
  /* [52][0][][] */ -35,64,99,-6,8,-26,3,-40,-42,-11,23,46,-2,67,-127,-15, 
  /* [53][0][][] */ -11,-28,-38,-127,-23,-20,12,-22,2,37,-3,-5,7,-3,36,14, 
  /* [54][0][][] */ 16,39,-33,-46,42,-5,-31,-4,69,-30,-18,-39,-32,127,1,15, 
  /* [55][0][][] */ -23,-18,-26,1,43,-3,-3,-127,25,-106,-6,-27,-6,-71,-32,-39, 
  /* [56][0][][] */ 42,30,17,68,21,-19,37,127,31,-13,5,-32,77,-9,-45,26, 
  /* [57][0][][] */ 127,35,90,50,-67,-6,23,-15,50,35,-119,23,57,-21,67,6, 
  /* [58][0][][] */ 62,76,38,90,-127,-17,2,55,-10,41,55,-6,-50,-46,-24,-74, 
  /* [59][0][][] */ 127,-15,13,-12,-32,-18,1,36,-33,20,-118,-21,-9,27,5,26, 
  /* [60][0][][] */ -127,15,-4,5,3,14,2,26,36,-16,93,-5,-21,2,11,-7, 
  /* [61][0][][] */ -104,26,10,10,22,40,-35,-53,84,-100,127,-31,43,-33,-64,-12, 
  /* [62][0][][] */ -27,-48,-94,76,65,127,-1,119,20,-69,49,-39,-83,-47,-34,-76, 
  /* [63][0][][] */ -17,24,127,-50,-40,-66,20,-29,32,15,27,-40,-25,-40,52,-15, 
  /* [64][0][][] */ -12,88,-31,33,34,17,61,-102,-25,101,-32,1,-15,-127,15,64, 
  /* [65][0][][] */ 9,13,7,-15,97,2,12,-127,-16,-85,-37,-45,-2,-43,56,19, 
  /* [66][0][][] */ -127,-12,-7,0,-31,18,22,-40,-57,-50,-96,52,60,19,49,71, 
  /* [67][0][][] */ -16,-90,-1,127,-28,-22,0,87,-4,25,3,1,-3,-4,-90,9, 
  /* [68][0][][] */ 22,11,6,127,-48,-4,12,-16,-42,36,18,2,-1,-58,-40,-40, 
  /* [69][0][][] */ 77,39,18,127,67,-8,60,-82,25,60,7,72,11,-23,10,-9, 
  /* [70][0][][] */ -12,-55,9,-123,127,-15,88,73,94,-13,119,-84,9,113,117,111, 
  /* [71][0][][] */ 1,63,24,104,34,-122,-22,127,38,-86,22,-14,11,-42,-91,55, 
  /* [72][0][][] */ -127,-78,-10,50,38,42,-47,6,-18,-32,-75,6,43,23,14,74, 
  /* [73][0][][] */ 7,14,5,47,-8,-24,-25,-6,31,16,-19,11,31,127,-57,-42, 
  /* [74][0][][] */ 7,-12,-20,-48,-40,27,44,-2,-59,17,-127,4,-100,-25,28,27, 
  /* [75][0][][] */ -18,-13,-9,127,-58,15,-3,-13,-82,36,-37,-32,-20,-58,-3,-45, 
  /* [76][0][][] */ -3,-23,-17,48,41,8,-8,-127,23,-101,17,44,-33,-8,28,-35, 
  /* [77][0][][] */ 127,-21,27,44,-25,-5,-18,11,22,5,-19,28,16,12,-47,31, 
  /* [78][0][][] */ -32,-7,70,12,14,24,-43,37,33,-6,-16,-12,2,127,23,-21, 
  /* [79][0][][] */ 1,18,55,22,51,52,-78,-67,20,-56,51,-14,127,-14,-47,-43, 
  /* [80][0][][] */ -127,-122,-55,98,14,21,33,-18,-93,6,-47,20,109,-75,-2,36, 
  /* [81][0][][] */ 64,7,-94,74,77,74,-22,-3,-17,-127,-40,-70,-26,18,-95,57, 
  /* [82][0][][] */ 79,110,-4,36,-110,10,-75,-16,-51,-12,127,-62,-56,69,13,-33, 
  /* [83][0][][] */ 127,45,24,-39,14,-17,-22,31,36,4,77,-39,-72,-30,-25,-82, 
  /* [84][0][][] */ 32,-34,-64,3,43,10,5,-127,-15,-33,-2,19,-10,-12,-18,-10, 
  /* [85][0][][] */ 14,-16,-33,-51,-35,-27,60,127,-45,127,-58,-48,42,82,65,-26, 
  /* [86][0][][] */ 127,-19,-21,-15,-20,-75,-4,-12,-27,0,-102,-4,14,13,-13,46, 
  /* [87][0][][] */ 11,17,-21,-43,-41,14,-52,31,-5,-64,23,-21,-1,-127,4,-7, 
  /* [88][0][][] */ 34,-16,-127,-43,113,26,-20,-99,67,-79,-5,-63,-26,-12,33,-12, 
  /* [89][0][][] */ 29,-36,24,-127,13,-18,-77,86,50,-51,17,14,33,9,23,11, 
  /* [90][0][][] */ -9,-17,-14,11,127,-12,120,-117,85,120,-6,41,-10,43,-20,-52, 
  /* [91][0][][] */ 58,-26,-68,-13,-1,-127,-6,-11,-18,-7,-40,-10,47,-49,-10,21, 
  /* [92][0][][] */ 19,10,127,42,24,5,8,73,-66,35,-70,23,29,104,48,-23, 
  /* [93][0][][] */ 127,-57,-35,-9,-25,-41,21,59,-9,61,-90,-43,-28,17,-17,29, 
  /* [94][0][][] */ -6,-9,28,56,127,-25,-2,44,-22,-12,38,80,-46,82,-21,-88, 
  /* [95][0][][] */ -127,63,25,57,40,53,24,-8,32,3,124,-6,-28,31,-16,-34, 
};
const TfArray<96, float> quant18_scale = { 96, { 0.00053772656247019768, 0.00088243669597432017, 0.00069775152951478958, 0.0038358101155608892, 0.0011508235475048423, 0.00056589773157611489, 0.00049736921209841967, 0.0020227113272994757, 0.001425716676749289, 0.0003006384358741343, 0.00089746777666732669, 0.0015456667169928551, 0.0012054311810061336, 0.00035219744313508272, 0.0010549158323556185, 0.00075823848601430655, 0.00060555501841008663, 0.00058529025409370661, 0.00076005858136340976, 0.0015333230840042233, 0.0011992648942396045, 0.00062448508106172085, 0.0010823787888512015, 0.00092175183817744255, 0.00073781365063041449, 0.0012366356095299125, 0.0010125996777787805, 0.00062090391293168068, 0.0017016550991684198, 0.0013573388569056988, 0.00073508929926902056, 0.0005790503928437829, 0.00033578055445104837, 0.0017011790769174695, 0.00067641824716702104, 0.0011453487677499652, 0.00026863525272347033, 0.0015427047619596124, 0.0016637506196275353, 0.00052216515177860856, 0.0023519934620708227, 0.00050294655375182629, 0.00053005642257630825, 0.00051133602391928434, 0.00090149353491142392, 0.00093273981474339962, 0.00053065805695950985, 0.00073570542735978961, 0.00095046422211453319, 0.00096219743136316538, 0.0014013092732056975, 0.0024955729022622108, 0.00048728083493188024, 0.00084897252963855863, 0.00090097443899139762, 0.00039939346606843174, 0.0012834316585212946, 0.00058723881375044584, 0.00091975426767021418, 0.0013431672705337405, 0.00039100422873161733, 0.0007087850826792419, 0.0010640679392963648, 0.0017025492852553725, 0.00056997063802555203, 0.00079797720536589622, 0.0010166080901399255, 0.0015784704592078924, 0.0005044451099820435, 0.00047268407070077956, 0.00060235708951950073, 0.0010348347714170814, 0.00094991724472492933, 0.0015249560819938779, 0.0010264106094837189, 0.0013513622106984258, 0.00034347138716839254, 0.0011552463984116912, 0.0004283000307623297, 0.0015021890867501497, 0.0006234622560441494, 0.0011506211012601852, 0.00068252644268795848, 0.0012875040993094444, 0.00083666871068999171, 0.00078045547707006335, 0.00062953628366813064, 0.00080930662807077169, 0.00041167234303429723, 0.0013970136642456055, 0.00050438195466995239, 0.0010367296636104584, 0.00042408637818880379, 0.00044433571747504175, 0.0010747484629973769, 0.00055842165602371097, } };
const TfLiteAffineQuantization quant18 = { (TfLiteFloatArray*)&quant18_scale, (TfLiteIntArray*)&g0::quant5_zero, 0 };
const MODEL_SECTION(EI_MODEL_SECTION) ALIGN(16) int32_t tensor_data19[16] = { -45202, 355, 347, -8491, 2839, -7159, -13514, -46832, 5573, 28308, 33802, -1145, -1798, -20376, 30149, -58735, };
const TfArray<16, float> quant19_scale = { 16, { 0.00059617409715428948, 0.00081494741607457399, 0.0010018241591751575, 0.0010441375197842717, 0.0006862759473733604, 0.00089398579439148307, 0.0011407823767513037, 0.00055980385513976216, 0.00063390686409547925, 0.00075309240492060781, 0.00077593134483322501, 0.00057419482618570328, 0.0008840282098390162, 0.0014509934699162841, 0.00052274396875873208, 0.0006309187738224864, } };
const TfLiteAffineQuantization quant19 = { (TfLiteFloatArray*)&quant19_scale, (TfLiteIntArray*)&g0::quant7_zero, 0 };
const MODEL_SECTION(EI_MODEL_SECTION) ALIGN(16) int8_t tensor_data20[16*1*1*48] = { 
  /* [0][0][][] */ -18,6,-30,11,26,-2,2,104,-54,19,33,-8,12,-10,-10,16,16,-17,-10,-7,59,-14,7,127,-18,84,-4,-8,30,-15,23,-11,-17,49,29,-53,23,43,32,-14,-102,-16,24,39,38,25,-121,-49, 
  /* [1][0][][] */ -41,-3,26,12,-32,8,10,69,-59,-38,5,-47,-24,-9,-5,-4,-25,114,-17,13,-7,-6,-35,-13,31,-32,17,23,-23,-82,-26,18,-13,-2,33,-6,-9,-44,8,12,-13,-29,127,7,16,-14,13,-10, 
  /* [2][0][][] */ -30,-9,-15,-32,2,-57,3,-14,1,23,13,26,15,11,-14,16,-9,-18,-23,-23,-5,-6,0,-127,-8,69,-5,13,-3,-13,-6,-2,-6,54,5,-6,17,7,28,9,-32,5,-25,-1,-1,-7,15,12, 
  /* [3][0][][] */ -10,38,-7,-26,-1,3,3,-4,-15,0,4,39,-127,5,-7,5,-2,3,-13,6,-28,7,9,14,1,-15,1,24,-9,17,10,16,2,3,17,19,-10,21,39,11,12,7,25,-24,7,-9,9,16, 
  /* [4][0][][] */ 32,-28,12,9,23,32,19,-26,-33,-2,-10,-23,-2,13,-10,7,27,-5,-77,4,-10,12,16,69,12,-37,1,47,-1,-79,22,4,12,-32,33,-127,14,32,4,10,-16,20,17,-26,-12,-18,11,5, 
  /* [5][0][][] */ 26,6,-26,54,-3,0,5,26,0,-2,42,6,2,50,-4,-2,-20,21,32,7,11,-2,9,-28,7,-64,2,-24,-11,-5,-3,25,69,-127,4,32,-12,-12,16,0,-89,60,27,1,-14,3,-92,-6, 
  /* [6][0][][] */ 28,8,8,2,-11,1,-1,-12,-8,0,-1,6,-19,9,-6,-6,-3,-13,127,7,10,5,15,-36,2,-3,24,-10,-8,-5,-8,11,8,-18,35,-41,7,-46,75,6,2,-2,-4,5,-16,5,9,-18, 
  /* [7][0][][] */ -50,-21,-11,36,-21,81,0,52,1,28,-12,127,86,7,14,-9,-11,-26,-13,-19,-36,5,-16,73,-16,-9,-55,-32,-16,-20,-23,-19,-1,-6,-34,12,19,-71,102,4,14,27,-77,-77,2,-5,-10,1, 
  /* [8][0][][] */ -49,-48,-10,-5,0,8,-9,31,-15,-59,1,39,43,12,1,-3,-6,60,-35,-6,-52,10,-1,-17,7,-2,7,51,-3,112,-5,20,-3,4,-21,-127,-108,61,29,32,20,2,105,-18,10,17,13,31, 
  /* [9][0][][] */ -31,7,-3,34,4,-33,-5,-5,61,-38,5,59,-51,1,10,10,-10,23,-39,-37,51,3,-7,-25,-15,4,45,-27,5,4,13,5,-8,17,67,-97,-5,-127,-98,15,-44,23,49,15,-12,21,-11,-47, 
  /* [10][0][][] */ -26,-7,-39,-127,37,87,-3,0,-4,28,19,8,47,-45,-48,12,26,-38,54,-25,21,-34,45,50,-33,-106,5,-35,51,35,46,-40,-30,-73,24,-5,6,-44,5,-39,-29,-62,-10,15,9,7,13,-41, 
  /* [11][0][][] */ -3,52,-34,67,36,-76,-103,-41,0,83,-26,-5,-10,64,14,-82,20,56,7,-24,-70,-117,23,-5,11,-42,17,-19,53,-54,21,-98,40,-27,-52,-100,101,30,-4,-127,-13,83,110,-76,-10,-66,30,32, 
  /* [12][0][][] */ 127,-4,-12,19,10,17,4,92,26,-20,-64,-17,-1,6,-11,-6,-14,3,3,-8,15,-5,16,22,4,11,-12,6,-5,7,-2,12,-4,-60,-7,10,-21,-12,-28,-13,-14,-80,5,-120,-52,-4,85,-6, 
  /* [13][0][][] */ 7,2,4,2,8,-10,-6,0,-5,8,4,22,-3,5,5,-3,4,3,8,-2,11,-12,10,-4,0,2,12,127,18,-8,9,-5,7,-1,-41,19,10,-5,3,-10,-17,-1,2,6,-8,-3,-12,-13, 
  /* [14][0][][] */ 54,-25,45,-62,57,26,38,-71,-43,-50,10,127,-69,8,51,10,37,22,-51,57,31,15,59,-13,21,66,-26,-110,24,-26,46,37,5,66,-115,-45,-32,43,84,20,-42,0,46,-9,0,10,13,-28, 
  /* [15][0][][] */ 5,-49,-66,-25,67,36,87,-46,5,7,-18,-28,70,36,-101,64,48,47,77,-90,-106,-6,52,-17,-91,58,28,68,54,58,47,-66,26,62,103,127,-11,-115,2,-49,97,69,124,-61,-3,-34,-22,70, 
};
const TfArray<4, int> tensor_dimension20 = { 4, { 16,1,1,48 } };
const TfArray<16, float> quant20_scale = { 16, { 0.025337398052215576, 0.034635264426469803, 0.042577523738145828, 0.044375844299793243, 0.029166726395487785, 0.037994395941495895, 0.048483248800039291, 0.023791663348674774, 0.026941042393445969, 0.032006427645683289, 0.032977081835269928, 0.024403279647231102, 0.037571199238300323, 0.061667222529649734, 0.022216618061065674, 0.026814047247171402, } };
const TfLiteAffineQuantization quant20 = { (TfLiteFloatArray*)&quant20_scale, (TfLiteIntArray*)&g0::quant7_zero, 0 };
const MODEL_SECTION(EI_MODEL_SECTION) ALIGN(16) int32_t tensor_data21[48] = { 1951, 37316, -1065, 65546, 4463, 144659, -1612, 44083, 6499, 28151, 29837, 9425, 3160, 30975, -613, -3579, -739, 670, 2387, -1149, 968, -2474, 1879, -18891, -4711, 42955, 123983, 99689, 2725, 1384, -3364, -437, 26141, -1396, 49656, -1427, 37217, 719, 44877, 1196, -1506, 55012, 422, 690, 41114, 1066, 6964, 48645, };
const TfArray<1, int> tensor_dimension21 = { 1, { 48 } };
const TfArray<48, float> quant21_scale = { 48, { 7.8011558798607439e-05, 3.5899058275390416e-05, 0.00019330816576257348, 3.8514990592375398e-05, 0.00013967846462037414, 4.7111112507991493e-05, 0.0001543248217785731, 0.00013612622569780797, 6.4468593336641788e-05, 4.5613560359925032e-05, 4.9986352678388357e-05, 6.843965093139559e-05, 3.8208636397030205e-05, 3.2143463613465428e-05, 0.00016409321688115597, 0.00016210813191719353, 0.00016761929146014154, 6.3992178183980286e-05, 0.00010969813592964783, 0.00015906983753666282, 6.285143899731338e-05, 0.00021400015975814313, 9.4138413260225207e-05, 0.00011835110490210354, 0.00011635900591500103, 0.00010541260417085141, 2.3317332306760363e-05, 7.2756207373458892e-05, 0.00013433846470434219, 0.00013130698062013835, 0.00010395253048045561, 0.00013463672075886279, 4.4948163122171536e-05, 0.00012524511839728802, 2.5609429940232076e-05, 5.7111759815597907e-05, 0.00016036894521676004, 9.6477742772549391e-05, 0.00012833454820793122, 8.3890139649156481e-05, 0.00012769312888849527, 0.00010692034993553534, 9.3342234322335571e-05, 0.00010486609244253486, 2.679203316802159e-05, 0.00018714428006205708, 7.5983865826856345e-05, 2.3874619728303514e-05, } };
const TfArray<48, int> quant21_zero = { 48, { 0,0,0,0,0,0,0,0,0,0,0,0,0,0,0,0,0,0,0,0,0,0,0,0,0,0,0,0,0,0,0,0,0,0,0,0,0,0,0,0,0,0,0,0,0,0,0,0 } };
const TfLiteAffineQuantization quant21 = { (TfLiteFloatArray*)&quant21_scale, (TfLiteIntArray*)&quant21_zero, 0 };
const MODEL_SECTION(EI_MODEL_SECTION) ALIGN(16) int8_t tensor_data22[1*3*3*48] = { 
  /* [0][0][][] */ 69,-95,98,74,54,-35,107,-66,64,-87,-88,50,52,-44,-70,-93,101,76,49,79,66,-74,-81,51,-32,-41,-65,-65,-65,64,-61,-113,-11,42,73,66,-65,53,-50,-21,52,-73,63,63,-94,8,73,-36, 83,-103,127,87,-78,-67,-57,-85,98,-100,-66,75,82,-107,-96,88,-35,94,86,127,83,-114,51,72,-54,-78,-69,-79,54,80,-27,-127,-93,81,86,81,-79,84,-82,-15,79,-94,89,90,-74,-127,92,-104, 37,-48,69,39,19,-44,-50,-40,42,-32,6,35,32,-85,-55,-4,-57,35,36,71,36,-52,31,25,-29,-50,-45,-23,33,31,88,-91,-86,46,39,34,-31,42,-36,-10,41,-39,38,45,-4,-11,35,-76, 
  /* [0][1][][] */ 97,-110,-42,94,54,-84,127,-87,89,-113,-72,83,83,-115,-13,-127,127,109,77,-41,81,107,-127,73,73,-76,-92,-100,-127,89,-65,-9,-82,72,107,95,-87,80,-82,89,83,-100,86,94,-88,104,94,-91, 127,-127,-64,127,-127,-127,-92,-127,127,-127,-127,127,127,-127,-23,98,-65,127,127,-54,127,127,66,127,127,-127,-127,-127,51,127,-26,17,-127,127,127,127,-127,127,-127,127,127,-127,127,127,-127,-13,127,-127, 66,-79,-35,69,38,-64,-51,-64,60,-48,-65,57,50,-59,-19,12,-64,48,60,-33,59,65,49,63,64,-68,-62,-45,36,55,127,14,-66,73,50,51,-49,65,-58,55,63,-56,53,64,-56,-69,57,-55, 
  /* [0][2][][] */ 47,-46,-45,51,25,-55,63,-43,42,-72,-7,39,56,-76,84,-80,75,52,35,-31,28,-10,-74,31,-25,-44,-50,-51,-74,32,-41,88,-78,39,48,44,-29,39,-42,-86,51,-52,41,47,-22,16,39,-74, 76,-74,-44,82,-58,-64,-72,-68,55,-73,-71,61,76,-46,127,33,-46,61,65,-44,55,-16,39,67,-50,-66,-77,-61,29,61,-24,114,-59,65,57,58,-51,65,-66,-104,73,-69,61,63,-81,48,60,-50, 48,-43,-28,51,30,-22,-17,-37,19,-27,-58,29,34,3,67,25,-36,21,30,-31,31,3,39,40,-24,-34,-50,-25,34,33,58,65,-3,36,16,25,-26,34,-30,-55,29,-33,28,32,-56,8,27,-5, 
};
const TfArray<4, int> tensor_dimension22 = { 4, { 1,3,3,48 } };
